#include "embedia_model.h"
#include "embedia_debug.h"

// Initialization function prototypes
conv2d_layer_t init_conv2d_5_data(void);
conv2d_layer_t init_conv2d_6_data(void);
dense_layer_t init_dense_4_data(void);
dense_layer_t init_dense_5_data(void);


// Global Variables
conv2d_layer_t conv2d_5_data;
conv2d_layer_t conv2d_6_data;
dense_layer_t dense_4_data;
dense_layer_t dense_5_data;


void model_init(){
    conv2d_5_data = init_conv2d_5_data();
    conv2d_6_data = init_conv2d_6_data();
    dense_4_data = init_dense_4_data();
    dense_5_data = init_dense_5_data();

}

void model_predict(data3d_t input, data1d_t * output){
  
    prepare_buffers();
    
    //*************** LAYER 0 **************//
    // Layer name: conv2d_5
    data3d_t output0;
    conv2d_layer(conv2d_5_data, input, &output0);
    // Activation layer for conv2d_5
    relu_activation(output0.data, 5040);
    // Debug function for layer conv2d_5
    print_data3d_t("conv2d_5", output0);
    
    //*************** LAYER 1 **************//
    // Layer name: max_pooling2d_4
    input = output0;
    static const pooling2d_layer_t max_pooling2d_4_data = { 2, 2 };
    max_pooling2d_layer(max_pooling2d_4_data, input, &output0);
    // Debug function for layer max_pooling2d_4
    print_data3d_t("max_pooling2d_4", output0);
    
    //*************** LAYER 2 **************//
    // Layer name: conv2d_6
    input = output0;
    conv2d_layer(conv2d_6_data, input, &output0);
    // Activation layer for conv2d_6
    relu_activation(output0.data, 2016);
    // Debug function for layer conv2d_6
    print_data3d_t("conv2d_6", output0);
    
    //*************** LAYER 3 **************//
    // Layer name: flatten_2
    input = output0;
    data1d_t output1;
    flatten3d_layer(input, &output1);
    // Debug function for layer flatten_2
    print_data1d_t("flatten_2", output1);
    
    //*************** LAYER 4 **************//
    // Layer name: dense_4
    data1d_t input1;
    input1 = output1;
    dense_layer(dense_4_data, input1, &output1);
    
    // Activation layer for dense_4
    relu_activation(output1.data, 16);
    // Debug function for layer dense_4
    print_data1d_t("dense_4", output1);
    
    //*************** LAYER 5 **************//
    // Layer name: dense_5
    input1 = output1;
    dense_layer(dense_5_data, input1, &output1);
    
    // Activation layer for dense_5
    softmax_activation(output1.data, 3);
    // Debug function for layer dense_5
    print_data1d_t("dense_5", output1);
    

    *output = output1;

}

int model_predict_class(data3d_t input, data1d_t * results){
  
   
    model_predict(input, results);
    
    return argmax(*results);
    //return argmax(data1d_t);

}

// Implementation of initialization functions



conv2d_layer_t init_conv2d_5_data(void){

        static filter_t filters[8];
        
        static const float weights0[]={ 
    0.13644304871559143, -0.13144882023334503, 0.22220617532730103, 
    0.03314090520143509, 0.27577149868011475, 0.5183407068252563, 
    0.007391749415546656, -0.04158691316843033, 0.3014853000640869, 

        };
        static filter_t filter0 = {1, 3, weights0, 0.05731738731265068};
        filters[0]=filter0;
            
        static const float weights1[]={ 
    0.35805433988571167, 0.5089086294174194, 0.05861432105302811, 
    -0.16423173248767853, -0.17179365456104279, -0.04828079417347908, 
    -0.45105716586112976, -0.2891048491001129, 0.18673206865787506, 

        };
        static filter_t filter1 = {1, 3, weights1, -0.024525055661797523};
        filters[1]=filter1;
            
        static const float weights2[]={ 
    0.02031535468995571, -0.28666138648986816, -0.3578175902366638, 
    0.3334121108055115, -0.1994938999414444, -0.2746700048446655, 
    0.15861468017101288, -0.06742941588163376, 0.05378405749797821, 

        };
        static filter_t filter2 = {1, 3, weights2, 0.03849027678370476};
        filters[2]=filter2;
            
        static const float weights3[]={ 
    -0.3156299293041229, -0.23700425028800964, -0.4363776445388794, 
    0.5126101970672607, -0.38756659626960754, 0.1094522774219513, 
    0.25624459981918335, -0.04729875549674034, -0.03157089650630951, 

        };
        static filter_t filter3 = {1, 3, weights3, 0.057209551334381104};
        filters[3]=filter3;
            
        static const float weights4[]={ 
    -0.20758609473705292, 0.09164571762084961, 0.18465930223464966, 
    0.26192861795425415, 0.43836039304733276, -0.12061701714992523, 
    0.3517003655433655, 0.4112357795238495, 0.3185117840766907, 

        };
        static filter_t filter4 = {1, 3, weights4, 0.060739822685718536};
        filters[4]=filter4;
            
        static const float weights5[]={ 
    0.4489242732524872, 0.1512121856212616, 0.14053216576576233, 
    0.4039050340652466, 0.2881263792514801, 0.23012155294418335, 
    -0.4112280607223511, -0.12996695935726166, -0.022877784445881844, 

        };
        static filter_t filter5 = {1, 3, weights5, 0.019437983632087708};
        filters[5]=filter5;
            
        static const float weights6[]={ 
    -0.18433775007724762, -0.5278524160385132, -0.11947330832481384, 
    0.035960592329502106, 0.5730855464935303, 0.00012394197983667254, 
    0.11304029822349548, 0.33072566986083984, 0.24226276576519012, 

        };
        static filter_t filter6 = {1, 3, weights6, 0.037904269993305206};
        filters[6]=filter6;
            
        static const float weights7[]={ 
    -0.02549535408616066, -0.24587784707546234, -0.1374330073595047, 
    -0.16105717420578003, -0.17317251861095428, -0.2877393364906311, 
    0.45210000872612, 0.17159545421600342, 0.03417467698454857, 

        };
        static filter_t filter7 = {1, 3, weights7, 0.10276754200458527};
        filters[7]=filter7;
            
        conv2d_layer_t layer = {8, filters};
        return layer;
        }
        

conv2d_layer_t init_conv2d_6_data(void){

        static filter_t filters[16];
        
        static const float weights0[]={ 
    -0.08926761895418167, 0.14946527779102325, 
    0.15014997124671936, -0.11916937679052353, 

    0.20623141527175903, -0.21190962195396423, 
    0.2980131208896637, 0.017219169065356255, 

    0.1420518308877945, 0.15021665394306183, 
    -0.46142539381980896, 0.13033153116703033, 

    0.11062891781330109, 0.22615905106067657, 
    -0.3081393539905548, -0.04248517006635666, 

    0.1908668875694275, -0.15184354782104492, 
    -0.05315900221467018, 0.31344228982925415, 

    0.10019282251596451, -0.005404572002589703, 
    -0.015521423891186714, 0.1747315675020218, 

    0.3655536472797394, -0.16426970064640045, 
    -0.3578633964061737, 0.3062807023525238, 

    0.07122956961393356, 0.00883747823536396, 
    -0.39488035440444946, 0.2820115387439728, 

        };
        static filter_t filter0 = {8, 2, weights0, -0.011307897977530956};
        filters[0]=filter0;
            
        static const float weights1[]={ 
    -0.11000445485115051, 0.13604767620563507, 
    -0.3489845097064972, 0.05589573457837105, 

    0.2003638744354248, -0.025058427825570107, 
    0.2474595308303833, 0.23231405019760132, 

    0.009643844328820705, 0.02649017982184887, 
    -0.21246708929538727, -0.13086490333080292, 

    0.29852280020713806, 0.2666305601596832, 
    0.030577316880226135, -0.1560799777507782, 

    0.0545295849442482, -0.15257680416107178, 
    -0.4226657450199127, -0.4638831317424774, 

    0.06580895185470581, 0.14735881984233856, 
    -0.07099214941263199, 0.1258322149515152, 

    0.42991483211517334, 0.3552056849002838, 
    -0.5230199694633484, -0.36839038133621216, 

    0.34495335817337036, 0.4901657998561859, 
    0.19688557088375092, -0.13422994315624237, 

        };
        static filter_t filter1 = {8, 2, weights1, -0.016131792217493057};
        filters[1]=filter1;
            
        static const float weights2[]={ 
    0.10919419676065445, 0.1292186677455902, 
    0.3476937711238861, 0.38148653507232666, 

    -0.3603299558162689, -0.3185765743255615, 
    0.1364346742630005, 0.3236605226993561, 

    -0.20074433088302612, -0.014209176413714886, 
    -0.4806266725063324, 0.19168008863925934, 

    -0.2617650330066681, -0.34823036193847656, 
    -0.6224583387374878, -0.10204299539327621, 

    0.012864569202065468, 0.06067952141165733, 
    -0.08026120811700821, 0.3602399230003357, 

    -0.10091173648834229, 0.22615021467208862, 
    -0.25355157256126404, 0.2778393030166626, 

    0.027970030903816223, 0.03705059364438057, 
    -0.2577473819255829, 0.00917547382414341, 

    -0.5961002707481384, -0.38275495171546936, 
    -0.30038249492645264, 0.19171719253063202, 

        };
        static filter_t filter2 = {8, 2, weights2, 0.15277869999408722};
        filters[2]=filter2;
            
        static const float weights3[]={ 
    -0.07447564601898193, -0.24562717974185944, 
    0.03362493962049484, 0.20775723457336426, 

    -0.25089922547340393, -0.043399106711149216, 
    -0.11556629091501236, -0.042626217007637024, 

    -0.7026048898696899, 0.690912663936615, 
    -0.3892980217933655, 0.015111465938389301, 

    -0.2081998586654663, 0.20622745156288147, 
    -0.42037901282310486, -0.11491046100854874, 

    0.11796358972787857, -0.1974715292453766, 
    0.25783979892730713, 0.18679647147655487, 

    -0.37061208486557007, 0.01734153740108013, 
    -0.1999889314174652, 0.2568184435367584, 

    0.3832872807979584, -0.049620673060417175, 
    0.4863118827342987, -0.28589487075805664, 

    0.25226858258247375, 0.3494631350040436, 
    -0.2339659035205841, 0.15047791600227356, 

        };
        static filter_t filter3 = {8, 2, weights3, 0.03572336956858635};
        filters[3]=filter3;
            
        static const float weights4[]={ 
    -0.1752738505601883, 0.08689207583665848, 
    0.0819394513964653, 0.11473038792610168, 

    -0.151182621717453, -0.16358056664466858, 
    -0.4505448341369629, 0.21342171728610992, 

    -0.4041591286659241, -0.06520456075668335, 
    0.06480984389781952, -0.43026772141456604, 

    -0.46264082193374634, -0.5218672156333923, 
    0.20436261594295502, 0.18400056660175323, 

    -0.31136757135391235, 0.03245299309492111, 
    0.30575716495513916, 0.19257310032844543, 

    -0.05793890357017517, -0.31597524881362915, 
    -0.27065494656562805, 0.39361006021499634, 

    -0.007386410608887672, -0.06096731498837471, 
    0.32515934109687805, 0.5138970017433167, 

    -0.44546106457710266, -0.03680824860930443, 
    0.3991158604621887, 0.030981622636318207, 

        };
        static filter_t filter4 = {8, 2, weights4, 0.040814273059368134};
        filters[4]=filter4;
            
        static const float weights5[]={ 
    0.39305123686790466, 0.09045283496379852, 
    0.16782739758491516, -0.012301214039325714, 

    -0.11127068847417831, -0.08071939647197723, 
    -0.4243212044239044, -0.04575781896710396, 

    0.1114564910531044, -0.02713780663907528, 
    0.08386647701263428, -0.04927610605955124, 

    -0.1595408022403717, 0.20152251422405243, 
    -0.0795820876955986, -0.4343407452106476, 

    0.2567909359931946, 0.2870042622089386, 
    -0.07856788486242294, 0.08693082630634308, 

    0.24217285215854645, 0.1257389783859253, 
    -0.17780953645706177, -0.18254335224628448, 

    0.16158060729503632, -0.031686440110206604, 
    -0.31517305970191956, -0.11538611352443695, 

    -0.5177549123764038, -0.2259184867143631, 
    -0.320202499628067, -0.1892852783203125, 

        };
        static filter_t filter5 = {8, 2, weights5, 0.02772771753370762};
        filters[5]=filter5;
            
        static const float weights6[]={ 
    -0.15989598631858826, 0.11741849035024643, 
    0.1494189351797104, 0.02628208138048649, 

    -0.298877090215683, -0.25272902846336365, 
    -0.038741860538721085, -0.0971493199467659, 

    0.17173956334590912, -0.1740601509809494, 
    -0.09623965620994568, -0.36024972796440125, 

    -0.13874785602092743, 0.04802515357732773, 
    -0.20947036147117615, -0.4748162031173706, 

    0.24338862299919128, 0.2557234466075897, 
    0.10479598492383957, 0.15243075788021088, 

    0.14540423452854156, 0.0008415093761868775, 
    0.1760454624891281, 0.23584476113319397, 

    -0.14748147130012512, -0.0708237960934639, 
    -0.2902379631996155, 0.1351386159658432, 

    -0.04211964085698128, -0.07677806168794632, 
    -0.40076690912246704, 0.19027838110923767, 

        };
        static filter_t filter6 = {8, 2, weights6, 0.051663465797901154};
        filters[6]=filter6;
            
        static const float weights7[]={ 
    0.05323425307869911, -0.25633350014686584, 
    0.0007641276461072266, 0.20962686836719513, 

    0.5318376421928406, -0.15253520011901855, 
    -0.34848687052726746, 0.24767325818538666, 

    -0.44022929668426514, -0.2352505475282669, 
    -0.0625726729631424, -0.0065983920358121395, 

    -0.25908219814300537, -0.2984946668148041, 
    -0.03154505416750908, 0.19730502367019653, 

    -0.17348341643810272, -0.10053487867116928, 
    0.0781564861536026, 0.11067589372396469, 

    0.3681761622428894, 0.18808753788471222, 
    0.12987950444221497, -0.062317151576280594, 

    -0.1866188943386078, -0.2882676124572754, 
    -0.035097669810056686, 0.25149378180503845, 

    -0.011692484840750694, 0.38150253891944885, 
    0.31839311122894287, -0.1507560908794403, 

        };
        static filter_t filter7 = {8, 2, weights7, -0.013752302154898643};
        filters[7]=filter7;
            
        static const float weights8[]={ 
    0.060263097286224365, 0.1132822334766388, 
    -0.08065702766180038, 0.1869327425956726, 

    -0.3129657804965973, -0.1153106689453125, 
    -0.016187796369194984, 0.08321335911750793, 

    0.28350555896759033, -0.21271158754825592, 
    0.11835398524999619, -0.08048555254936218, 

    -0.1632264107465744, 0.018010610714554787, 
    -0.012317415326833725, -0.14158384501934052, 

    0.20493175089359283, -0.08244483172893524, 
    0.2232946902513504, 0.22909530997276306, 

    0.24240180850028992, 0.2000061571598053, 
    -0.09649718552827835, -0.19538439810276031, 

    -0.009418128989636898, 0.14191359281539917, 
    -0.025034574791789055, 0.006158560048788786, 

    -0.42280319333076477, -0.564619243144989, 
    -0.14649398624897003, -0.21466322243213654, 

        };
        static filter_t filter8 = {8, 2, weights8, 0.0886806845664978};
        filters[8]=filter8;
            
        static const float weights9[]={ 
    -0.0923212468624115, -0.15398412942886353, 
    0.28271305561065674, 0.25525209307670593, 

    -0.2591114044189453, -0.22063197195529938, 
    -0.031888674944639206, -0.1365884393453598, 

    -0.10744253545999527, -0.007008020766079426, 
    -0.3602473735809326, 0.16121317446231842, 

    0.05815887078642845, -0.2626141309738159, 
    -0.41456398367881775, 0.15358886122703552, 

    0.29929444193840027, -0.08467251062393188, 
    -0.03480503335595131, 0.14782369136810303, 

    -0.30868998169898987, -0.34305402636528015, 
    0.2377699613571167, 0.27436819672584534, 

    0.3211568593978882, -0.19916121661663055, 
    0.14228464663028717, -0.20300546288490295, 

    0.3566681444644928, 0.19291633367538452, 
    -0.23432186245918274, 0.33169302344322205, 

        };
        static filter_t filter9 = {8, 2, weights9, -0.03403283655643463};
        filters[9]=filter9;
            
        static const float weights10[]={ 
    -0.237350732088089, -0.04270484670996666, 
    0.29053130745887756, 0.06910987943410873, 

    -0.5225285291671753, 0.13423247635364532, 
    -0.26778408885002136, 0.1486821323633194, 

    -0.685712993144989, -0.35216736793518066, 
    -0.16874729096889496, -0.04498555138707161, 

    -0.3124437928199768, -0.05248313769698143, 
    0.012962178327143192, -0.11016837507486343, 

    0.2160785049200058, -0.034953128546476364, 
    -0.1724756807088852, 0.153062641620636, 

    -0.30354130268096924, 0.035527296364307404, 
    -0.08464640378952026, 0.07321032136678696, 

    0.0610722079873085, 0.2809595465660095, 
    -0.08251425623893738, 0.040005479007959366, 

    -0.011977077461779118, 0.38621896505355835, 
    -0.2350882589817047, 0.35771992802619934, 

        };
        static filter_t filter10 = {8, 2, weights10, 0.16026794910430908};
        filters[10]=filter10;
            
        static const float weights11[]={ 
    -0.07057534158229828, 0.01762516424059868, 
    -0.21767166256904602, 0.03154335916042328, 

    0.5437993407249451, 0.08158739656209946, 
    0.3321811258792877, -0.11544863879680634, 

    -0.04527371749281883, 0.1197139322757721, 
    -0.11977560818195343, 0.2820274531841278, 

    -0.04464305564761162, 0.26697972416877747, 
    -0.05104658752679825, 0.04028098285198212, 

    -0.2517648935317993, -0.07365945726633072, 
    -0.08975811302661896, -0.2605482041835785, 

    0.39572426676750183, 0.033869821578264236, 
    -0.11505386233329773, 0.12681792676448822, 

    -0.022274427115917206, 0.09143701195716858, 
    0.20779459178447723, 0.4003188908100128, 

    0.3620230555534363, 0.293092280626297, 
    0.3514788746833801, 0.05392400547862053, 

        };
        static filter_t filter11 = {8, 2, weights11, 0.008872395381331444};
        filters[11]=filter11;
            
        static const float weights12[]={ 
    0.23020651936531067, -0.19451585412025452, 
    0.155445858836174, -0.1820681095123291, 

    0.09630119800567627, 0.12840916216373444, 
    -0.3797440230846405, -0.3596673011779785, 

    -0.07152467966079712, -0.19570322334766388, 
    -0.12465397268533707, 0.02620762772858143, 

    0.003093836596235633, -0.27795180678367615, 
    -0.35066208243370056, 0.00855852197855711, 

    0.2512839734554291, 0.032220080494880676, 
    0.05618049576878548, 0.2286127358675003, 

    0.07081920653581619, 0.23959173262119293, 
    0.09970451146364212, -0.06262906640768051, 

    0.07057778537273407, 0.08813402056694031, 
    0.3110697567462921, 0.10511112213134766, 

    -0.4229723811149597, -0.3047734200954437, 
    -0.05848744884133339, 0.1978999525308609, 

        };
        static filter_t filter12 = {8, 2, weights12, 0.04326671361923218};
        filters[12]=filter12;
            
        static const float weights13[]={ 
    -0.20764505863189697, -0.3404119312763214, 
    0.02035401202738285, -0.21119016408920288, 

    -0.24189504981040955, -0.4047147333621979, 
    0.02114238031208515, 0.29903557896614075, 

    0.1421063095331192, 0.1679026037454605, 
    -0.05022001639008522, -0.2586438059806824, 

    -0.0837121531367302, -0.1645440012216568, 
    0.2525802552700043, -0.16074766218662262, 

    0.017069624736905098, 0.051849592477083206, 
    0.25777769088745117, -0.15365228056907654, 

    0.042328085750341415, -0.3720753788948059, 
    0.19286713004112244, 0.2154863178730011, 

    0.117924265563488, 0.11650030314922333, 
    0.3089466094970703, -0.07262048870325089, 

    0.3160912096500397, 0.12687960267066956, 
    0.4987758696079254, -0.07667043805122375, 

        };
        static filter_t filter13 = {8, 2, weights13, -0.0653303787112236};
        filters[13]=filter13;
            
        static const float weights14[]={ 
    0.2905727028846741, 0.14873968064785004, 
    0.06889455020427704, -0.19163544476032257, 

    0.27781617641448975, -0.12170702964067459, 
    0.09125124663114548, -0.1617594212293625, 

    -0.5301806926727295, 0.1486521065235138, 
    -0.18418516218662262, 0.12512092292308807, 

    -0.4190640449523926, 0.13322238624095917, 
    -0.06812657415866852, -0.15662233531475067, 

    0.29163238406181335, -0.007227545138448477, 
    0.23327764868736267, 0.09449329227209091, 

    -0.2283526360988617, -0.18190772831439972, 
    -0.1337188482284546, 0.20193864405155182, 

    0.09291474521160126, -0.14424698054790497, 
    0.018806595355272293, 0.09255365282297134, 

    -0.23143832385540009, 0.004423729609698057, 
    -0.2861221432685852, 0.48180127143859863, 

        };
        static filter_t filter14 = {8, 2, weights14, 0.0008836124907247722};
        filters[14]=filter14;
            
        static const float weights15[]={ 
    -0.3954412639141083, -0.6609950065612793, 
    -0.07137741893529892, -0.280959814786911, 

    -0.2434770166873932, -0.19379566609859467, 
    0.11123675853013992, -0.41774889826774597, 

    0.464165598154068, 0.05860033258795738, 
    0.13972850143909454, 0.39955583214759827, 

    0.3604598343372345, 0.00048267137026414275, 
    0.6207621693611145, 0.4117175042629242, 

    0.18617293238639832, -0.32318606972694397, 
    0.3073635697364807, -0.38397812843322754, 

    -0.10376197844743729, -0.6312693953514099, 
    0.47925999760627747, -0.3635593056678772, 

    -0.11170313507318497, -0.7122090458869934, 
    0.3859513998031616, -0.18257668614387512, 

    0.4720653295516968, 0.30373719334602356, 
    0.33591872453689575, 0.4502035677433014, 

        };
        static filter_t filter15 = {8, 2, weights15, 0.12568587064743042};
        filters[15]=filter15;
            
        conv2d_layer_t layer = {16, filters};
        return layer;
        }
        
dense_layer_t init_dense_4_data(void){

    static neuron_t neurons[16];

    static const float weights0[] ={
    -0.02713600918650627, 0.10022719949483871, 0.024315079674124718, -0.07317119091749191, 
    0.16187573969364166, -0.0631459504365921, -0.06705722957849503, 0.20129935443401337, 
    0.08637355268001556, -0.09069671481847763, 0.01003932487219572, 0.14575250446796417, 
    0.047146402299404144, -0.0701470598578453, -0.011102663353085518, -0.21717065572738647, 
    -0.05941931903362274, -0.02460455149412155, 0.031849175691604614, 0.12435317039489746, 
    0.17117847502231598, -0.06400351971387863, -0.031098773702979088, 0.198264479637146, 
    0.11239638179540634, -0.0014707613736391068, 0.050394490361213684, 0.07357853651046753, 
    0.16416524350643158, -0.11997812986373901, 0.07589016109704971, -0.10110251605510712, 
    -0.006624932866543531, 0.00629035709425807, 0.05882396921515465, -0.02931709960103035, 
    0.13254451751708984, 0.0028513374272733927, -0.04193640872836113, 0.1909174919128418, 
    0.11962782591581345, -0.02968006022274494, 0.028535908088088036, 0.056607380509376526, 
    0.13709548115730286, 0.04780404269695282, 0.08553846925497055, -0.034992560744285583, 
    -0.00888165831565857, 0.08100429177284241, 0.005711482372134924, -0.04650081694126129, 
    0.10407733917236328, 0.06674695760011673, -0.01841995306313038, 0.19137057662010193, 
    0.10520132631063461, 0.053521595895290375, -0.05484987422823906, -0.018844641745090485, 
    0.18870310485363007, 0.09121305495500565, 0.0473213791847229, 0.007701331749558449, 
    -0.04829007387161255, 0.16782142221927643, -0.10544481873512268, -0.08872570097446442, 
    0.0708576887845993, 0.032847464084625244, -0.073133185505867, 0.13555683195590973, 
    -0.018241282552480698, -0.10382433980703354, -0.08887043595314026, 0.057727836072444916, 
    0.016361841931939125, -0.0001624980359338224, -0.021694501861929893, -0.029539205133914948, 
    -0.20125608146190643, 0.21518585085868835, -0.135149285197258, -0.17500180006027222, 
    -0.006581294350326061, 0.08965907245874405, -0.0664655938744545, 0.09066314995288849, 
    0.011494051665067673, -0.1709359735250473, -0.15543675422668457, 0.007876168005168438, 
    0.018713217228651047, -0.036009714007377625, -0.13268978893756866, 0.026295455172657967, 
    -0.0786861926317215, -0.04764203354716301, -0.03704394772648811, -0.1272755265235901, 
    -0.12512922286987305, 0.06954667717218399, -0.08202094584703445, -0.06176771968603134, 
    -0.08068624883890152, -0.045000914484262466, -0.10786286741495132, -0.11561781167984009, 
    -0.03054557740688324, -0.16455398499965668, -0.09109573811292648, 0.09635085612535477, 
    -0.07625189423561096, -0.2344389408826828, 0.0337035208940506, -0.11365767568349838, 
    -0.15587489306926727, 0.06431213021278381, -0.042195092886686325, -0.014173532836139202, 
    -0.029448140412569046, -0.12681683897972107, 0.07033436000347137, -0.181582510471344, 
    -0.03478929027915001, -0.12816965579986572, -0.0995417907834053, 0.07608739286661148, 
    -0.09736458957195282, -0.11185474693775177, 0.030530409887433052, -0.015323755331337452, 
    -0.11608448624610901, -0.08733397722244263, -0.07894117385149002, 0.006144664715975523, 
    -0.028139499947428703, -0.11080370098352432, 0.05866730585694313, -0.06842565536499023, 
    -0.028275085613131523, -0.0941067487001419, 0.006208350881934166, -0.022994661703705788, 
    -0.09817148745059967, -0.026344120502471924, -0.06494376063346863, -0.06600112468004227, 
    -0.16605867445468903, -0.004382916260510683, -0.09186604619026184, 0.09461569041013718, 
    -0.07975472509860992, -0.07635311037302017, -0.013067010790109634, 0.06714604794979095, 
    -0.04151757061481476, -0.035241980105638504, -0.10075541585683823, 0.02337547577917576, 
    -0.1600487381219864, -0.06611114740371704, -0.09392829239368439, -0.20770379900932312, 
    -0.15751135349273682, -0.11693132668733597, -0.18575920164585114, -0.06407201290130615, 
    -0.12990109622478485, -0.09908763319253922, -0.10154380649328232, 0.042418066412210464, 
    -0.080731600522995, -0.11296243965625763, -0.1817820519208908, 0.04091069847345352, 
    -0.12028992921113968, -0.1527276635169983, -0.09911465644836426, -0.048950083553791046, 
    -0.08337637037038803, -0.08979172259569168, -0.1019815132021904, -0.019815949723124504, 
    -0.09340763092041016, -0.10735239833593369, -0.019353004172444344, 0.031504563987255096, 
    -0.06051520258188248, -0.1321357935667038, -0.1073748916387558, 0.07417643070220947, 
    -0.12163885682821274, -0.02965131402015686, -0.07770390808582306, -0.049530889838933945, 
    -0.0058829644694924355, -0.22319845855236053, -0.05474916845560074, 0.07886581122875214, 
    -0.14934170246124268, -0.0494997538626194, -0.053008072078228, 0.11047679930925369, 
    -0.12655921280384064, -0.09638389199972153, -0.248108372092247, 0.09429953247308731, 
    -0.10649162530899048, 0.009005353786051273, -0.07667239755392075, -0.07302243262529373, 
    0.04118454083800316, -0.15476955473423004, -0.07363703101873398, 0.06120027229189873, 
    -0.18198266625404358, -0.06143315136432648, 0.02373235486447811, 0.1081395372748375, 
    -0.08701916038990021, -0.04211224988102913, -0.08194392919540405, 0.061623089015483856, 
    0.031073233112692833, 0.004972468130290508, 0.01614542491734028, 0.012547854334115982, 
    0.09485311061143875, -0.08778425306081772, -0.02411014214158058, 0.06948265433311462, 
    1.2575514119816944e-05, 0.08820626139640808, 0.1245981827378273, 0.10855648666620255, 
    0.07165506482124329, -0.11340255290269852, 0.09028710424900055, -0.03165101259946823, 
    -0.12208789587020874, 0.15639016032218933, -0.11383942514657974, 0.024435680359601974, 
    0.11051045358181, -0.028895273804664612, -0.06907103210687637, 0.011463094502687454, 
    -0.0034375288523733616, -0.0533054880797863, -0.06014057993888855, 0.020647654309868813, 
    0.03059745766222477, -0.0022327208425849676, 0.04005059227347374, -0.13031062483787537, 
    -0.12758438289165497, 0.04165324941277504, -0.02683321200311184, -0.04747883602976799, 
    0.03573514521121979, 0.0268972497433424, -0.00545085221529007, 0.02257760986685753, 
    0.08934219181537628, -0.08485419303178787, -0.036413490772247314, -0.05795300006866455, 
    -0.05825934186577797, 0.020231062546372414, -0.10038591176271439, -0.09970365464687347, 
    0.08355113863945007, 0.009205535054206848, 0.07422123849391937, 0.11416909843683243, 
    0.014683913439512253, 0.009429872035980225, 0.06219260022044182, -0.03990272060036659, 
    -0.0021345254499465227, 0.16530917584896088, 0.13214999437332153, 0.0032924211118370295, 
    0.08224114775657654, -0.042373642325401306, 0.19250628352165222, -0.009456497617065907, 
    -0.04109920933842659, -0.015004457905888557, -0.19881650805473328, -0.09006085246801376, 
    0.13064603507518768, -0.03142132610082626, -0.232849583029747, 0.05533269792795181, 
    -0.04752223566174507, -0.06339449435472488, -0.13912613689899445, 0.07143127918243408, 
    0.031573545187711716, 0.06213023141026497, -0.03589213639497757, 0.07742182165384293, 
    -0.17814810574054718, 0.010773055255413055, -0.13505131006240845, 0.04777880385518074, 
    -0.016497688367962837, 0.025972697883844376, -0.17687110602855682, -0.046959761530160904, 
    -0.01007099263370037, -0.06832415610551834, -0.19613279402256012, -0.08477164804935455, 
    -0.01554966438561678, 0.09707576036453247, -0.12087495625019073, 0.21595090627670288, 
    -0.06554454565048218, -0.06471961736679077, -0.1360202431678772, -0.0795132964849472, 
    -0.01246554683893919, 0.01773558184504509, -0.13460907340049744, 0.034415461122989655, 
    -0.03350928798317909, -0.06795564293861389, -0.12411748617887497, -0.01809326745569706, 
    -0.16256943345069885, -0.09053201973438263, -0.08550435304641724, -0.00858940090984106, 
    -0.06376709043979645, -0.1856755167245865, 0.048115357756614685, -0.09376200288534164, 
    -0.07608894258737564, 0.021966377273201942, -0.04577210918068886, -0.21285097301006317, 
    -0.07668601721525192, 0.029591932892799377, 0.06665882468223572, -0.22124682366847992, 
    -0.054418522864580154, -0.07436550408601761, -0.06867606937885284, 0.13436608016490936, 
    -0.06474535167217255, -0.13584870100021362, -0.020474636927247047, -0.02440452016890049, 
    -0.09256002306938171, -0.07944110780954361, -0.00939543079584837, -0.03497590497136116, 
    0.0014799881028011441, -0.08564173430204391, 0.15546073019504547, 0.021981606259942055, 
    -0.06156764179468155, -0.06599303334951401, 0.018117748200893402, 0.02999977208673954, 
    -0.04794638976454735, -0.07046841084957123, -0.01874746009707451, 0.03402400761842728, 
    -0.12345641851425171, -0.0591873936355114, -0.06722749769687653, -0.05789661779999733, 
    -0.07310441136360168, -0.026639780029654503, 0.12738651037216187, -0.048601724207401276, 
    -0.05532967671751976, -0.016475234180688858, 0.029989812523126602, -0.050975311547517776, 
    -0.06405680626630783, -0.041482165455818176, -0.13023273646831512, -0.011174322105944157, 
    -0.04916444420814514, -0.14008070528507233, -0.04117544740438461, -0.07810121029615402, 
    -0.12961530685424805, -0.08802773803472519, -0.01810653693974018, -0.01885094866156578, 
    -0.1125345304608345, -0.07208416610956192, -0.031562697142362595, 0.07908155769109726, 
    -0.021711181849241257, 0.07648682594299316, -0.09421709179878235, -0.003757518483325839, 
    -0.009413357824087143, -0.029613377526402473, -0.16012336313724518, 0.015489933080971241, 
    -0.007254278287291527, -0.16069954633712769, 0.021876078099012375, 0.058415863662958145, 
    -0.04636584594845772, 0.027843734249472618, -0.08373185247182846, 0.12477578222751617, 
    -0.12435510754585266, 0.03954555466771126, -0.03861000016331673, -0.05118190869688988, 
    -0.029617737978696823, 0.01895124278962612, -0.15734460949897766, -0.14276523888111115, 
    -0.04091866686940193, -0.19575759768486023, 0.0003393787774257362, -0.03350726142525673, 
    -0.09969055652618408, -0.04607988893985748, -0.14035549759864807, 0.17560753226280212, 
    -0.020787173882126808, 0.0712146908044815, -0.0421450175344944, -0.06363916397094727, 
    -0.08264417946338654, -0.040105052292346954, -0.05047241970896721, -0.0809037834405899, 
    -0.0275933425873518, -0.09006442874670029, 0.008809887804090977, -0.02597411721944809, 
    -0.091895692050457, -0.009498590603470802, -0.0862196758389473, 0.0689004585146904, 
    0.011995591223239899, 0.20779921114444733, -0.012806398794054985, 0.027500281110405922, 
    0.1179613322019577, 0.021786075085401535, 0.015408550389111042, -0.0009632658329792321, 
    -0.04394671693444252, 0.10614307969808578, -0.018037952482700348, -0.0043069832026958466, 
    0.049734197556972504, -0.11862912029027939, 0.10527526587247849, -0.14317668974399567, 
    -0.03877716884016991, 0.08196914196014404, -0.09344974160194397, 0.013581386767327785, 
    0.06867159157991409, -0.026236901059746742, -0.04695889353752136, -0.06333612650632858, 
    -0.041191767901182175, 0.014379465021193027, -0.051957059651613235, 0.0785624161362648, 
    -0.0432385578751564, -0.06144953891634941, 0.02071211487054825, -0.23547546565532684, 
    -0.02485986240208149, -0.04766028746962547, 0.018594102934002876, -0.05882035940885544, 
    0.06861532479524612, -0.11064667999744415, 0.035979755222797394, 0.043421365320682526, 
    0.08230852335691452, 0.0233648382127285, 0.04278430715203285, -0.14754784107208252, 
    -0.036484017968177795, -0.02682025544345379, -0.08014968782663345, -0.20962569117546082, 
    -0.03681591898202896, 0.05817963182926178, 0.06804845482110977, 0.09699386358261108, 
    0.08648992329835892, 0.058983542025089264, -0.08399371057748795, 0.07718312740325928, 
    -0.019152751192450523, -0.06090711057186127, 0.029323041439056396, 0.15784861147403717, 
    -0.05846260115504265, 0.010728093795478344, 0.14073176681995392, -0.08270485699176788, 
    0.1199219822883606, 0.005112373735755682, -0.016051562502980232, 0.10476288199424744, 
    0.027734093368053436, -0.0863654613494873, -0.013049520552158356, -0.006427440792322159, 
    -0.10133352130651474, 0.04239489138126373, 0.14453081786632538, 0.08201255649328232, 
    -0.07779919356107712, 0.019904835149645805, 0.03891468048095703, 0.04829753190279007, 
    0.047154832631349564, -0.2660122513771057, -0.0459945872426033, 0.09722158312797546, 
    -0.04057477042078972, -0.16462188959121704, -0.05265137553215027, 0.010669825598597527, 
    -0.01601484604179859, 0.1512964963912964, -0.08644163608551025, -0.15190798044204712, 
    0.030441658571362495, 0.10152417421340942, 0.02725936844944954, 0.2601628303527832, 
    -0.1479124128818512, -0.2887289226055145, 0.030297236517071724, -0.06421254575252533, 
    -0.0813574567437172, -0.17658071219921112, -0.08231884986162186, -0.0023210870567709208, 
    0.02639026567339897, 0.0028262643609195948, -0.03640502318739891, -0.14930492639541626, 
    0.011478458531200886, 0.12380709499120712, -0.013027398847043514, 0.34907183051109314, 
    -0.11336332559585571, -0.16022281348705292, 0.04781359061598778, 0.06387750804424286, 
    0.006979542318731546, -0.0022417274303734303, -0.015846457332372665, -0.008527609519660473, 
    0.1138162910938263, -0.004799895454198122, 0.04577532783150673, -0.161749929189682, 
    0.003166184527799487, 0.020114826038479805, 0.03845145180821419, 0.11012043058872223, 
    -0.019757365807890892, -0.1104874312877655, 0.04879695922136307, 0.04391797259449959, 
    0.0711212307214737, -0.13524898886680603, 0.01745215244591236, -0.013164447620511055, 
    0.07011646032333374, 0.029561098664999008, 0.019140606746077538, -0.08807222545146942, 
    0.07908983528614044, 0.06066160276532173, 0.140219047665596, 0.15817512571811676, 
    -0.060839030891656876, -0.2041929066181183, 0.02738012559711933, 0.11169376224279404, 
    0.041362982243299484, -0.06307344138622284, 0.05541465803980827, -0.07560981810092926, 
    0.005171052645891905, 0.02832568995654583, 0.14630690217018127, -0.08583757281303406, 
    0.037932876497507095, 0.07313128560781479, 0.06270486861467361, 0.04440266266465187, 
    -0.007738866843283176, 0.020798707380890846, 0.027863385155797005, 0.11616821587085724, 
    0.06157447397708893, -0.09989979863166809, -0.044185955077409744, 0.02553059719502926, 
    -0.06824851036071777, 0.09788312762975693, 0.11141199618577957, -0.10829782485961914, 
    -0.027812175452709198, 0.021586908027529716, 0.05797584727406502, 0.11264906823635101, 
    -0.1051018014550209, 0.061098940670490265, -0.08166014403104782, 0.09358001500368118, 
    -0.03618220239877701, -0.1544303447008133, -0.03356335312128067, -0.08373028039932251, 
    -0.01352569181472063, 0.06775625050067902, -0.06818485260009766, -0.07823675125837326, 
    0.05293341353535652, 0.08707660436630249, 0.007817317731678486, 0.15751346945762634, 
    -0.027097001671791077, 0.052189577370882034, 0.05399515479803085, -0.019072340801358223, 
    -0.006428535096347332, -0.1577894687652588, -0.07740531861782074, -0.04637474939227104, 
    0.009617116302251816, 0.0689309760928154, 0.10800530016422272, 0.019224509596824646, 
    -0.014233657158911228, -0.01850692182779312, 0.013345613144338131, 0.07219056040048599, 
    -0.023699656128883362, -0.06922576576471329, 0.006549314595758915, 0.045760512351989746, 
    0.02941250056028366, -0.15345360338687897, -0.06603721529245377, 0.06716325134038925, 
    -0.021839696913957596, -0.07559897750616074, 0.06859631836414337, 0.11789347231388092, 
    0.054618705064058304, 0.041770484298467636, 0.01112885121256113, 0.132307767868042, 
    0.07586871087551117, 0.29484859108924866, 0.014810213819146156, -0.046583764255046844, 
    0.11717931181192398, 0.017565177753567696, -0.028811387717723846, 0.06843192130327225, 
    0.020727034658193588, -0.0053891586139798164, -0.1729622781276703, 0.0656813234090805, 
    0.0010991652961820364, 5.966786193312146e-05, 0.005002463236451149, 0.053337953984737396, 
    0.060616541653871536, 0.015665994957089424, 0.06656227260828018, -0.04280868172645569, 
    0.04467454552650452, 0.03272222727537155, -0.004591751378029585, 0.14440864324569702, 
    0.13799715042114258, -0.024038130417466164, 0.05090497061610222, 0.1509629338979721, 
    -0.04356908053159714, -0.1321156919002533, 0.06656689196825027, -0.3528521656990051, 
    0.02317783609032631, -0.04044682905077934, 0.08005799353122711, 0.02179950661957264, 
    0.20233051478862762, -0.04108182713389397, 0.04755556583404541, 0.08469700068235397, 
    0.05478417128324509, 0.034677088260650635, 0.11825061589479446, -0.01395709253847599, 
    -0.026801548898220062, 0.0462806299328804, 0.06266504526138306, -0.12355374544858932, 
    0.018429597839713097, 0.030736248940229416, 0.03645012155175209, 0.053623463958501816, 
    0.06444267928600311, -0.0037262290716171265, -0.03876321762800217, 0.09302505105733871, 
    0.06896103918552399, -0.013487509451806545, 0.05318153649568558, 0.08392532169818878, 
    0.07044132053852081, 0.04612942039966583, 0.05819415673613548, 0.010171600617468357, 
    0.05556175857782364, -0.027408475056290627, 0.017022503539919853, 0.08339620381593704, 
    -0.004071915987879038, 0.04088064655661583, 0.02118000201880932, 0.059582602232694626, 
    0.04232141748070717, -0.00018291323794983327, 0.012129589915275574, 0.18045969307422638, 
    0.023828985169529915, 0.03317752107977867, 0.10951759666204453, 0.05526313558220863, 
    0.14430177211761475, 0.07566381990909576, 0.08764610439538956, 0.05581431835889816, 
    0.02464415319263935, 0.0019315850222483277, 0.037161361426115036, 0.03777409717440605, 
    0.09394901245832443, 0.14111316204071045, -0.12053030729293823, 0.08855171501636505, 
    0.06104996055364609, -0.020981760695576668, 0.11379443109035492, 0.13537167012691498, 
    0.11804204434156418, -0.09467492252588272, 0.04744156450033188, 0.12677806615829468, 
    0.12025284022092819, 0.02919141761958599, 0.03298873081803322, -0.07094036042690277, 
    0.07107676565647125, 0.13298191130161285, 0.04012029618024826, -0.02159230411052704, 
    0.10664153844118118, 0.17044487595558167, 0.09189116209745407, 0.2975037693977356, 
    0.020280728116631508, -0.13997377455234528, 0.10278636962175369, 0.02874002978205681, 
    -0.0034512882120907307, 0.06057585030794144, 0.04405348747968674, -0.12811961770057678, 
    -0.0004516694461926818, 0.12147574126720428, 0.12293467670679092, -0.08101444691419601, 
    0.0926450863480568, 0.15299615263938904, -0.026161134243011475, 0.3022603988647461, 
    -0.0004692621878348291, -0.022586511448025703, 0.008073468692600727, -0.01620011404156685, 
    -0.03240663558244705, 0.1438663899898529, 0.09530308842658997, -0.034835897386074066, 
    0.05235258862376213, 0.04210079088807106, 0.051438502967357635, -0.036718182265758514, 
    0.05632343515753746, 0.12360156327486038, 0.045255012810230255, 0.14201116561889648, 
    0.11987481266260147, 0.06811212748289108, 0.010589277371764183, -0.0972440242767334, 
    -0.22644901275634766, -0.0008014897466637194, -0.022289469838142395, -0.2569655179977417, 
    0.09707322716712952, -0.05660135671496391, 0.0744176059961319, -0.048270173370838165, 
    -0.060789141803979874, -0.04000592231750488, 0.004522316623479128, 0.16823194921016693, 
    0.08206824213266373, 0.01043397095054388, 0.042311374098062515, -0.0388060063123703, 
    -0.22541463375091553, 0.09061852097511292, -0.05237770825624466, -0.2229972630739212, 
    0.01315043494105339, -0.07819869369268417, 0.11336614936590195, -0.01641884818673134, 
    -0.05304102227091789, -0.10934809595346451, 0.02913530357182026, -0.008977302350103855, 
    0.1375804841518402, 0.03573689982295036, -0.013925154693424702, 0.02771065942943096, 
    -0.1036863923072815, -0.03053765930235386, -0.027688363566994667, -0.015504834242165089, 
    -0.05104281008243561, 0.022635335102677345, -0.010087343864142895, 0.11827537417411804, 
    -0.05795115604996681, 0.02484339475631714, 0.04423970729112625, 0.02701207436621189, 
    0.05262208729982376, 0.0034048508387058973, 0.025026965886354446, -0.010121503844857216, 
    -0.039852648973464966, -0.01823384501039982, 0.017432086169719696, -0.14514295756816864, 
    -0.03332585096359253, 0.02060520276427269, 0.0605020709335804, 0.07201530039310455, 
    -0.023196661844849586, 0.10427418351173401, 0.05882107466459274, 0.16414694488048553, 
    -0.021079599857330322, -0.004236468579620123, 0.0030035146046429873, -0.029362954199314117, 
    -0.0727878138422966, -0.051023855805397034, -0.01361156441271305, -0.16084834933280945, 
    -0.055948808789253235, -0.053603045642375946, -0.07645809650421143, 0.09502406418323517, 
    -0.014032316394150257, 0.12477549910545349, -0.012723001651465893, 0.11862106621265411, 
    0.09180738776922226, 0.21159015595912933, -0.07171978801488876, 0.00011598150740610436, 
    0.09595894813537598, -0.04264191538095474, 0.03831950202584267, 0.13739286363124847, 
    -0.04956309497356415, 0.2294660061597824, 0.013243387453258038, 0.1542527675628662, 
    0.016480283811688423, 0.15620900690555573, 0.10101161152124405, 0.029233194887638092, 
    0.03291390463709831, 0.2124619334936142, 0.021962875500321388, 0.04578186944127083, 
    0.09860514104366302, -0.0614442341029644, 0.060409463942050934, 0.014471234753727913, 
    -0.017950844019651413, 0.08479559421539307, 0.07006990909576416, 0.17604735493659973, 
    0.10590315610170364, -0.0036772964522242546, 0.029533544555306435, -0.34852278232574463, 
    0.03165944293141365, 0.1427745819091797, 0.0198436938226223, 0.019297797232866287, 
    -0.0013126777485013008, 0.023579135537147522, -0.015302387997508049, 0.020806346088647842, 
    -0.010724633000791073, 0.04273296892642975, 0.1774429827928543, 0.10679421573877335, 
    0.05396223068237305, 0.016046175733208656, -0.030573422089219093, -0.12509305775165558, 
    0.08607720583677292, 0.06509077548980713, 0.029389742761850357, -0.05806942656636238, 
    0.03582838922739029, 0.08721239119768143, 0.10339181125164032, 0.04919978976249695, 
    0.058721575886011124, -0.089088074862957, 0.10485599935054779, 0.11280080676078796, 
    0.041572656482458115, 0.04409162700176239, 0.08485352993011475, -0.11460241675376892, 
    0.03250434622168541, -0.010297399945557117, 0.027512511238455772, 0.09356070309877396, 
    0.04433193430304527, 0.09986674785614014, 0.06319652497768402, -0.010493977926671505, 
    0.09488745033740997, 0.10148515552282333, 0.1016344279050827, -0.1628202199935913, 
    0.07357349246740341, -0.031000971794128418, 0.07736536115407944, -0.15461982786655426, 
    0.1285388022661209, 0.03679271414875984, 0.07864728569984436, 0.06056620553135872, 
    0.041165679693222046, 0.054560136049985886, 0.0898662656545639, -0.020402273163199425, 
    0.07689699530601501, 0.1263885498046875, 0.038132134824991226, -0.0953466072678566, 
    0.0960850715637207, 0.06993331760168076, 0.07121852785348892, -0.046247344464063644, 
    0.1669168621301651, 0.017582517117261887, 0.08603636175394058, -0.005125939380377531, 
    -0.11312223970890045, 0.1880747675895691, 0.07548753917217255, -0.00017854809993878007, 
    0.09819944947957993, -0.006093081086874008, 0.08345071226358414, 0.02213442325592041, 
    -0.010731439106166363, 0.1296813040971756, 0.11285041272640228, 0.2564055025577545, 
    0.1578313410282135, -0.07937220484018326, 0.07844813168048859, 0.06521796435117722, 
    -0.169547438621521, 0.050256889313459396, 0.17466114461421967, -0.12603819370269775, 
    0.065188929438591, 0.1240721270442009, 0.019043665379285812, -0.09902971982955933, 
    0.12631286680698395, 0.029055915772914886, 0.0241140965372324, 0.1406434327363968, 
    0.03394829109311104, -0.11447121202945709, -0.043110642582178116, -0.028696851804852486, 
    -0.1589696705341339, 0.001455760793760419, 0.030311480164527893, 0.06090908125042915, 
    0.06922821700572968, 0.04042292386293411, -0.15879759192466736, 0.10402113199234009, 
    0.09735242277383804, 0.10899486392736435, 0.0004987702704966068, 0.1744622439146042, 
    -0.06166857108473778, -0.1697068065404892, -0.1291108876466751, -0.07484392076730728, 
    -0.10038070380687714, -0.030013542622327805, -0.09214578568935394, 0.03397533670067787, 
    -0.049829933792352676, -0.02732769399881363, 0.0008939107065089047, 0.1181216761469841, 
    0.015219606459140778, -0.03521515429019928, 0.05144727975130081, 0.11461201310157776, 
    -0.06779277324676514, -0.0848192423582077, -0.012160819955170155, -0.061401043087244034, 
    -0.08088534325361252, -0.07143554091453552, -0.050136491656303406, 0.0871533527970314, 
    -0.040924590080976486, -0.09932094067335129, -0.034136299043893814, 0.08969806134700775, 
    0.017343904823064804, -0.10726707428693771, 0.006277649197727442, -0.0997430756688118, 
    0.03175261989235878, -0.03553130477666855, -0.07171547412872314, 0.02751118317246437, 
    -0.02667851373553276, -0.00012881614384241402, -0.02245469205081463, 0.07217895239591599, 
    -0.06478513777256012, -0.02518353797495365, 0.013696490786969662, 0.05153919756412506, 
    -0.007846049033105373, 0.0289140697568655, 0.011904008686542511, -0.12167685478925705, 
    -0.021406056359410286, -0.04784156382083893, -0.0730723962187767, 0.01408854965120554, 
    0.022776976227760315, 0.03163255751132965, -0.044709596782922745, 0.09769272804260254, 
    -0.020146885886788368, 0.019471095874905586, 0.0612759068608284, 0.08636832237243652, 
    0.009775027632713318, 0.08752507716417313, -0.023303834721446037, 0.07251736521720886, 
    0.05745672434568405, -0.11784566193819046, 0.013335914351046085, 0.02368011511862278, 
    -0.014491850510239601, -0.037864938378334045, -0.01603236421942711, 0.06952710449695587, 
    -0.028068283572793007, -0.047911155968904495, 0.010089809074997902, 0.1589868664741516, 
    0.06475517898797989, 0.053329844027757645, 0.007647531572729349, 0.0755351111292839, 
    0.11124132573604584, 0.1818520724773407, -0.001479372032918036, -0.030815739184617996, 
    0.12385154515504837, 0.08609301596879959, 0.018089333549141884, 0.1445419043302536, 
    -0.010162067599594593, 0.0673280656337738, 0.03206900134682655, 0.24324439465999603, 
    0.11749188601970673, -0.05570575222373009, 0.07309948652982712, -0.13180439174175262, 
    -0.006180210504680872, 0.25176623463630676, -0.11161905527114868, 0.12103544920682907, 
    0.09542500972747803, 0.005162293557077646, -0.022324101999402046, -0.016257887706160545, 
    0.07152646034955978, 0.04817723482847214, -0.03449375927448273, 0.16247238218784332, 
    -0.015477631241083145, 0.09531830251216888, -0.016698459163308144, -0.16250796616077423, 
    0.0193279180675745, 0.1682072877883911, 0.0641714558005333, 0.012820817530155182, 
    0.047322407364845276, 0.018763218075037003, 0.07758434116840363, 0.08899111300706863, 
    0.08849237114191055, 0.02711458131670952, -0.00891493447124958, 0.09762457758188248, 
    0.027511727064847946, 0.024029187858104706, -0.02472608909010887, -0.1462438553571701, 
    0.014420290477573872, 0.0002032045740634203, 0.008567365817725658, -0.009247616864740849, 
    0.03973326459527016, -0.0034662126563489437, 0.09698301553726196, 0.015018083155155182, 
    0.09660286456346512, 0.05643660947680473, -0.0810350850224495, -0.00019492435967549682, 
    0.04204541817307472, -0.026797203347086906, 0.02900792844593525, -0.05848298221826553, 
    -0.028024358674883842, 0.06513706594705582, 0.09365776926279068, 0.009974258951842785, 
    -0.026150157675147057, 0.06008630618453026, 0.01699140854179859, -0.01435113325715065, 
    0.039280153810977936, 0.013093480840325356, -0.11282899230718613, -0.018529554829001427, 
    0.023236196488142014, 0.03275701031088829, 0.11066631227731705, -0.16555427014827728, 
    0.03525986522436142, 0.08020401746034622, 0.05481681600213051, 0.060163162648677826, 
    -0.029768258333206177, 0.10042236000299454, 0.06817811727523804, -0.051619093865156174, 
    0.0960349291563034, 0.01570669189095497, -0.17170952260494232, -0.017240038141608238, 
    0.10776473581790924, 0.05025414749979973, 0.11553233116865158, -0.1314033716917038, 
    0.13131055235862732, -0.06305795907974243, 0.10340611636638641, -0.11679653078317642, 
    -0.08712007850408554, 0.06666986644268036, 0.11364901065826416, 0.011664796620607376, 
    0.13353602588176727, -0.0019600337836891413, -0.16304980218410492, 0.007735755294561386, 
    0.08869569003582001, 0.07189539074897766, -0.05635511130094528, 0.12106423079967499, 
    0.0697488784790039, -0.04573379084467888, 0.08503799885511398, 0.008166558109223843, 
    -0.1030946671962738, 0.04640120640397072, 0.0325351245701313, 0.15231242775917053, 
    0.07592440396547318, 0.030798036605119705, 0.04586922749876976, 0.10499347746372223, 
    0.05751807987689972, 0.04826110973954201, 0.116239532828331, -0.032166413962841034, 
    0.10311030596494675, -0.008622710593044758, 0.0325712189078331, -0.006452108733355999, 
    -0.13699275255203247, 0.03911328315734863, 0.1283881962299347, -0.11822252720594406, 
    0.00904738251119852, 0.10128432512283325, -0.012961944565176964, -0.0606965534389019, 
    -0.03572401404380798, 0.01773916557431221, 0.028623415157198906, 0.15575812757015228, 
    0.06049006059765816, -0.003256693948060274, 0.027022117748856544, -0.03785637021064758, 
    -0.044643204659223557, -0.06864612549543381, -0.049111559987068176, -0.07029052078723907, 
    -0.05847180634737015, 0.06322694569826126, -0.07586400210857391, -0.06871014833450317, 
    -0.043007541447877884, 0.04478025436401367, 0.0207880400121212, -0.004314899444580078, 
    0.013372374698519707, 0.09193547815084457, -0.032388895750045776, -0.09712119400501251, 
    -0.03635213524103165, -0.11673815548419952, 0.023272104561328888, -0.08758092671632767, 
    -0.004686281085014343, -0.07133796811103821, -0.028325732797384262, -0.06808087974786758, 
    -0.02036653831601143, -0.09519098699092865, -0.002849811688065529, -0.005416395608335733, 
    -0.020515888929367065, 0.15854454040527344, 0.05489697679877281, 0.01911361888051033, 
    -0.0108270775526762, 0.05788838863372803, 0.017802804708480835, -0.01846333220601082, 
    0.006395755335688591, 0.009814885444939137, -0.01438178401440382, 0.09284163266420364, 
    0.0665183812379837, -0.0017008084105327725, -0.07254495471715927, -0.06447146087884903, 
    0.0028986616525799036, 0.1874249130487442, 0.06363140791654587, 0.018456896767020226, 
    0.020766841247677803, -0.01990501768887043, -0.053044941276311874, 0.04595620930194855, 
    0.019516795873641968, 0.05183464661240578, 0.05410800874233246, 0.03612643480300903, 
    -0.05607197433710098, 0.052873581647872925, -0.04712190851569176, 0.054353054612874985, 
    -0.02044861949980259, 0.15806497633457184, -0.03097590245306492, -0.0013011160772293806, 
    0.009396983310580254, -0.05071788653731346, -0.0918271616101265, 0.010789190419018269, 
    -0.015737859532237053, 0.004740511067211628, 0.07256129384040833, 0.04190582036972046, 
    -0.04808449745178223, -0.011481115594506264, -0.055383145809173584, 0.012941716238856316, 
    -0.009884710423648357, 0.15602877736091614, -0.06931129097938538, 0.05969180911779404, 
    0.15280623733997345, 0.04919345676898956, 0.07105248421430588, 0.2680894434452057, 
    -0.0266589168459177, 0.07315133512020111, 0.0672396644949913, 0.24848559498786926, 
    0.05478176847100258, -0.0029204103630036116, 0.10818856954574585, 0.00023279074230231345, 
    0.026507927104830742, 0.1688814014196396, -0.12979009747505188, 0.1197097897529602, 
    0.08918094635009766, -0.008656942285597324, 0.006367421709001064, 0.04680467024445534, 
    0.04354994371533394, 0.06791485846042633, -0.14184364676475525, 0.1342378854751587, 
    0.08282053470611572, 0.053924981504678726, -0.04611257463693619, -0.2596386671066284, 
    -0.017046844586730003, 0.0878274142742157, 0.01639541983604431, 0.027987809851765633, 
    0.1277168095111847, -0.019912054762244225, -0.0017503781709820032, 0.02194736897945404, 
    0.04313638061285019, -0.04897274076938629, -0.014476891607046127, 0.11595150828361511, 
    -0.025407426059246063, 0.07427826523780823, -0.04583755135536194, -0.1269797533750534, 
    -0.009877349250018597, 0.1022731140255928, 0.09084532409906387, 0.002964119426906109, 
    0.05047319084405899, 0.05743363872170448, 0.10224059969186783, 0.11759412288665771, 
    0.108554407954216, 0.029812561348080635, -0.05628683418035507, 0.19335177540779114, 
    0.0934063196182251, -0.009978128597140312, 0.0688462033867836, -0.089054636657238, 
    0.020277056843042374, 0.1657489389181137, 0.023904114961624146, -0.021653056144714355, 
    0.07540920376777649, 0.08433640748262405, 0.020688798278570175, 0.02746482752263546, 
    0.0508589968085289, 0.012740954756736755, -0.0799667239189148, -0.03617890179157257, 
    0.07494243234395981, 0.014966877177357674, 0.03970576822757721, -0.004970915615558624, 
    0.09522553533315659, 0.06406818330287933, 0.05305677279829979, 0.018607348203659058, 
    -0.009316367097198963, 0.1374070644378662, -0.005213215947151184, 0.03575354069471359, 
    0.10772153735160828, 0.0391695573925972, -0.023448660969734192, 0.05618472769856453, 
    0.05801001936197281, -0.037915606051683426, 0.04112750291824341, -0.07490268349647522, 
    0.06087658554315567, 0.046580806374549866, -0.036655209958553314, 0.0755847692489624, 
    -0.12464985251426697, 0.11168808490037918, 0.02993880957365036, -0.0024709126446396112, 
    0.05033658444881439, 0.02348085306584835, -0.0982322171330452, 0.07853783667087555, 
    0.0763150304555893, -0.01760060153901577, 0.00505317747592926, 0.1649526059627533, 
    0.103960782289505, 0.07903870940208435, 0.06617170572280884, 0.04098740220069885, 
    -0.146738663315773, 0.06561308354139328, 0.06586140394210815, -0.047438349574804306, 
    0.10449535399675369, 0.07053819298744202, -0.03527630865573883, 0.038114164024591446, 
    0.07926198095083237, -0.05472290888428688, 0.019205467775464058, 0.11751152575016022, 
    0.07497380673885345, 0.08108735084533691, 0.007797852624207735, -0.06344318389892578, 
    -0.16097602248191833, 0.04810298606753349, -0.04970798268914223, 0.03890353441238403, 
    -0.011439223773777485, 0.038422875106334686, 0.07516258955001831, 0.1951534003019333, 
    0.04652346670627594, 0.054349932819604874, -0.032176148146390915, 0.12077395617961884, 
    0.07842888683080673, 0.018196703866124153, -0.0794423520565033, -0.06012759730219841, 
    -0.2058102786540985, 0.037449002265930176, -0.053944651037454605, -0.06530788540840149, 
    -0.04685578495264053, -0.05418447405099869, 0.09371894598007202, 0.06633789837360382, 
    -0.09912215918302536, -0.056160058826208115, -0.003342537907883525, 0.14462116360664368, 
    0.01246438454836607, 0.059460047632455826, 0.05828540399670601, -0.06335105001926422, 
    -0.20398111641407013, -0.003647429635748267, -0.01596280373632908, -0.0024341591633856297, 
    -0.029198437929153442, -0.0961250439286232, 0.0616956390440464, 0.12441910058259964, 
    0.004705832805484533, -0.17930015921592712, -0.07880542427301407, 0.016377735882997513, 
    0.06428975611925125, 0.07083570212125778, 0.030971918255090714, 0.037444137036800385, 
    -0.15125910937786102, 0.03161488473415375, -0.032481733709573746, -0.09471098333597183, 
    0.008840546943247318, 0.05428982898592949, 0.02056581899523735, 0.1315629929304123, 
    -0.047100942581892014, -0.04915570467710495, -0.03398269787430763, -0.03359595686197281, 
    0.030954746529459953, 0.048044316470623016, -0.08586041629314423, -0.021590137854218483, 
    -0.04522990807890892, 0.03759311884641647, -0.10749608278274536, 0.02572745457291603, 
    -0.03581012412905693, 0.05504505708813667, -0.002342080231755972, 0.21395115554332733, 
    0.06390707939863205, 0.030964413657784462, 0.019068684428930283, 0.04237052798271179, 
    -0.07622063905000687, 0.12332112342119217, -0.12059827893972397, -0.024092789739370346, 
    -0.09282024949789047, 0.03045695088803768, -0.15270574390888214, 0.05479886755347252, 
    0.004117215983569622, -0.010603033006191254, -0.020783456042408943, 0.1825237274169922, 
    0.015513288788497448, 0.05525674298405647, -0.13568466901779175, 0.1760883331298828, 
    0.013505452312529087, 0.16024070978164673, 0.025508765131235123, 0.09327327460050583, 
    0.21067743003368378, 0.08191472291946411, -0.012107905931770802, 0.14797472953796387, 
    0.12882699072360992, 0.08368614315986633, -0.037055086344480515, 0.2014511674642563, 
    0.10804947465658188, -0.022080302238464355, 0.06344019621610641, -0.040387317538261414, 
    0.10342688113451004, 0.10611594468355179, -0.02320595271885395, 0.16118086874485016, 
    0.16016222536563873, -0.021285556256771088, 0.02383291907608509, 0.12977638840675354, 
    0.07569165527820587, 0.03369544446468353, 0.014315354637801647, 0.20457670092582703, 
    0.043393585830926895, -0.004005580674856901, 0.17094673216342926, -0.049161866307258606, 
    -0.03492022305727005, 0.01956624910235405, -0.010571571998298168, -0.017856378108263016, 
    0.1554291546344757, -0.0070661078207194805, 0.08745122700929642, 0.009282904677093029, 
    0.05951600521802902, -0.042909424751996994, 0.00628326740115881, -0.07880188524723053, 
    0.07152312994003296, 0.06012141332030296, -0.02715231105685234, -0.0694739818572998, 
    0.031262341886758804, 0.09949133545160294, 0.019677329808473587, 0.03439369052648544, 
    -0.034838736057281494, 0.07265131175518036, 0.030821094289422035, 0.1204073503613472, 
    0.11251268535852432, 0.033828988671302795, 0.031822431832551956, 0.18608424067497253, 
    0.05935532972216606, -0.0067136227153241634, 0.1411687433719635, -0.09433065354824066, 
    0.02321828529238701, 0.03956199437379837, 0.045093365013599396, 0.04597168415784836, 
    -0.03852531313896179, 0.01874886266887188, 0.05246575549244881, 0.023621585220098495, 
    -0.002408836502581835, 0.04460971802473068, 0.06055014580488205, 0.03469561040401459, 
    0.07908764481544495, -0.042945075780153275, 0.03977316617965698, 0.007342373486608267, 
    0.0056129684671759605, 0.045634038746356964, 0.010444007813930511, -0.027857407927513123, 
    0.056931525468826294, -0.01622210443019867, -0.01760186441242695, 0.03982291370630264, 
    -0.02163992077112198, 0.010526490397751331, -0.014319655485451221, 0.01788276620209217, 
    0.056696753948926926, 0.04150925576686859, 0.0902102068066597, 0.14593298733234406, 
    0.07191384583711624, -0.06884460151195526, -0.05331210792064667, -0.031361497938632965, 
    -0.04579799994826317, 0.0638473704457283, -0.020623452961444855, -0.03239697590470314, 
    0.00042957597179338336, -0.04425406828522682, 0.024364640936255455, -0.039139702916145325, 
    0.0398608073592186, -0.018673084676265717, 0.09215334057807922, 0.15744264423847198, 
    0.04391023889183998, 0.00260430620983243, 0.020727798342704773, 0.03685850277543068, 
    -0.17807601392269135, -0.0446113757789135, -0.02671501412987709, 0.06130509078502655, 
    0.03455330803990364, -0.015226265415549278, -0.06571514159440994, 0.03424755856394768, 
    0.010550920851528645, -0.05501015856862068, 0.019786175340414047, 0.18455766141414642, 
    -0.04717354103922844, -0.042139988392591476, -0.0486898235976696, -0.03414204344153404, 
    -0.09107876569032669, 0.04075305536389351, -0.08063014596700668, 0.08358868956565857, 
    -0.037933193147182465, 0.010397260077297688, -0.10119784623384476, 0.158294677734375, 
    -0.014602845534682274, -0.03548998013138771, 0.001081580645404756, 0.12162089347839355, 
    -0.02627033181488514, -0.06401267647743225, -0.0552966445684433, -0.13930323719978333, 
    0.04806366190314293, -0.04215644672513008, -0.0636981651186943, 0.1470002681016922, 
    0.013965511694550514, -0.10948596149682999, -0.16814273595809937, 0.09565871953964233, 
    -0.008712238632142544, 1.3198970918892883e-05, -0.08715696632862091, 0.09579804539680481, 
    -0.09021135419607162, -0.1074429377913475, -0.07247237116098404, -0.033825669437646866, 
    0.061713751405477524, -0.1025986596941948, -0.11337483674287796, 0.09324736893177032, 
    -0.0366889163851738, -0.1103508472442627, 0.030955376103520393, 0.028983060270547867, 
    0.0312371663749218, -0.03756442293524742, -0.017375407740473747, 0.10922205448150635, 
    0.0146475313231349, 0.05286114290356636, -0.02268122509121895, -0.0035962474066764116, 
    0.07492009550333023, -0.005799219012260437, -0.08061300963163376, 0.2523057162761688, 
    -0.07526730000972748, -0.06579278409481049, 0.01727418415248394, 0.14947137236595154, 
    0.0805618166923523, -0.08406681567430496, 0.03774803876876831, 0.14416328072547913, 
    0.08579027652740479, 0.02667359821498394, -0.01597009412944317, -0.006187621504068375, 
    0.10698884725570679, 0.001059369882568717, -0.07323769479990005, 0.10159090161323547, 
    -0.06359483301639557, -0.06405336409807205, 0.07076681405305862, 0.12514427304267883, 
    0.033521026372909546, -0.03167668730020523, 0.04067285731434822, 0.09971877187490463, 
    0.058020032942295074, -0.06165897101163864, -0.007244806736707687, 0.16328836977481842, 
    0.23331187665462494, -0.13722091913223267, -0.05487406998872757, 0.09980880469083786, 
    -0.04911765828728676, 0.0311525110155344, 0.010563966818153858, 0.07294498383998871, 
    0.03078797645866871, 0.17282336950302124, 0.05670178681612015, 0.15291933715343475, 
    0.02893926203250885, 0.07337487488985062, -0.07041121274232864, 0.00246640807017684, 
    0.1497737318277359, -0.038940757513046265, 0.053946055471897125, -0.03569287061691284, 
    -0.015852784737944603, 0.0898239016532898, -0.02216940000653267, 0.04170374944806099, 
    0.07075455784797668, 0.1598619669675827, 0.0007795310812070966, 0.16062505543231964, 
    -0.006561219226568937, 0.23534175753593445, 0.018232423812150955, 0.07581614702939987, 
    -0.0008005272829905152, 0.01976047083735466, -0.027106873691082, 0.09081424027681351, 
    -0.0822259709239006, 0.12438948452472687, 0.0520751029253006, 0.10193940252065659, 
    -0.02163607068359852, 0.13425016403198242, -0.04181264713406563, -0.14934517443180084, 
    0.08559125661849976, 0.1641741842031479, 0.07169587910175323, -0.05596497282385826, 
    -0.05054374784231186, 0.005450473632663488, -0.0034508509561419487, -0.00699973851442337, 
    -0.04306003451347351, 0.14714080095291138, 0.0549575537443161, 0.025268562138080597, 
    0.017086567357182503, 0.052652906626462936, -0.067315973341465, -0.0643523633480072, 
    0.037975143641233444, 0.1726367324590683, 0.06611830741167068, 0.006869905162602663, 
    0.10267625749111176, -0.014978782273828983, 0.02612527832388878, 0.1938168704509735, 
    -0.012735906057059765, 0.09251084923744202, 0.036076076328754425, 0.145314022898674, 
    0.00790330022573471, 0.08093339204788208, 0.11623478680849075, 0.057706743478775024, 
    0.0157330259680748, 0.0471876785159111, 0.0006210299907252192, 0.06229089945554733, 
    0.047797635197639465, 0.0027536628767848015, -0.05675341933965683, 0.06921453773975372, 
    0.03450635075569153, 0.057509660720825195, 0.08952398598194122, 0.12349485605955124, 
    -0.06796633452177048, 0.06816401332616806, 0.12170132994651794, 0.19987981021404266, 
    -0.020839856937527657, 0.07412389665842056, -0.055167827755212784, 0.049869075417518616, 
    -0.08545126020908356, 0.07330016791820526, -0.053606875240802765, -0.05048317834734917, 
    0.03283809870481491, 0.11631153523921967, -0.013039452955126762, -0.048051800578832626, 
    0.0205377247184515, 0.029415694996714592, -0.01324082538485527, 0.21752086281776428, 
    -0.023404842242598534, 0.004702648613601923, 0.04087594524025917, -0.01348831970244646, 
    -0.06070021912455559, 0.04546763375401497, 0.025874922052025795, -0.04921350255608559, 
    0.05197770893573761, 0.13744716346263885, 0.04019846022129059, -0.013879025354981422, 
    0.043890006840229034, 0.08497052639722824, -0.07374485582113266, 0.2551773488521576, 
    0.08763197064399719, -0.1103416383266449, 0.04702836275100708, 0.1323336809873581, 
    -0.01903686858713627, -0.019364038482308388, 0.0670313686132431, -0.03273988515138626, 
    0.06922238320112228, 0.184839129447937, 0.10654217004776001, -0.03044108860194683, 
    0.056803155690431595, -0.04287177324295044, 0.06147812679409981, 0.08185102790594101, 
    0.10376624017953873, -0.12245211005210876, -0.04658564180135727, 0.07266345620155334, 
    -0.15522903203964233, -0.029102597385644913, 0.05362582206726074, -0.0733201652765274, 
    0.026887904852628708, 0.0817795917391777, -0.020503688603639603, 0.06724762916564941, 
    -0.04009224474430084, 0.21665546298027039, 0.08945371955633163, 0.12228688597679138, 
    -0.004005447030067444, -0.08332992345094681, -0.033097222447395325, 0.05220415070652962, 
    -0.2131740152835846, -0.003994434606283903, 0.05076318234205246, -0.049084268510341644, 
    -0.046295665204524994, 0.008393923752009869, -0.022401684895157814, -0.07655726373195648, 
    -0.11192737519741058, 0.1670641154050827, -0.12837672233581543, 0.061149559915065765, 
    0.044870443642139435, 0.011743606999516487, 0.05308227613568306, 0.14535552263259888, 
    -0.2586730122566223, 0.020158540457487106, 0.0459442213177681, -0.2530026435852051, 
    -0.011298914439976215, 0.10248085111379623, 0.08686438947916031, -0.146128848195076, 
    -0.02249414287507534, 0.0057990034110844135, -0.10959888994693756, 0.052688922733068466, 
    0.03354504331946373, 0.08695130795240402, 0.015469024889171124, 0.1495283991098404, 
    -0.15752068161964417, -0.03399486094713211, 0.0662556141614914, -0.06895706057548523, 
    -0.06448575854301453, 0.19435150921344757, 0.10873495787382126, 0.01246979646384716, 
    0.023813270032405853, -0.0931471437215805, 0.025136573240160942, 0.0885045975446701, 
    -0.011757212691009045, 0.10554413497447968, -0.006607300601899624, 0.14564400911331177, 
    -0.14949344098567963, -0.06088930740952492, -0.00742535013705492, -0.08120293915271759, 
    -0.009061462245881557, 0.14036545157432556, 0.10390906035900116, 0.06683403998613358, 
    -0.09662041068077087, 0.09539521485567093, -0.1294383704662323, 0.06666837632656097, 
    0.10509215295314789, 0.1572161316871643, 0.04242972284555435, 0.2345106303691864, 
    -0.2991880476474762, -0.05141960829496384, -0.013718608766794205, -0.028946951031684875, 
    -0.06519223004579544, 0.028864335268735886, 0.15970487892627716, 0.061662957072257996, 
    -0.12942460179328918, 0.16441337764263153, 0.040420446544885635, 0.15659008920192719, 
  
    };
    static const neuron_t neuron0 = {weights0, 0.03558742254972458};
    neurons[0]=neuron0;

    static const float weights1[] ={
    -0.009354150854051113, 0.133734330534935, 0.014374099671840668, -0.012062598951160908, 
    0.17162032425403595, -0.08606602996587753, 0.0663977712392807, 0.08201779425144196, 
    -0.0627552717924118, -0.04712830111384392, -0.06480191648006439, 0.08740754425525665, 
    0.0017306312220171094, -0.015408596955239773, -0.006724011152982712, -0.10524161159992218, 
    -0.03516587242484093, -0.036349762231111526, 0.047839872539043427, 0.0047233738005161285, 
    0.08132725954055786, -0.04921778663992882, -0.045724622905254364, 0.03774653375148773, 
    0.002440972486510873, -0.023171808570623398, 0.09345442056655884, -0.0121619813144207, 
    0.0023637551348656416, 0.030874421820044518, 0.03256476670503616, -0.0276778731495142, 
    -0.020448287948966026, 0.05824529007077217, -0.03319212794303894, 0.07756252586841583, 
    0.03140932694077492, 0.037277452647686005, 0.07153086364269257, 0.07624195516109467, 
    -0.03612782806158066, -0.008295603096485138, 0.14335620403289795, -0.018289783969521523, 
    0.08222365379333496, -0.04266048222780228, 0.06154417246580124, -0.07901948690414429, 
    0.019926730543375015, 0.022232456132769585, -0.020544299855828285, -0.03476915508508682, 
    0.09953350573778152, 0.03348898887634277, -0.02175101824104786, 0.06826522946357727, 
    0.06139380857348442, 0.032851722091436386, 0.011880455538630486, -0.020608363673090935, 
    0.03424170985817909, -0.029453879222273827, -0.014771990478038788, -0.10541138797998428, 
    -0.03782492130994797, 0.13778026401996613, 0.02906183898448944, -0.044923629611730576, 
    0.038554709404706955, 0.1313949078321457, -0.04546642303466797, 0.030442195013165474, 
    0.049798332154750824, -0.011577313765883446, 0.062168188393116, 0.04972422868013382, 
    0.02611433155834675, -0.08929478377103806, 0.03740755841135979, -0.09164292365312576, 
    -0.016775837168097496, 0.27637553215026855, 0.06943364441394806, 0.032270196825265884, 
    0.11281248182058334, 0.16382698714733124, 0.013906769454479218, 0.08601929992437363, 
    0.05183666944503784, -0.06357350945472717, -0.02360004372894764, 0.057270508259534836, 
    0.011557272635400295, 0.07346122711896896, -0.012045588344335556, -0.011305010877549648, 
    0.03096642717719078, 0.04476265236735344, 0.005386175587773323, -0.09052540361881256, 
    -0.005968748591840267, 0.08995551615953445, 0.051331110298633575, 0.0818960964679718, 
    -0.029778217896819115, 0.0042603411711752415, -0.048461396247148514, 0.006398710422217846, 
    0.09044838696718216, -0.018015706911683083, 0.03205903619527817, 0.11564233154058456, 
    -0.0443551130592823, -0.11824874579906464, 0.0223153717815876, -0.1020418256521225, 
    -0.03173190355300903, 0.0395696684718132, -0.029988234862685204, 0.004886147566139698, 
    -0.04498773813247681, -0.07059214264154434, -0.02248261868953705, 0.0002882575790863484, 
    0.02198893390595913, -0.0026218940038233995, 0.022719942033290863, 0.19647055864334106, 
    -0.10316400229930878, -0.0008666433859616518, -0.06532690674066544, -0.07892046868801117, 
    -0.07273946702480316, -0.013096551410853863, -0.018228020519018173, -0.09140010178089142, 
    -0.05847836285829544, -0.008420564234256744, -0.08120008558034897, 0.07201220095157623, 
    -0.036722034215927124, -0.06438948959112167, -0.06570214778184891, 0.04153767600655556, 
    -0.10304464399814606, -0.001397794927470386, -0.08912374079227448, -0.2522136867046356, 
    -0.23489908874034882, -0.037719398736953735, -0.14120225608348846, -0.07169026136398315, 
    -0.10881543159484863, -0.20167426764965057, -0.0433967150747776, 0.10316038131713867, 
    -0.061910480260849, -0.08650162816047668, -0.12556803226470947, 0.022709505632519722, 
    -0.16058991849422455, -0.08316663652658463, -0.02221975475549698, -0.21915766596794128, 
    -0.24847687780857086, -0.023219017311930656, -0.1356317400932312, -0.021659374237060547, 
    -0.06036849692463875, -0.16873760521411896, -0.13950160145759583, 0.08889315277338028, 
    -0.10646238923072815, -0.22435472905635834, -0.17736254632472992, -0.039370909333229065, 
    -0.1798248440027237, -0.08115407824516296, -0.08445104211568832, -0.12423404306173325, 
    -0.13702623546123505, -0.07669474929571152, -0.16272570192813873, -0.006420514080673456, 
    -0.07483695447444916, -0.09939640760421753, -0.06571044772863388, 0.10939019173383713, 
    -0.12265919893980026, -0.13510030508041382, -0.09776793420314789, -0.0174873024225235, 
    -0.1309327632188797, -0.07842627167701721, -0.1284443587064743, -0.14580608904361725, 
    0.0261375829577446, -0.1317824125289917, -0.13330966234207153, 0.07458298653364182, 
    -0.1414095163345337, -0.036857448518276215, -0.03574142977595329, 0.038124680519104004, 
    -0.10835375636816025, -0.02582682855427265, -0.18595845997333527, 0.043312158435583115, 
    -0.14172658324241638, -0.017896736040711403, -0.010227932594716549, -0.06177287548780441, 
    0.0368717797100544, -0.12407528609037399, -0.13196879625320435, 0.06651490181684494, 
    -0.1700790971517563, -0.0854540765285492, 0.06814518570899963, 0.038652945309877396, 
    -0.07728596776723862, -0.08659427613019943, -0.18457967042922974, 0.07678771018981934, 
    -0.026870958507061005, 0.1087569072842598, -0.010651850141584873, 0.07370807230472565, 
    0.18937274813652039, -0.02887595444917679, 0.04022170603275299, 0.12312404066324234, 
    -0.020313555374741554, 0.06786598265171051, 0.008314872160553932, 0.15013277530670166, 
    -0.01666531153023243, -0.06260904669761658, 0.028019877150654793, 0.035024888813495636, 
    -0.054940253496170044, 0.07466724514961243, -0.007542552426457405, 0.027611950412392616, 
    0.12093393504619598, -0.0030963763128966093, -0.009562095627188683, 0.04368451610207558, 
    -0.04360462352633476, 0.04397201910614967, 0.008581564761698246, 0.07301007956266403, 
    0.011593137867748737, 0.0588158555328846, 0.03399219363927841, 0.02074149064719677, 
    -0.0030560626182705164, 0.08809147030115128, 0.01251091156154871, -0.02629934810101986, 
    0.0527002289891243, 0.04630228877067566, -0.04280529543757439, 0.03615562245249748, 
    0.031032871454954147, -0.0075630974024534225, 0.08624311536550522, -0.11200457811355591, 
    -0.034408967941999435, -0.050673797726631165, 0.01005355454981327, -0.1331142634153366, 
    -0.07556522637605667, 0.009022023528814316, -0.03804778680205345, -0.09209241718053818, 
    0.11797406524419785, -0.027340898290276527, 0.008272331207990646, 0.014407801441848278, 
    0.007719784043729305, -0.07460024952888489, -0.06360984593629837, 0.14630082249641418, 
    -0.045215439051389694, 0.02558525651693344, -0.04952181875705719, 0.014730704948306084, 
    -0.06719175726175308, 0.10709653794765472, -0.04122038930654526, 0.01744249276816845, 
    0.08252937346696854, -0.04014063626527786, -0.018614908680319786, -0.04348553717136383, 
    -0.10784739255905151, -0.035163670778274536, -0.03219067305326462, 0.0005286458181217313, 
    0.0015606406377628446, -0.047615982592105865, -0.02680228464305401, -0.16276618838310242, 
    -0.04656531289219856, 0.12171518057584763, -0.031640589237213135, 0.11637315899133682, 
    0.01107404287904501, 0.07992786169052124, -0.05732063576579094, 0.018301133066415787, 
    -0.00891699269413948, 0.0749731957912445, -0.040112487971782684, -0.01730452850461006, 
    0.008297007530927658, -0.05304868146777153, -0.03128821775317192, 0.03877004608511925, 
    0.009642120450735092, 0.07256749272346497, -0.0015093068359419703, 0.004178896546363831, 
    0.015816330909729004, 0.03247836232185364, -0.0029881298542022705, 0.149940624833107, 
    -4.4425400119507685e-05, 0.06478359550237656, -0.1318914294242859, 0.07598591595888138, 
    -0.03409029543399811, -0.05920465663075447, -0.0034871590323746204, 0.05715389922261238, 
    -0.05050910636782646, -0.03485962375998497, -0.08773767203092575, -0.1367088407278061, 
    -0.006572283338755369, 0.058105237782001495, -0.0765797421336174, -0.06650426238775253, 
    -0.05974779278039932, -0.040874920785427094, -0.07566667348146439, -0.001946392236277461, 
    0.024669954553246498, 0.052793849259614944, -0.03926780819892883, 0.18826605379581451, 
    -0.08129940181970596, -0.06216840073466301, -0.1331285685300827, -0.052563656121492386, 
    -0.08686968684196472, -0.03250307962298393, -0.05310953035950661, 0.020531442016363144, 
    -0.02572251670062542, -0.09848833829164505, -0.01253272220492363, 0.05789865925908089, 
    -0.086544930934906, 0.044162530452013016, -0.02763650007545948, 0.12527109682559967, 
    -0.09977242350578308, -0.09324322640895844, -0.15579764544963837, -0.12756817042827606, 
    -0.2543095648288727, -0.10981307178735733, -0.18418462574481964, -0.04598655179142952, 
    -0.19131091237068176, -0.05472416430711746, -0.09325117617845535, -0.0703752413392067, 
    -0.10993179678916931, -0.08178116381168365, -0.15322726964950562, 0.0774383693933487, 
    -0.23971201479434967, -0.027261627838015556, -0.11224064975976944, -0.08068569004535675, 
    -0.2768002450466156, -0.16403190791606903, -0.14208631217479706, -0.19588565826416016, 
    -0.18615417182445526, -0.15068377554416656, 0.013132774271070957, 0.042667463421821594, 
    -0.15286368131637573, -0.15335175395011902, -0.20013579726219177, 0.09204866737127304, 
    -0.03065105900168419, 0.021207623183727264, -0.03886149823665619, -0.08241159468889236, 
    -0.10234502702951431, -0.05562377721071243, -0.13209852576255798, -0.1492258459329605, 
    -0.08105777204036713, -0.10454243421554565, 0.01960875280201435, -0.026246171444654465, 
    -0.1450408399105072, -0.18598303198814392, -0.1823904663324356, 0.0688357874751091, 
    -0.04203883185982704, 0.06419568508863449, -0.07133038341999054, -0.001469538896344602, 
    -0.08220355212688446, -0.11357679218053818, -0.1162378340959549, -0.061236802488565445, 
    -0.050827108323574066, -0.10085442662239075, 0.05371612682938576, 0.028365524485707283, 
    -0.11347416043281555, -0.13017602264881134, -0.08086392283439636, 0.11089950799942017, 
    -0.019001225009560585, 0.04847537726163864, -0.08468274772167206, 0.001971428282558918, 
    0.029055073857307434, -0.09306199103593826, -0.1023499146103859, -0.06500796973705292, 
    -0.0780080109834671, -0.006958435755223036, 0.04297083243727684, 0.06256993860006332, 
    -0.04939589276909828, 0.01798074133694172, -0.0801674872636795, 0.03736463189125061, 
    0.040377046912908554, 0.23952680826187134, -0.009469147771596909, -0.021202480420470238, 
    -0.03747955709695816, 0.036448802798986435, 0.014868861064314842, -0.07451660186052322, 
    -0.09703581035137177, -0.025043994188308716, -0.042582012712955475, 0.13766704499721527, 
    0.01636052504181862, -0.07121194899082184, 0.027620114386081696, -0.02787846513092518, 
    -0.0032530436292290688, 0.13143432140350342, -0.0818760022521019, -0.11231979727745056, 
    -0.05255736783146858, 0.01802978105843067, -0.04280734434723854, -0.03783523663878441, 
    -0.05997999757528305, -0.0023081458639353514, 0.0029217160772532225, 0.06680355966091156, 
    -0.052457306534051895, 0.04780511558055878, -0.12315008044242859, -0.006663353648036718, 
    -0.010515516623854637, -0.05139905959367752, -0.053973693400621414, -0.010914769023656845, 
    -0.013449748046696186, 0.03469620645046234, -0.06619557738304138, -0.031122813001275063, 
    -0.005618584342300892, -0.062048930674791336, 0.09320803731679916, -0.0017401379300281405, 
    -0.022885287180542946, -0.16363786160945892, 0.027283865958452225, -0.3133010268211365, 
    -0.010429242625832558, -0.04529395326972008, -0.01947321742773056, -0.060846682637929916, 
    0.051773425191640854, -0.020775552839040756, -0.06945329904556274, 0.024059485644102097, 
    -0.03597227483987808, -0.015178433619439602, 0.08578883111476898, -0.01689055562019348, 
    -0.07229100167751312, -0.020221533253788948, -0.039090365171432495, -0.10536155104637146, 
    -0.004760830197483301, -0.12690526247024536, -0.048621177673339844, 0.09727317839860916, 
    0.02637292444705963, -0.03490627184510231, 0.003047349862754345, -0.05151481553912163, 
    -0.046753332018852234, -0.049583617597818375, 0.08161173015832901, -0.04468818008899689, 
    -0.024058856070041656, -0.11193482577800751, 0.003938818816095591, -0.05292913317680359, 
    -0.01226954534649849, -0.16731169819831848, 0.0758703425526619, 0.0680377185344696, 
    -0.005006521474570036, -0.0034255029167979956, 0.04240897297859192, -0.09816740453243256, 
    -0.042606621980667114, -0.0024206277448683977, -0.01696523278951645, -0.18127043545246124, 
    -0.06680916994810104, 0.030609160661697388, -0.03600553050637245, 0.04478013142943382, 
    0.007426835130900145, -0.14056804776191711, 0.1256989985704422, -0.01731455698609352, 
    -0.04225609451532364, 0.0042497836984694, 0.06415700912475586, -0.07389919459819794, 
    0.00341435126028955, 0.01940193958580494, 0.015327232889831066, -0.11068161576986313, 
    -0.05701710283756256, 0.03950145095586777, 0.1333588808774948, 0.02140112780034542, 
    -0.06236465275287628, -0.07053070515394211, -0.03657934069633484, 0.0064832852222025394, 
    -0.05660172924399376, 0.01674329861998558, 0.04631580039858818, -0.09546253085136414, 
    -0.07355597615242004, -0.015128454193472862, -0.1396632194519043, -0.10526042431592941, 
    0.0026212199591100216, 0.03872133791446686, -0.10977984964847565, 0.12277469038963318, 
    -0.024415478110313416, -0.010881398804485798, -0.10295428335666656, -0.10489237308502197, 
    -0.0929921567440033, -0.08782258629798889, -0.015602866187691689, -0.053008899092674255, 
    -0.03991724178195, -0.05079750344157219, -0.015427087433636189, -0.0728565976023674, 
    -0.0778401717543602, 0.00042825337732210755, 0.01827041432261467, 0.13792727887630463, 
    -0.08129437267780304, -0.07530248165130615, -0.12286387383937836, -0.09464091807603836, 
    -0.17676299810409546, -0.10112942010164261, -0.14107699692249298, -0.07011041045188904, 
    -0.1262795329093933, -0.06171022355556488, 0.06921268999576569, -0.028193946927785873, 
    -0.1154165044426918, -0.11866454035043716, -0.07557026296854019, 0.04576961323618889, 
    -0.14648063480854034, -0.10734110325574875, -0.10105524212121964, -0.07772427052259445, 
    -0.09226322919130325, -0.1242651715874672, -0.11168152093887329, -0.13905338943004608, 
    -0.10499454289674759, -0.10804690420627594, 0.03501414880156517, -0.13746102154254913, 
    -0.18842081725597382, -0.0594278983771801, -0.14219823479652405, 0.05843709781765938, 
    -0.12070146203041077, -0.04442823678255081, -0.03703078255057335, -0.05462930351495743, 
    -0.11694076657295227, -0.09893783181905746, -0.11397376656532288, -0.21240238845348358, 
    -0.07821764051914215, -0.11413846909999847, -0.003101971698924899, -0.03351312875747681, 
    -0.17767736315727234, -0.02637641318142414, -0.1191307082772255, 0.09542495757341385, 
    -0.08457039296627045, -0.04726722463965416, 0.014256068505346775, -0.010636353865265846, 
    -0.1922524869441986, -0.08282183110713959, -0.05308219790458679, -0.1625068187713623, 
    -0.06761553138494492, -0.014405123889446259, 0.07337912172079086, 0.017226310446858406, 
    -0.08973632752895355, -0.09952594339847565, 0.008532822132110596, 0.027361832559108734, 
    0.010019849985837936, 0.01918741688132286, -0.08142362534999847, 0.003410897683352232, 
    -0.10582200437784195, -0.10967015475034714, -0.09734689444303513, -0.12286568433046341, 
    -0.13980866968631744, -0.026768624782562256, 0.11212984472513199, -0.008007281459867954, 
    -0.0872664600610733, -0.08661703020334244, -0.0465233214199543, 0.07674296945333481, 
    -0.17187780141830444, 0.22921288013458252, -0.10560137778520584, -0.16506707668304443, 
    0.3051303029060364, -0.022807391360402107, -0.16319622099399567, 0.048695944249629974, 
    -0.015876835212111473, -0.037572529166936874, -0.25583648681640625, 0.0959642305970192, 
    -0.054870519787073135, 0.015711836516857147, -0.2163367122411728, -0.037393078207969666, 
    -0.08089867979288101, 0.15294036269187927, -0.08761731535196304, -0.15130673348903656, 
    -0.11223810166120529, -0.06082523614168167, -0.03389110416173935, 0.03775760158896446, 
    -0.04601903632283211, -0.047906193882226944, -0.04519883915781975, 0.1894315630197525, 
    -0.07345889508724213, -0.26097798347473145, -0.14144982397556305, -0.18222641944885254, 
    -0.15692901611328125, -0.022548312321305275, 0.03895347937941551, 0.002956111216917634, 
    0.1554662436246872, -0.05207448825240135, -0.0653708428144455, 0.05744552239775658, 
    -0.04696875065565109, -0.04201296716928482, 0.15193334221839905, 0.04741677641868591, 
    0.014433564618229866, -0.2272580862045288, -0.1349189579486847, -0.3199857175350189, 
    -0.08583211153745651, 0.005998493172228336, 0.0360092967748642, 0.07866070419549942, 
    0.07736705988645554, -0.007696705404669046, -0.003649916732683778, 0.06510807573795319, 
    0.00226157926954329, -0.0339946374297142, 0.07362306863069534, 0.028106512501835823, 
    -0.044459447264671326, -0.025419555604457855, 0.05119984224438667, -0.07831107079982758, 
    -0.04239371046423912, -0.17693258821964264, 0.08690184354782104, 0.12527476251125336, 
    0.02101064659655094, -0.0660213977098465, 0.02293066680431366, -0.02285044454038143, 
    -0.04198979586362839, -0.016966411843895912, 0.13627327978610992, -0.07077088952064514, 
    -0.021927405148744583, 0.02535172924399376, 0.10647162795066833, -0.038180872797966, 
    0.029019713401794434, -0.06785142421722412, 0.027393488213419914, 0.029150255024433136, 
    0.00726063409820199, 0.05641196668148041, -0.02002132497727871, 0.014366804622113705, 
    -0.012356740422546864, 0.023567643016576767, -0.05042887479066849, -0.13593797385692596, 
    0.022675160318613052, 0.0354912094771862, 0.06658721715211868, 0.04633842036128044, 
    -0.0053742919117212296, 0.005216057412326336, 0.07767421752214432, 0.03845028579235077, 
    0.10513610392808914, 0.09342345595359802, 0.006514292676001787, 0.04554272070527077, 
    0.07889769971370697, 0.05134062469005585, -0.0968511700630188, -0.04509858414530754, 
    -0.006838692352175713, 0.10158183425664902, 0.0942443460226059, 0.1577540636062622, 
    0.04144884645938873, -0.03408491611480713, -0.012064510956406593, 0.05191474407911301, 
    0.1271200031042099, 0.059233345091342926, -0.019642299041152, 0.16311737895011902, 
    -0.025952138006687164, 0.05340620502829552, -0.01808778941631317, 0.06980323791503906, 
    0.09101000428199768, 0.12693235278129578, 0.009789787232875824, 0.20443032681941986, 
    -0.052482716739177704, -0.08060599118471146, -0.1210828423500061, -0.06855010241270065, 
    0.006146798375993967, -0.12055805325508118, -0.022300368174910545, -0.0004710677021648735, 
    -0.011950346641242504, 0.074803926050663, -0.072711281478405, 0.06142459064722061, 
    0.03862166032195091, 0.13812090456485748, -0.05575985088944435, 0.21846875548362732, 
    -0.11048001796007156, -0.1114811897277832, -0.11526284366846085, -0.1014234870672226, 
    -0.01766764558851719, -0.09284532070159912, -0.05071600154042244, -0.03294704109430313, 
    -0.032559774816036224, -0.09159587323665619, 0.0144367516040802, -0.05400703847408295, 
    -0.09281495958566666, 0.029514867812395096, -0.07297027856111526, 0.07420357316732407, 
    -0.18240365386009216, -0.03306828439235687, -0.07986239343881607, -0.02680256776511669, 
    -0.10365630686283112, -0.19052737951278687, -0.06364762037992477, -0.12255505472421646, 
    -0.11307857185602188, 0.01590469665825367, 0.07360843569040298, -0.0070939091965556145, 
    -0.11538916826248169, -0.07193251699209213, -0.013350330293178558, 0.0736871287226677, 
    -0.15219423174858093, -0.01894398033618927, -0.140836700797081, -0.0938374400138855, 
    -0.11942993104457855, -0.20316600799560547, -0.14484497904777527, -0.06565618515014648, 
    -0.08069472014904022, -0.06451690942049026, 0.028345536440610886, 0.003817266086116433, 
    -0.12698355317115784, 0.017546506598591805, -0.04597558453679085, 0.14544765651226044, 
    -0.08119641244411469, -0.05854647979140282, 0.01502744946628809, -0.09340331703424454, 
    -0.010927542112767696, -0.11336074769496918, -0.04786115139722824, 0.023880284279584885, 
    -0.030459042638540268, -0.10093645751476288, 0.045183852314949036, 0.08758233487606049, 
    -0.03284741938114166, -0.07117219269275665, -0.07774661481380463, 0.04946659505367279, 
    0.044847194105386734, -0.026067499071359634, 0.07236303389072418, -0.07750484347343445, 
    -0.00346579123288393, -0.03843303397297859, -0.04239092767238617, 0.0018218746408820152, 
    -0.01950082927942276, -0.05156310647726059, -0.009463717229664326, 0.08276757597923279, 
    0.06430354714393616, -0.14476172626018524, 0.06947069615125656, 0.05766839161515236, 
    -0.07665577530860901, 0.16058512032032013, -0.24301031231880188, -0.15096034109592438, 
    0.00202307035215199, -0.09633592516183853, -0.16652868688106537, 0.09303015470504761, 
    -0.04394156485795975, -0.021974651142954826, -0.407522052526474, 0.13596273958683014, 
    -0.08966439217329025, -0.05074455961585045, -0.18405793607234955, -0.08722540736198425, 
    -0.043316423892974854, 0.05280497297644615, -0.13697203993797302, -0.06847196817398071, 
    0.07727991789579391, -0.1440296322107315, -0.13646066188812256, 0.004332853481173515, 
    -0.06179656833410263, -0.12172015756368637, -0.10982418060302734, 0.15666721761226654, 
    -0.13744212687015533, -0.2632991075515747, -0.07960556447505951, -0.2359151542186737, 
    -0.02342800796031952, -0.03790896385908127, -0.031077181920409203, 0.07371794432401657, 
    0.22441430389881134, -0.04950597882270813, -0.001664440962485969, 0.01239076443016529, 
    -0.0012609020341187716, -0.0826021209359169, 0.16985110938549042, -0.060372136533260345, 
    -0.07346252351999283, -0.06829395890235901, -0.03046248108148575, -0.15451467037200928, 
    0.030665837228298187, -0.003601311706006527, 0.038056422024965286, 0.03428762033581734, 
    0.0473577119410038, 0.043037623167037964, -0.015363550744950771, 0.0205043014138937, 
    0.07177281379699707, 0.011196373030543327, 0.1924244612455368, -0.03653931990265846, 
    0.059910401701927185, 0.013239379040896893, 0.06816776841878891, -0.11992672085762024, 
    -0.005416967906057835, -0.034700922667980194, 0.02419906109571457, 0.10176711529493332, 
    0.09556038677692413, 0.00381109700538218, 0.015509023331105709, 0.03726234659552574, 
    0.012707635760307312, 0.1086905300617218, 0.06495058536529541, -0.047582898288965225, 
    0.061143577098846436, -0.0015818767715245485, 0.05953434482216835, -0.03382803499698639, 
    0.07838407903909683, 0.02927427738904953, -0.07702897489070892, 0.029130659997463226, 
    -0.0533420629799366, 0.013492926023900509, 0.026076704263687134, -0.08019763231277466, 
    -0.05115810036659241, 0.04867416247725487, 0.0007603918784298003, -0.04456127807497978, 
    0.021437224000692368, -0.061112940311431885, 0.10411883890628815, -0.0411592461168766, 
    0.043005988001823425, 0.04771343618631363, -0.062057070434093475, -0.014534128829836845, 
    0.027533788233995438, 0.0368497334420681, 0.03335992991924286, 0.08172213286161423, 
    -0.01271431241184473, -0.042653098702430725, -0.05667309835553169, 0.0900450348854065, 
    0.028790300711989403, 0.21514219045639038, 0.0264170840382576, 0.20829692482948303, 
    0.09747646003961563, 0.04447508975863457, -0.03848542273044586, 0.051259756088256836, 
    -0.06489075720310211, -0.0059675537049770355, -0.006441313773393631, 0.055100154131650925, 
    0.05914777144789696, -0.03705204278230667, 0.027626732364296913, -0.01374717429280281, 
    0.06383351236581802, 0.06325408816337585, 0.028042491525411606, 0.1150890439748764, 
    0.04716571047902107, -0.006154976319521666, -0.05067412927746773, 0.04535844549536705, 
    -0.0732688307762146, 0.015093328431248665, -0.038001615554094315, -0.055728211998939514, 
    0.021918797865509987, 0.011768531054258347, -0.0502459742128849, 0.0515645295381546, 
    0.013730499893426895, 0.056446440517902374, 0.023272963240742683, 0.0313262864947319, 
    -0.013313320465385914, -0.10436304658651352, -0.08941061794757843, -0.04053310677409172, 
    -0.050378069281578064, -0.09315118193626404, -0.012100874446332455, -0.16200721263885498, 
    -0.10497493296861649, -0.030263807624578476, 0.09042949974536896, -0.012952146120369434, 
    -0.07541109621524811, -0.07702246308326721, -0.04789784550666809, 0.008679415099322796, 
    -0.07813683152198792, 0.0025637666694819927, -0.038781989365816116, 0.0032672344241291285, 
    -0.12033823132514954, -0.03193773329257965, -0.04546130821108818, -0.11075718700885773, 
    -0.03386734053492546, -0.0222549419850111, 0.016669083386659622, -0.09477311372756958, 
    -0.021365949884057045, -0.07446563988924026, -0.03925871476531029, 0.005283850245177746, 
    -0.008015584200620651, -0.003426089882850647, -0.07703865319490433, -0.006018177606165409, 
    -0.07880079746246338, -0.10603521764278412, -0.08264806866645813, -0.1592547744512558, 
    -0.15469618141651154, 0.03854425251483917, 0.057750899344682693, -0.019919278100132942, 
    -0.025516482070088387, 0.014770066365599632, 0.040469177067279816, 0.05855775251984596, 
    -0.046890661120414734, -0.03770218417048454, -0.018087543547153473, -0.017334768548607826, 
    0.03868887946009636, -0.06342682242393494, -0.06331649422645569, 0.021703846752643585, 
    -0.09026069194078445, -0.035675305873155594, 0.04043550416827202, 0.0071958862245082855, 
    -0.070482537150383, -0.05197112634778023, -0.11423876881599426, 0.04245525598526001, 
    -0.0201753918081522, -0.05577019229531288, 0.042381402105093, 0.16007085144519806, 
    -0.03528714179992676, -0.027092833071947098, -0.0221974179148674, -0.02306683175265789, 
    -0.036212317645549774, 0.02183050662279129, 0.14977876842021942, 0.09970273822546005, 
    0.009647362865507603, 0.06302342563867569, 0.06696700304746628, -0.07780661433935165, 
    0.05177343636751175, -0.06390120834112167, -0.1299857348203659, -0.018093395978212357, 
    0.12145466357469559, -0.1631995290517807, -0.04643091559410095, -0.006410529837012291, 
    -0.17359884083271027, 0.09683001041412354, -0.09685596078634262, 0.2458510845899582, 
    0.016389770433306694, -0.0675700455904007, 0.02943386137485504, -0.008650535717606544, 
    -0.16451920568943024, 0.015176501125097275, -0.0801970586180687, -0.06902437657117844, 
    0.13927768170833588, -0.13654209673404694, -0.02722826413810253, 0.03760310634970665, 
    -0.12390200048685074, -0.03956744074821472, -0.002199576236307621, -0.01702542044222355, 
    -0.1039661318063736, 0.001936796703375876, -0.21156084537506104, -0.012947818264365196, 
    0.03552563861012459, 0.01178773958235979, -0.015960395336151123, 0.035400018095970154, 
    0.038720883429050446, -0.020169945433735847, 0.05812801793217659, -0.06688012927770615, 
    -0.0258125402033329, 0.0025977136101573706, 0.13321052491664886, -0.22774915397167206, 
    -0.03337804228067398, -0.08879404515028, 0.002555743558332324, -0.19096431136131287, 
    0.03980784863233566, -0.02549586445093155, 0.07934226095676422, 0.03395094349980354, 
    0.013145132921636105, 0.029998360201716423, 0.07040725648403168, 0.001545066712424159, 
    -0.04900742694735527, 0.007341084070503712, 0.1625632643699646, -0.014359092339873314, 
    -0.015511814504861832, 0.0029416577890515327, -0.0011887472355738282, -0.05386019125580788, 
    0.0818437859416008, 0.07314526289701462, 0.008755668066442013, 0.09604194760322571, 
    0.025654705241322517, 0.10461259633302689, 0.03707486391067505, -0.03160464018583298, 
    0.07286876440048218, 0.09127520769834518, 0.07867777347564697, -0.09804963320493698, 
    0.048937972635030746, -0.039240267127752304, 0.11866332590579987, -0.06286951154470444, 
    -0.0337408222258091, -0.027825064957141876, -0.011254810728132725, 0.09844443947076797, 
    -0.0024761564563959837, 0.09252487123012543, 0.0083087757229805, 0.04345180466771126, 
    0.020319094881415367, 0.05239718407392502, 0.01976359263062477, -0.0915769636631012, 
    0.09426771104335785, 0.1320551186800003, 0.04413675144314766, -0.11410732567310333, 
    0.06481331586837769, -0.033316098153591156, 0.04330844804644585, -0.1021941527724266, 
    0.03782876953482628, 0.04813256114721298, 0.07089018076658249, 0.010111414827406406, 
    0.015046616084873676, 0.09700880199670792, -0.016813555732369423, -0.1536870002746582, 
    0.03340096026659012, 0.09139230102300644, -0.10298286378383636, 0.15356656908988953, 
    0.035387247800827026, -0.19788113236427307, 0.05987574905157089, 0.015800658613443375, 
    -0.05211877450346947, -0.019622372463345528, 0.08358576148748398, -0.011557119898498058, 
    0.06444677710533142, 0.0654241293668747, 0.06635525077581406, -0.06941719353199005, 
    9.95914451777935e-05, 0.0940212532877922, 0.004320512991398573, 0.03263075649738312, 
    0.07200877368450165, -0.07310159504413605, 0.01627863571047783, 0.09326978027820587, 
    -0.004394948482513428, -0.053027961403131485, 0.051443133503198624, -0.12019087374210358, 
    -0.012214676477015018, 0.059894461184740067, -0.01576336845755577, 0.008488382212817669, 
    0.05395858734846115, 0.08586569130420685, 0.11129061132669449, 0.11873951554298401, 
    -0.1573868989944458, -0.056076303124427795, -0.024216333404183388, -0.037124596536159515, 
    0.0076041193678975105, -0.047242552042007446, -0.07992813736200333, -0.07662679255008698, 
    -0.008404640480875969, 0.030033741146326065, -0.040920235216617584, -0.058170173317193985, 
    -0.05741054564714432, 0.05987614765763283, 0.012573519721627235, 0.1710301786661148, 
    0.020434968173503876, 0.019771669059991837, 0.11323361843824387, -0.0017924749990925193, 
    0.08010317385196686, -0.08658813685178757, -0.04352731257677078, -0.011398575268685818, 
    0.009904013946652412, 0.02464577555656433, 0.037113748490810394, -0.02330693230032921, 
    -0.07837150245904922, -0.018873613327741623, -0.05320553854107857, -0.008036557585000992, 
    0.011312776245176792, 0.035004932433366776, -0.03154289349913597, 0.015909984707832336, 
    0.051257822662591934, -0.0978594645857811, 0.005391375627368689, 0.031106533482670784, 
    -0.05339008942246437, 0.07575514167547226, -0.040217142552137375, -0.07361900061368942, 
    0.039398450404405594, -0.043076157569885254, -0.03921903297305107, -0.029237113893032074, 
    -0.04746084660291672, 0.051785703748464584, 0.014608134515583515, -0.015019292011857033, 
    0.09898268431425095, -0.07493384927511215, -0.030944829806685448, 0.06541257351636887, 
    -0.01424255408346653, 0.027793508023023605, 0.13930527865886688, -0.046055614948272705, 
    0.011702285148203373, 0.09731217473745346, 0.02254253439605236, 0.03823394700884819, 
    -0.01500789076089859, 0.1253061443567276, 0.090537890791893, -0.026082247495651245, 
    0.13004323840141296, 0.06064198911190033, -0.042493898421525955, 0.05323037877678871, 
    0.019525274634361267, -0.05881786346435547, 0.14943480491638184, 0.03964032977819443, 
    0.04328905791044235, -0.009395428001880646, -0.00913084577769041, 0.03536128252744675, 
    -0.009532053954899311, 0.1320362240076065, -0.08776310086250305, 0.0222115870565176, 
    0.08733642846345901, 0.053221628069877625, -0.06568026542663574, 0.06470606476068497, 
    -0.08844400942325592, 0.06636516004800797, 0.02718159183859825, 0.24852198362350464, 
    -0.010702555067837238, -0.002686963649466634, 0.12062882632017136, 0.0454399399459362, 
    0.004809473175555468, -0.014848371036350727, -0.033035535365343094, -0.11383754014968872, 
    0.1723192036151886, -0.07470861822366714, -0.03825002908706665, -0.00288569089025259, 
    -0.0004972515744157135, 0.08145815879106522, -0.04814174026250839, 0.006122769322246313, 
    0.007526640314608812, 0.06355347484350204, -0.1921677440404892, -0.0322364903986454, 
    -0.034416232258081436, 0.06528802216053009, 0.07152555882930756, -0.025706347078084946, 
    0.1363813579082489, -0.03939586877822876, 0.005396002903580666, 0.09576132893562317, 
    0.029006805270910263, -0.05794185772538185, 0.10606981813907623, -0.006123292725533247, 
    0.01283938530832529, -0.09173909574747086, 0.008796649053692818, -0.2626810073852539, 
    -0.007310339715331793, 0.08645430207252502, 0.07376431673765182, -0.0076743015088140965, 
    0.07692974805831909, 0.04217011481523514, -0.041692912578582764, -0.032867152243852615, 
    -0.0027650506235659122, 0.013909894041717052, -0.060203682631254196, 0.07681594043970108, 
    0.0028157546184957027, 0.03639073669910431, 0.02774355746805668, -0.05410224571824074, 
