#include "embedia_model.h"
#include "embedia_debug.h"

// Initialization function prototypes
conv2d_layer_t init_conv2d_5_data(void);
conv2d_layer_t init_conv2d_6_data(void);
dense_layer_t init_dense_4_data(void);
dense_layer_t init_dense_5_data(void);


// Global Variables
conv2d_layer_t conv2d_5_data;
conv2d_layer_t conv2d_6_data;
dense_layer_t dense_4_data;
dense_layer_t dense_5_data;


void model_init(){
    conv2d_5_data = init_conv2d_5_data();
    conv2d_6_data = init_conv2d_6_data();
    dense_4_data = init_dense_4_data();
    dense_5_data = init_dense_5_data();

}

void model_predict(data3d_t input, data1d_t * output){
  
    prepare_buffers();
    
    //*************** LAYER 0 **************//
    // Layer name: conv2d_5
    data3d_t output0;
    conv2d_layer(conv2d_5_data, input, &output0);
    // Activation layer for conv2d_5
    relu_activation(output0.data, 5040);
    // Debug function for layer conv2d_5
    print_data3d_t("conv2d_5", output0);
    
    //*************** LAYER 1 **************//
    // Layer name: max_pooling2d_4
    input = output0;
    static const pooling2d_layer_t max_pooling2d_4_data = { 2, 2 };
    max_pooling2d_layer(max_pooling2d_4_data, input, &output0);
    // Debug function for layer max_pooling2d_4
    print_data3d_t("max_pooling2d_4", output0);
    
    //*************** LAYER 2 **************//
    // Layer name: conv2d_6
    input = output0;
    conv2d_layer(conv2d_6_data, input, &output0);
    // Activation layer for conv2d_6
    relu_activation(output0.data, 2016);
    // Debug function for layer conv2d_6
    print_data3d_t("conv2d_6", output0);
    
    //*************** LAYER 3 **************//
    // Layer name: flatten_2
    input = output0;
    data1d_t output1;
    flatten3d_layer(input, &output1);
    // Debug function for layer flatten_2
    print_data1d_t("flatten_2", output1);
    
    //*************** LAYER 4 **************//
    // Layer name: dense_4
    data1d_t input1;
    input1 = output1;
    dense_layer(dense_4_data, input1, &output1);
    
    // Activation layer for dense_4
    relu_activation(output1.data, 16);
    // Debug function for layer dense_4
    print_data1d_t("dense_4", output1);
    
    //*************** LAYER 5 **************//
    // Layer name: dense_5
    input1 = output1;
    dense_layer(dense_5_data, input1, &output1);
    
    // Activation layer for dense_5
    softmax_activation(output1.data, 3);
    // Debug function for layer dense_5
    print_data1d_t("dense_5", output1);
    

    *output = output1;

}

int model_predict_class(data3d_t input, data1d_t * results){
  
   
    model_predict(input, results);
    
    return argmax(*results);
    //return argmax(data1d_t);

}

// Implementation of initialization functions



conv2d_layer_t init_conv2d_5_data(void){

        static filter_t filters[8];
        
        static const float weights0[]={ 
    0.5100055932998657, -0.09147420525550842, -0.025536254048347473, 
    0.3586987853050232, 0.6497776508331299, -0.16151395440101624, 
    -0.03871826454997063, 0.23692524433135986, -0.10826587677001953, 

        };
        static filter_t filter0 = {1, 3, weights0, 0.005619276314973831};
        filters[0]=filter0;
            
        static const float weights1[]={ 
    0.06338805705308914, 0.539740264415741, 0.5256009101867676, 
    0.16685663163661957, 0.23240633308887482, 0.3436049222946167, 
    -0.1082492247223854, -0.06881669163703918, 0.08124971389770508, 

        };
        static filter_t filter1 = {1, 3, weights1, 0.014308188110589981};
        filters[1]=filter1;
            
        static const float weights2[]={ 
    0.0774555578827858, 0.27969714999198914, 0.09711771458387375, 
    0.02622167021036148, 0.18711838126182556, 0.2227688431739807, 
    -0.38032180070877075, -0.13945911824703217, -0.3154633045196533, 

        };
        static filter_t filter2 = {1, 3, weights2, 0.02145892195403576};
        filters[2]=filter2;
            
        static const float weights3[]={ 
    -0.0428752601146698, -0.28427445888519287, 0.14145871996879578, 
    -0.015993941575288773, 0.5046991109848022, -0.08173173666000366, 
    0.2164120227098465, 0.3315243124961853, 0.1514812856912613, 

        };
        static filter_t filter3 = {1, 3, weights3, -0.2896406650543213};
        filters[3]=filter3;
            
        static const float weights4[]={ 
    0.0003732866025529802, -0.013231498189270496, 0.25593826174736023, 
    -0.21699190139770508, -0.2505061626434326, -0.4645705819129944, 
    0.42876940965652466, -0.007760968524962664, -0.14519692957401276, 

        };
        static filter_t filter4 = {1, 3, weights4, 0.03685446456074715};
        filters[4]=filter4;
            
        static const float weights5[]={ 
    0.10291119664907455, 0.3105541467666626, 0.2551289498806, 
    -0.37823018431663513, -0.30037277936935425, -0.18057583272457123, 
    -0.03328414261341095, 0.02557295560836792, 0.2737516760826111, 

        };
        static filter_t filter5 = {1, 3, weights5, 0.02306869626045227};
        filters[5]=filter5;
            
        static const float weights6[]={ 
    -0.18828441202640533, 0.024477478116750717, 0.07224588841199875, 
    0.0945497527718544, 0.28798311948776245, 0.5399144291877747, 
    0.34328141808509827, 0.3544512391090393, 0.1479291468858719, 

        };
        static filter_t filter6 = {1, 3, weights6, 0.07418370246887207};
        filters[6]=filter6;
            
        static const float weights7[]={ 
    -0.21206961572170258, 0.1617138385772705, -0.07286225259304047, 
    -0.010049211792647839, -0.28291571140289307, -0.4659043550491333, 
    0.49417781829833984, -0.0988730937242508, -0.23412387073040009, 

        };
        static filter_t filter7 = {1, 3, weights7, 0.05266861245036125};
        filters[7]=filter7;
            
        conv2d_layer_t layer = {8, filters};
        return layer;
        }
        

conv2d_layer_t init_conv2d_6_data(void){

        static filter_t filters[16];
        
        static const float weights0[]={ 
    -0.20642240345478058, 0.2680327296257019, 
    -0.06816153228282928, 0.3181263208389282, 

    -0.277323842048645, -0.011913903057575226, 
    -0.12322288751602173, 0.06261520087718964, 

    -0.4152401387691498, -0.00961295235902071, 
    -0.2418224811553955, 0.41385722160339355, 

    -0.5073735117912292, -0.15164883434772491, 
    6.998374010436237e-05, 0.2501390874385834, 

    -0.29557156562805176, -0.1379406452178955, 
    -0.3833182752132416, -0.44336074590682983, 

    -0.26275134086608887, -0.1220584288239479, 
    -0.05854875221848488, 0.28904417157173157, 

    -0.21097345650196075, 0.25510188937187195, 
    0.3659982681274414, 0.20518934726715088, 

    -0.5601575970649719, -0.1531858891248703, 
    -0.1624719202518463, -0.20661909878253937, 

        };
        static filter_t filter0 = {8, 2, weights0, 0.05359954386949539};
        filters[0]=filter0;
            
        static const float weights1[]={ 
    -0.05170518159866333, -0.20037585496902466, 
    -0.08302236348390579, 0.051790978759527206, 

    0.2052859663963318, -0.024269873276352882, 
    0.32207798957824707, 0.17851398885250092, 

    -0.020359613001346588, 0.0967295691370964, 
    -0.1030518114566803, -0.27969783544540405, 

    0.02508438192307949, -0.3998716473579407, 
    -0.29043376445770264, 0.14513343572616577, 

    -0.5473843812942505, 0.11913957446813583, 
    -0.5620077252388, -0.16399206221103668, 

    0.07808292657136917, -0.38935428857803345, 
    0.39742612838745117, -0.26691070199012756, 

    -0.029365479946136475, 0.27074912190437317, 
    0.2677678167819977, 0.047097016125917435, 

    -0.7019126415252686, 0.16756826639175415, 
    -0.49350330233573914, 0.07216951251029968, 

        };
        static filter_t filter1 = {8, 2, weights1, 0.06249086186289787};
        filters[1]=filter1;
            
        static const float weights2[]={ 
    -0.3190063238143921, 0.12908025085926056, 
    0.14806781709194183, 0.252827525138855, 

    -0.2943604290485382, -0.3302411735057831, 
    0.16124752163887024, -0.1121753603219986, 

    -0.2144334465265274, -0.2682395875453949, 
    -0.050713300704956055, -0.02383687160909176, 

    -0.3365497291088104, -0.13045872747898102, 
    -0.08418309688568115, 0.16385985910892487, 

    -0.2722555100917816, 0.2979685068130493, 
    -0.28953200578689575, 0.29797545075416565, 

    0.2238914668560028, 0.0747126042842865, 
    0.007341851480305195, 0.31447479128837585, 

    0.12004280835390091, 0.26357302069664, 
    0.1195906400680542, 0.0022046626545488834, 

    0.07839711755514145, 0.008156660944223404, 
    -0.17906039953231812, -0.007340847514569759, 

        };
        static filter_t filter2 = {8, 2, weights2, -0.035227514803409576};
        filters[2]=filter2;
            
        static const float weights3[]={ 
    -0.19380585849285126, 0.22075609862804413, 
    -0.034495674073696136, 0.3888950049877167, 

    0.2943108081817627, 0.2607884705066681, 
    -0.004438717383891344, -0.11186260730028152, 

    0.030710363760590553, -0.05295148119330406, 
    0.014281343668699265, 0.05765053629875183, 

    -0.213111013174057, -0.18996085226535797, 
    -0.3312317430973053, 0.026888350024819374, 

    -0.2784182131290436, -0.2459716945886612, 
    -0.10253315418958664, -0.013056647963821888, 

    0.24957355856895447, -0.1523347795009613, 
    0.16213151812553406, -0.27826178073883057, 

    -0.010768895037472248, -0.07910125702619553, 
    -0.04363102465867996, 0.2989044785499573, 

    -0.3911736011505127, -0.14596699178218842, 
    -0.07319888472557068, 0.12770681083202362, 

        };
        static filter_t filter3 = {8, 2, weights3, 0.029477465897798538};
        filters[3]=filter3;
            
        static const float weights4[]={ 
    -0.14718927443027496, 0.11781328171491623, 
    -0.06116567924618721, -0.1965787410736084, 

    0.20062845945358276, 0.07617612928152084, 
    -0.11799998581409454, -0.29490527510643005, 

    0.3610854744911194, 0.3590461313724518, 
    -0.5270804166793823, -0.1895214319229126, 

    -0.3577289283275604, -0.36802271008491516, 
    -0.006671391427516937, 0.11847051978111267, 

    0.295453816652298, 0.08722750842571259, 
    0.04387054219841957, 0.2803247272968292, 

    0.26379963755607605, 0.13320685923099518, 
    0.24250386655330658, -0.11687112599611282, 

    0.027857253327965736, -0.024211406707763672, 
    0.2233642190694809, 0.25605472922325134, 

    -0.24611124396324158, 0.0221524890512228, 
    -0.026229210197925568, 0.22182698547840118, 

        };
        static filter_t filter4 = {8, 2, weights4, -0.050026074051856995};
        filters[4]=filter4;
            
        static const float weights5[]={ 
    0.5514846444129944, -0.36391502618789673, 
    -0.3524834215641022, 0.10057161748409271, 

    0.3160426616668701, -0.26537999510765076, 
    -0.2757754623889923, -0.1422373205423355, 

    0.33223757147789, 0.12837687134742737, 
    -0.47797587513923645, -0.2771646976470947, 

    -0.03424150496721268, -0.5721782445907593, 
    -0.3789612054824829, 0.26023510098457336, 

    -0.26998797059059143, 0.033408161252737045, 
    0.11694342643022537, 0.21081171929836273, 

    0.37230437994003296, 0.11134254932403564, 
    0.31973573565483093, 0.32519209384918213, 

    -0.19749043881893158, -0.21797649562358856, 
    0.08034636825323105, 0.4270545542240143, 

    -0.5099048018455505, 0.027903849259018898, 
    0.06644304096698761, -0.1212155818939209, 

        };
        static filter_t filter5 = {8, 2, weights5, 0.08614154160022736};
        filters[5]=filter5;
            
        static const float weights6[]={ 
    0.1020766869187355, 0.04043414071202278, 
    -0.08669818937778473, -0.008494018577039242, 

    0.1513919085264206, 0.2517680823802948, 
    -0.029174059629440308, 0.2543950378894806, 

    -0.24592146277427673, -0.14808964729309082, 
    -0.11158979684114456, 0.06207422539591789, 

    0.007695590145885944, -0.13555285334587097, 
    -0.2761799693107605, 0.046883728355169296, 

    -0.5371536016464233, -0.12506192922592163, 
    -0.627524197101593, -0.09428427368402481, 

    -0.015443908981978893, -0.008672025986015797, 
    -0.04970870539546013, 0.15461580455303192, 

    0.1341286301612854, 0.006932167336344719, 
    -0.1757662147283554, 0.025460880249738693, 

    -0.41717347502708435, 0.18225017189979553, 
    -0.4857355058193207, -0.09224995970726013, 

        };
        static filter_t filter6 = {8, 2, weights6, 0.10126174241304398};
        filters[6]=filter6;
            
        static const float weights7[]={ 
    -0.2320985198020935, 0.05484664812684059, 
    -0.09500168263912201, 0.3348368704319, 

    -0.025311194360256195, 0.24195751547813416, 
    -0.04898732528090477, 0.27468669414520264, 

    -0.11926168948411942, -0.20106300711631775, 
    -0.0022099949419498444, 0.0877465009689331, 

    -0.4000914692878723, -0.0888582319021225, 
    -0.20382285118103027, -0.2946644723415375, 

    -0.46318089962005615, -0.06363017857074738, 
    -0.19451729953289032, -0.2770557999610901, 

    0.10728323459625244, -0.21950124204158783, 
    -0.039716288447380066, 0.14150895178318024, 

    0.13131771981716156, 0.34022536873817444, 
    0.09536170959472656, 0.34396812319755554, 

    -0.41386255621910095, -0.3559153378009796, 
    -0.1383918970823288, -0.0031559986528009176, 

        };
        static filter_t filter7 = {8, 2, weights7, 0.055588364601135254};
        filters[7]=filter7;
            
        static const float weights8[]={ 
    -0.1455332636833191, -0.007536278571933508, 
    -0.22418001294136047, -0.04440746828913689, 

    0.1473904252052307, 0.2832143008708954, 
    0.06892158091068268, -0.2472432553768158, 

    0.19574469327926636, 0.151783287525177, 
    0.05133604258298874, -0.21341384947299957, 

    0.24187055230140686, -0.09276960045099258, 
    -0.19756540656089783, -0.13921527564525604, 

    0.11329492181539536, 0.27879369258880615, 
    0.31648892164230347, 0.30719515681266785, 

    0.3065345287322998, 0.31367480754852295, 
    -0.0773322582244873, 0.22486397624015808, 

    0.021038871258497238, -0.012297597713768482, 
    -0.4379604160785675, -0.17040009796619415, 

    0.24903719127178192, -0.3237352669239044, 
    0.09792565554380417, -0.10366913676261902, 

        };
        static filter_t filter8 = {8, 2, weights8, 0.030689489096403122};
        filters[8]=filter8;
            
        static const float weights9[]={ 
    -0.461555540561676, -0.23856733739376068, 
    -0.09579844772815704, 0.25068625807762146, 

    -0.27083638310432434, -0.3945044279098511, 
    -0.108902707695961, 0.2430485188961029, 

    -0.4296390414237976, 0.04296121001243591, 
    0.15937338769435883, 0.1759839802980423, 

    -0.6270846724510193, -0.08240722119808197, 
    0.1480184942483902, -0.028808381408452988, 

    -0.12786807119846344, -0.26877424120903015, 
    -0.354607492685318, -0.5345374941825867, 

    0.11960469186306, 0.5470956563949585, 
    0.24728959798812866, 0.3840598165988922, 

    -0.12795592844486237, -0.09022074192762375, 
    0.15910427272319794, 0.41415029764175415, 

    -0.2799544334411621, -0.5865817666053772, 
    -0.03604140505194664, -0.21861539781093597, 

        };
        static filter_t filter9 = {8, 2, weights9, 0.10804363340139389};
        filters[9]=filter9;
            
        static const float weights10[]={ 
    0.20048952102661133, -0.004050418268889189, 
    -0.3050079941749573, -0.2957374155521393, 

    0.022979453206062317, 0.10161936283111572, 
    -0.11346455663442612, 0.15603576600551605, 

    0.3031645119190216, 0.025010500103235245, 
    -0.16552948951721191, 0.13321997225284576, 

    -0.12281407415866852, -0.02243778295814991, 
    -0.13175097107887268, 0.05541234835982323, 

    0.15658226609230042, 0.27839621901512146, 
    0.09862635284662247, 0.34759366512298584, 

    0.20605683326721191, 0.28713682293891907, 
    0.16483205556869507, -0.054074641317129135, 

    0.0632176548242569, 0.14210624992847443, 
    -0.38903284072875977, -0.30620020627975464, 

    0.1899963766336441, 0.17473146319389343, 
    -0.1214379370212555, 0.02471640706062317, 

        };
        static filter_t filter10 = {8, 2, weights10, 0.019495343789458275};
        filters[10]=filter10;
            
        static const float weights11[]={ 
    -0.1357591599225998, -0.12488161027431488, 
    0.13782741129398346, 0.33446767926216125, 

    0.030297521501779556, 0.23355929553508759, 
    0.08781516551971436, -0.057158686220645905, 

    0.16239970922470093, -0.24121932685375214, 
    0.21465323865413666, -0.19645680487155914, 

    -0.23906531929969788, 0.057876426726579666, 
    -0.0495806559920311, 0.1581140011548996, 

    -0.6283637285232544, -0.5743337869644165, 
    -0.6824946999549866, -0.3464137613773346, 

    0.13213005661964417, -0.242440328001976, 
    -0.20653261244297028, -0.313260555267334, 

    0.05169834941625595, 0.27153217792510986, 
    0.06674076616764069, 0.06577131152153015, 

    -0.5840368270874023, -0.30571895837783813, 
    -0.5803549885749817, 0.0025298013351857662, 

        };
        static filter_t filter11 = {8, 2, weights11, 0.15978239476680756};
        filters[11]=filter11;
            
        static const float weights12[]={ 
    -0.273576021194458, -0.08178713917732239, 
    0.2698829174041748, -0.07000486552715302, 

    -0.03816014528274536, 0.24833208322525024, 
    -0.2561850845813751, 0.09805566072463989, 

    -0.23666317760944366, 0.4347730278968811, 
    -0.16867144405841827, -0.22495774924755096, 

    -0.2800983786582947, 0.16907112300395966, 
    -0.07153116166591644, 0.07567712664604187, 

    0.31420180201530457, -0.16242344677448273, 
    0.2589493989944458, -0.04907983914017677, 

    0.26590657234191895, 0.1798791140317917, 
    0.27084624767303467, 0.14245902001857758, 

    0.20708957314491272, 0.005377053748816252, 
    -0.09451111406087875, 0.012209715321660042, 

    0.4667636752128601, 0.28725332021713257, 
    0.2946332097053528, 0.10744994133710861, 

        };
        static filter_t filter12 = {8, 2, weights12, -0.10758016258478165};
        filters[12]=filter12;
            
        static const float weights13[]={ 
    0.2932220995426178, -0.09995898604393005, 
    0.01598626933991909, 0.2336283028125763, 

    0.13721320033073425, -0.0564538836479187, 
    0.2561406195163727, -0.08698170632123947, 

    -0.07014857232570648, -0.017665700986981392, 
    0.19888581335544586, 0.09263414889574051, 

    0.14960049092769623, -0.22245490550994873, 
    -0.03279983997344971, 0.15047331154346466, 

    0.0765572339296341, 0.5395746231079102, 
    -0.11528411507606506, 0.5918259024620056, 

    -0.1288560926914215, 0.023478955030441284, 
    0.23674900829792023, -0.2862454056739807, 

    -0.1025223657488823, -0.1570262610912323, 
    0.06448046118021011, -0.2676030099391937, 

    -0.19160716235637665, 0.6954873204231262, 
    -0.2714214324951172, 0.3718240261077881, 

        };
        static filter_t filter13 = {8, 2, weights13, -0.033069293946027756};
        filters[13]=filter13;
            
        static const float weights14[]={ 
    0.2189757525920868, 0.05278942734003067, 
    -0.13674387335777283, 0.15159127116203308, 

    -0.12617158889770508, 0.27061980962753296, 
    -0.13647930324077606, -0.09002181142568588, 

    -0.06438718736171722, -0.0255176592618227, 
    -0.20355099439620972, 0.21773512661457062, 

    -0.06404854357242584, -0.2575606107711792, 
    0.12474247813224792, -0.33579421043395996, 

    0.5241923332214355, 0.4756361246109009, 
    0.6375948786735535, 0.1404949575662613, 

    -0.03865831345319748, 0.18339838087558746, 
    0.3084051311016083, 0.31124240159988403, 

    -0.21545222401618958, 0.14464691281318665, 
    0.08220319449901581, -0.2704209089279175, 

    0.4048640727996826, -0.17371506989002228, 
    0.43878188729286194, -0.15778012573719025, 

        };
        static filter_t filter14 = {8, 2, weights14, 0.023494863882660866};
        filters[14]=filter14;
            
        static const float weights15[]={ 
    -0.011271975934505463, 0.05180303379893303, 
    0.21708263456821442, 0.12871553003787994, 

    0.1718272715806961, 0.05961238592863083, 
    0.025787558406591415, 0.15970921516418457, 

    -0.20675963163375854, 0.15941284596920013, 
    -0.0790361613035202, 0.13666047155857086, 

    -0.32339727878570557, -0.34820500016212463, 
    0.09651784598827362, -0.384655624628067, 

    -0.4705667197704315, 0.0740317776799202, 
    -0.1670968383550644, -0.21985489130020142, 

    0.2435019165277481, -0.26389941573143005, 
    -0.030107054859399796, -0.15082760155200958, 

    -0.10250731557607651, 0.2705892026424408, 
    0.14283296465873718, -0.09734854847192764, 

    -0.43551337718963623, 0.13089527189731598, 
    -0.23556286096572876, -0.35309386253356934, 

        };
        static filter_t filter15 = {8, 2, weights15, 0.05340215936303139};
        filters[15]=filter15;
            
        conv2d_layer_t layer = {16, filters};
        return layer;
        }
        
dense_layer_t init_dense_4_data(void){

    static neuron_t neurons[16];

    static const float weights0[] ={
    0.2462015450000763, -0.06863681972026825, -0.06230105087161064, -0.054103754460811615, 
    0.13050377368927002, 0.47724732756614685, -0.07278289645910263, 0.046043481677770615, 
    -0.05686673894524574, 0.20507663488388062, -0.026480657979846, -0.018587574362754822, 
    0.05407861992716789, -0.18143710494041443, 0.02696453407406807, -0.019103001803159714, 
    -0.028236383572220802, 0.04873213544487953, 0.0059649827890098095, 0.12754061818122864, 
    0.13555565476417542, 0.2265336662530899, -0.024093635380268097, 0.07231222093105316, 
    -0.016219792887568474, 0.08335297554731369, -0.054532695561647415, 0.020984871312975883, 
    -0.012287798337638378, -0.04162944480776787, 0.23062491416931152, -0.0007938457420095801, 
    -0.07224364578723907, -0.05658400431275368, -0.05399702116847038, 0.06959091871976852, 
    -0.03198930248618126, 0.16632404923439026, 0.07342806458473206, -0.07449978590011597, 
    0.09780886769294739, 0.18913769721984863, 0.009163950569927692, -0.03354804962873459, 
    0.005424218252301216, -0.009631069377064705, -0.07814175635576248, -0.06582881510257721, 
    -0.06442148238420486, 0.09565787762403488, -0.11022206395864487, 0.1164473369717598, 
    0.11050514131784439, 0.09559010714292526, 0.12727442383766174, 0.023494506254792213, 
    -0.050717588514089584, 0.07435142248868942, 0.07724057883024216, 0.009358134120702744, 
    0.019351109862327576, -0.0220489501953125, 0.026939591392874718, 0.010338115505874157, 
    -0.00035747079527936876, 0.0998520776629448, -0.0019653504714369774, 0.10530766099691391, 
    0.09101269394159317, 0.08665972948074341, 0.0790904238820076, -0.03516343608498573, 
    0.14446692168712616, -0.16114497184753418, 0.1901288777589798, 0.059521447867155075, 
    0.05767325311899185, 0.09279778599739075, 0.09891878068447113, 0.0950852483510971, 
    -0.06804543733596802, -0.023588864132761955, -0.06740593165159225, -0.021256033331155777, 
    -0.06057398021221161, -0.09899000078439713, 0.11234348267316818, -0.052500005811452866, 
    0.11573582142591476, -0.12817075848579407, 0.33810967206954956, -0.03755343705415726, 
    0.06688205897808075, 0.05372334644198418, 0.1367039680480957, -0.0626615583896637, 
    -0.12192995846271515, -0.09092586487531662, -0.10115142166614532, -0.01759050413966179, 
    0.03146398067474365, -0.04106156900525093, -0.00963640958070755, -0.09767215698957443, 
    0.20985785126686096, -0.01422018650919199, 0.2344597429037094, -0.07626840472221375, 
    -0.03644750267267227, 0.02943486161530018, 0.07743694633245468, -0.13716252148151398, 
    0.01380004920065403, -0.022117793560028076, 0.06192941218614578, 0.12875913083553314, 
    -0.036781683564186096, 0.11664928495883942, -0.060620035976171494, 0.014524647034704685, 
    0.04587528482079506, -0.012555060908198357, 0.11844271421432495, 0.10001665353775024, 
    0.008861151523888111, -0.05069800466299057, 0.07963762432336807, 0.013133912347257137, 
    -0.11616744846105576, -0.07884285598993301, -0.1062980592250824, -0.10344430804252625, 
    0.06272483617067337, 0.04540164768695831, -0.035141658037900925, -0.06970439106225967, 
    0.19624891877174377, 0.04155229777097702, 0.18729494512081146, -0.05058595538139343, 
    0.020885834470391273, -0.03774697706103325, 0.11289111524820328, -0.055486083030700684, 
    -0.09174752235412598, -0.03859170153737068, -0.05690280720591545, -0.009167004376649857, 
    -0.06824655085802078, -0.01924877241253853, -0.01681804656982422, -0.013230117037892342, 
    0.12467388808727264, -0.09787280112504959, 0.1880057156085968, -0.002360267098993063, 
    0.0910574346780777, -0.12919579446315765, 0.06647809594869614, -0.04059954732656479, 
    -0.1130424216389656, -0.04472509026527405, -0.02243717573583126, -0.09999170899391174, 
    -0.04460780695080757, 0.002242383547127247, 0.017153741791844368, -0.10194551199674606, 
    0.10073358565568924, -0.13691507279872894, 0.0460086353123188, -0.08672954887151718, 
    -0.017185354605317116, 0.0575273260474205, -0.03317046910524368, -0.029055630788207054, 
    -0.07697292417287827, -0.06973529607057571, -0.10600634664297104, -0.14562958478927612, 
    0.011146641336381435, 0.009003826417028904, -0.07912184298038483, -0.14167863130569458, 
    0.10076811164617538, 0.07881055772304535, 0.13938909769058228, -0.1787051409482956, 
    0.039727501571178436, -0.03361828997731209, -0.01094552967697382, -0.19495262205600739, 
    -0.03260716423392296, -0.10071288794279099, -0.06239565834403038, -0.0998128354549408, 
    -0.044319819658994675, 0.0525084063410759, -0.059760693460702896, 0.03875404968857765, 
    0.19985724985599518, 0.11635219305753708, 0.283562570810318, -0.033949706703424454, 
    0.0021287426352500916, -0.08027151226997375, 0.15090474486351013, -0.10430989414453506, 
    -0.04300310090184212, -0.07277780771255493, -0.0017130739288404584, 0.05492028966546059, 
    -0.0024360523093491793, -0.008352055214345455, 0.004986116662621498, 0.03655735403299332, 
    0.07533522695302963, -0.06345454603433609, 0.1572716236114502, -0.08121775090694427, 
    -0.0191244725137949, 0.0394350029528141, 0.06545848399400711, -0.0019958382472395897, 
    0.0277382954955101, 0.05163268744945526, 0.08844655007123947, -0.09820002317428589, 
    0.12149763107299805, 0.10490558296442032, -0.08287351578474045, 0.053530145436525345, 
    0.16413092613220215, 0.11397039145231247, 0.07072734087705612, 0.07181760668754578, 
    0.047000426799058914, -0.02607976458966732, 0.0066872225143015385, 0.010406109504401684, 
    -0.06637853384017944, -0.084340900182724, 0.08266832679510117, -0.06347928941249847, 
    0.0810244083404541, 0.18151292204856873, -0.05716964974999428, -0.017679981887340546, 
    0.16981062293052673, 0.10153520852327347, 0.07836027443408966, -0.06868107616901398, 
    0.0296421367675066, -0.006987912114709616, 0.04716300591826439, -0.010684742592275143, 
    0.11506696045398712, 0.004631470888853073, 0.005299628712236881, -0.039811473339796066, 
    0.015527854673564434, 0.09405811876058578, -0.056902699172496796, 0.014079613611102104, 
    0.07158287614583969, 0.08468727767467499, 0.12092563509941101, -0.04600389674305916, 
    -0.054434943944215775, 0.0005168684874661267, -0.026051435619592667, -0.07561495155096054, 
    0.06298182159662247, 0.07001510262489319, 0.07432015240192413, -0.015497016720473766, 
    0.056505341082811356, 0.027549711987376213, 0.00017522227426525205, -0.04717237874865532, 
    0.07236596196889877, 0.2019234597682953, 0.06013333797454834, 0.058030273765325546, 
    -0.01915930211544037, 0.08803258091211319, 0.18026255071163177, -0.020094092935323715, 
    -0.016134081408381462, -0.1958501935005188, 0.08034331351518631, 0.04808558523654938, 
    0.1374690681695938, 0.20053859055042267, -0.05321890115737915, -0.1263129562139511, 
    0.1154949963092804, -0.04726630821824074, 0.06030315160751343, -0.1474878489971161, 
    0.1230294331908226, -0.045371659100055695, -0.023623965680599213, -0.032546162605285645, 
    -0.12006159871816635, -0.06502790004014969, -0.1066068559885025, -0.06012957543134689, 
    0.24505741894245148, 0.09611232578754425, 0.04043838381767273, -0.06935679167509079, 
    0.07158681005239487, -0.11186593770980835, 0.12057790160179138, -0.144916832447052, 
    0.07417397946119308, 0.01322256401181221, 0.19273178279399872, -0.02389911562204361, 
    -0.023817718029022217, -0.03368869051337242, -0.0072354585863649845, 0.05122800171375275, 
    0.0703652948141098, -0.019523857161402702, 0.025546465069055557, 0.04252919554710388, 
    -0.1739732325077057, -0.1297314316034317, -0.07266243547201157, -0.07228311896324158, 
    0.07688310742378235, -0.09815412759780884, 0.04520392045378685, -0.05644912272691727, 
    0.027521278709173203, 0.057422757148742676, 0.016677651554346085, 0.03889227658510208, 
    0.020744096487760544, -0.11444947868585587, -0.02261197939515114, 0.04745020717382431, 
    -0.1278577595949173, -0.11259694397449493, -0.17633914947509766, 0.08565028011798859, 
    -0.005614898167550564, 0.058374740183353424, -0.10871536284685135, -0.0682285726070404, 
    0.16305238008499146, 0.09742899239063263, 0.06599465757608414, -0.06121167540550232, 
    -0.04764379560947418, -0.04968677833676338, -0.010980494320392609, -0.003476805752143264, 
    -0.11105481535196304, -0.007410747464746237, -0.19419585168361664, 0.06736546754837036, 
    -0.13694749772548676, 0.10581033676862717, -0.0697428286075592, -0.0461832694709301, 
    -0.02901996672153473, 0.017340688034892082, 0.03901457041501999, -0.03713161125779152, 
    -0.03092500939965248, 0.023876624181866646, -0.1387745589017868, -0.020619692280888557, 
    -0.1963028609752655, 0.18140919506549835, -0.21478670835494995, 0.07730075716972351, 
    -0.026866847649216652, -0.04395771399140358, -0.14119209349155426, 0.03340229019522667, 
    0.14045719802379608, -0.038233183324337006, 0.03091857209801674, -0.08112625032663345, 
    0.039983708411455154, 0.046453725546598434, -0.09625326842069626, 0.015139992348849773, 
    -0.12021497637033463, 0.0888943076133728, -0.06366663426160812, -0.0012170154368504882, 
    -0.08491276949644089, 0.06997864693403244, -0.15906742215156555, -0.06038617715239525, 
    0.0640188604593277, -0.04594859108328819, -0.035139746963977814, -0.0914091244339943, 
    -0.07700486481189728, 0.056668270379304886, -0.03255997225642204, 0.04028388112783432, 
    -0.13212020695209503, 0.10422667860984802, -0.14117123186588287, -0.06358975172042847, 
    -0.027387578040361404, 0.0772966668009758, 0.02551475539803505, 0.03015405870974064, 
    0.10153288394212723, 0.05512451380491257, 0.12659874558448792, 0.05764133110642433, 
    -0.021489089354872704, 0.11704030632972717, -0.04516688734292984, 0.06174883991479874, 
    0.007940731942653656, 0.06983625888824463, -0.09769482165575027, 0.07825598120689392, 
    0.12617778778076172, 0.08667852729558945, 0.08785007148981094, -0.03169095143675804, 
    -0.02358085848391056, -0.0857992097735405, -0.04069790616631508, 0.033862654119729996, 
    0.0950370654463768, -0.016307320445775986, -0.04703236743807793, -0.03291696310043335, 
    0.01999407261610031, 0.02594306878745556, -0.0495142936706543, -0.08323823660612106, 
    0.14764918386936188, -0.031848251819610596, -0.0428570881485939, 0.00952466856688261, 
    -0.00034414022229611874, 0.04131271690130234, 0.07124960422515869, 0.01304976362735033, 
    -0.0011159698478877544, 0.03279603272676468, 0.03823629394173622, -0.042665086686611176, 
    0.15417993068695068, 0.3009491264820099, -0.043122708797454834, -0.016058653593063354, 
    0.006729640997946262, 0.011319543235003948, -0.12762247025966644, -0.010278208181262016, 
    0.012495188042521477, -0.052149660885334015, 0.10368777811527252, -0.01665950007736683, 
    0.10196040570735931, 0.22443464398384094, -0.10787893831729889, -0.11419152468442917, 
    0.010939079336822033, 0.10162846744060516, -0.006832308601588011, -0.11906187981367111, 
    -0.02121572382748127, 0.05497438460588455, 0.06660851091146469, 0.03219521790742874, 
    0.04540255665779114, -0.03498636558651924, -0.08568944782018661, -0.03473970293998718, 
    0.18228332698345184, 0.11745120584964752, -0.0720139816403389, 0.04157636687159538, 
    0.023650415241718292, 0.21146878600120544, 0.06915392726659775, -0.06800520420074463, 
    0.1868068128824234, -0.020828794687986374, 0.10849440097808838, 0.003502856707200408, 
    0.09336904436349869, 0.12616898119449615, 0.019145945087075233, 0.1377524733543396, 
    0.15151925384998322, 0.1519782543182373, 0.05999003350734711, -0.038542963564395905, 
    0.033741507679224014, 0.08814926445484161, -0.004294341430068016, -0.042553775012493134, 
    -0.019942523911595345, 0.035860463976860046, -0.05623244866728783, 0.05023369938135147, 
    -0.049889639019966125, -0.09873193502426147, 0.08782519400119781, -0.11680470407009125, 
    -0.0456213541328907, 0.15963312983512878, -0.05722220987081528, -0.05696958303451538, 
    -0.004819716326892376, -0.008912141434848309, -0.04575429484248161, -0.08941767364740372, 
    0.12618868052959442, 0.057937126606702805, 0.15326133370399475, -0.007170612923800945, 
    -0.09248706698417664, -0.0021675401367247105, -0.0089828260242939, 0.019630754366517067, 
    0.07524300366640091, -0.26928970217704773, 0.002111658686771989, -0.03148101270198822, 
    -0.013389269821345806, -0.25190895795822144, -0.03974549472332001, -0.03211177885532379, 
    -0.019847217947244644, 0.05951002240180969, -0.002725585363805294, -0.0031823660247027874, 
    -0.013072180561721325, 0.07938805967569351, 0.08109287917613983, 0.13227355480194092, 
    -0.004783046431839466, -0.1396748274564743, 0.023134920746088028, 0.10790260136127472, 
    -0.08819480240345001, -0.019436730071902275, 0.03645496070384979, 0.08282632380723953, 
    0.10660804063081741, 0.0022274116054177284, 0.11901262402534485, -0.04477677866816521, 
    -0.01434127613902092, 0.09957917034626007, 0.02940993569791317, -0.025270776823163033, 
    -0.006592996418476105, -0.09427488595247269, -0.03696161508560181, 0.07955938577651978, 
    -0.12755291163921356, -0.09947414696216583, -0.11348319053649902, 0.0646652951836586, 
    0.13932174444198608, 0.007497756741940975, 0.07754696905612946, 0.10838087648153305, 
    0.04752295836806297, 0.10305274277925491, 0.003988636191934347, 0.05050760507583618, 
    0.013066005893051624, -0.05348163843154907, -0.05293074622750282, 0.05301966518163681, 
    -0.17583343386650085, -0.10298541933298111, -0.1186184212565422, 0.07898443192243576, 
    -0.002245727926492691, 0.05754278972744942, -0.09997113794088364, 0.0677240788936615, 
    0.13650313019752502, 0.10779318958520889, 0.036024611443281174, -0.009091734886169434, 
    -0.04894331097602844, -0.01578724943101406, 0.04617657512426376, 0.018614107742905617, 
    -0.10472100973129272, 0.16489127278327942, -0.08864887058734894, 0.060072097927331924, 
    -0.1658344566822052, 0.07571614533662796, -0.08684936910867691, 0.03526270389556885, 
    0.08559274673461914, 0.0774916335940361, 0.12358543276786804, -0.06270068883895874, 
    0.005715536884963512, 0.10324306041002274, -0.00908712949603796, 0.0934944748878479, 
    -0.0785556212067604, 0.11163206398487091, -0.05042237788438797, 0.0702798068523407, 
    0.09801465272903442, 0.02612198330461979, -0.05752287060022354, 0.08253276348114014, 
    -0.0036733464803546667, 0.03082018531858921, -0.0035514936316758394, 0.048759493976831436, 
    0.014909199438989162, -0.1064155325293541, 0.03643438592553139, 0.006713800597935915, 
    -0.050516415387392044, 0.06344302743673325, 0.002690010704100132, -0.018976271152496338, 
    -0.004252412356436253, 0.17317408323287964, 0.029406167566776276, 0.05801018327474594, 
    0.02355232648551464, 0.08321167528629303, 0.03610445186495781, 0.00435059517621994, 
    0.007992901839315891, -0.054662980139255524, 0.050959616899490356, -0.0038349421229213476, 
    -0.053464487195014954, 0.03075147606432438, -0.036085572093725204, 0.007323086261749268, 
    0.022393086925148964, 0.1078004240989685, 0.07135260105133057, 0.08194872736930847, 
    -0.001719739637337625, 0.040537673979997635, 0.04033506661653519, -0.014698934741318226, 
    -0.03823088854551315, -0.007879335433244705, -0.01472187228500843, 0.04490228369832039, 
    -0.05312108248472214, -0.04441923275589943, -0.05592455714941025, 0.03458419069647789, 
    -0.07381235808134079, 0.05011262372136116, -0.0623280368745327, -0.003257924225181341, 
    -0.025614483281970024, -0.09148932248353958, -0.18653783202171326, -0.0200453270226717, 
    0.03790464624762535, -0.07930874079465866, -0.030199801549315453, 0.012484630569815636, 
    0.11587774008512497, -0.1277465671300888, 0.09472198039293289, -0.10602057725191116, 
    -0.03988794982433319, -0.12040208280086517, 0.01557172928005457, -0.047620199620723724, 
    -4.0660164813743904e-05, -0.10371385514736176, -0.016553902998566628, -0.09660135954618454, 
    -0.013490308076143265, 0.005244413856416941, 0.030299708247184753, 0.0033931590151041746, 
    0.014909401535987854, 0.01475156657397747, 0.028635410591959953, -0.14959345757961273, 
    -0.0313064381480217, 0.08501305431127548, -0.07744157314300537, -0.02518431656062603, 
    -0.044313088059425354, -0.036319002509117126, -0.015627337619662285, -0.04758426919579506, 
    0.017165983095765114, -0.2608446776866913, -0.025221996009349823, 0.048022910952568054, 
    0.1312735378742218, 0.06485103815793991, 0.052979033440351486, -0.06239951774477959, 
    0.062479402869939804, 0.029205095022916794, 0.12046507745981216, -0.06370926648378372, 
    0.151236429810524, 0.08821336925029755, 0.09561754018068314, 0.05859073996543884, 
    0.14816871285438538, 0.2054516226053238, -0.008055559359490871, -0.02915547788143158, 
    0.05169183388352394, 0.09327027946710587, 0.08849100768566132, -0.01541274506598711, 
    0.0871526375412941, 0.02448195032775402, -0.05589132383465767, 0.053649358451366425, 
    -0.09216178953647614, 0.020829716697335243, 0.0052567110396921635, 0.007678867317736149, 
    -0.034979529678821564, 0.1638382524251938, 0.021232444792985916, -0.037810344249010086, 
    -0.01098313182592392, -0.09314891695976257, 0.04740943759679794, 0.03860132396221161, 
    0.009001882746815681, 0.07575768977403641, -0.05413086712360382, 0.00012310108286328614, 
    0.03606098145246506, 0.05428386479616165, -0.047174133360385895, 0.08846839517354965, 
    -0.11657381057739258, -0.25113645195961, -0.02305637300014496, 0.0783824697136879, 
    -0.04008901119232178, -0.019699331372976303, 0.031726256012916565, 0.043917443603277206, 
    0.0712493434548378, -0.03442341834306717, 0.11473904550075531, 0.026047224178910255, 
    0.07963310927152634, 0.16078145802021027, 0.0748026967048645, 0.03735511377453804, 
    -0.007483234163373709, -0.3499507009983063, 0.0898822620511055, 0.18034255504608154, 
    -0.024058714509010315, -0.0704357847571373, 0.06762756407260895, 0.08958568423986435, 
    0.18789814412593842, 0.02256510779261589, 0.10787689685821533, 0.15328066051006317, 
    0.022278353571891785, 0.052788350731134415, 0.07635286450386047, 0.07312038540840149, 
    0.06068383529782295, -0.29918161034584045, 0.07421231269836426, 0.09868362545967102, 
    0.04967036843299866, -0.07748983055353165, 0.04995131492614746, 0.09163911640644073, 
    0.10497111082077026, 0.1298941671848297, 0.08163442462682724, 0.05694466084241867, 
    0.04543901979923248, 0.09494145959615707, 0.07228508591651917, -0.0022522646468132734, 
    -0.029840786010026932, -0.12160738557577133, 0.1203525960445404, 0.09840679168701172, 
    -0.0009987012017518282, -0.09024805575609207, 0.01687655970454216, 0.11886315792798996, 
    0.10245372354984283, 0.07773713022470474, 0.001892430940642953, 0.050572995096445084, 
    -0.011561254970729351, 0.053200241178274155, 0.06954291462898254, 0.04662369564175606, 
    -0.09176892787218094, -0.03971366584300995, -0.007974914275109768, 0.014968504197895527, 
    0.046339597553014755, -0.12914274632930756, -0.06703795492649078, 0.13097462058067322, 
    -0.019156349822878838, 0.1593327671289444, -0.08790678530931473, -0.013483080081641674, 
    -0.001181702595204115, -0.001333908992819488, 0.09825198352336884, -0.028724264353513718, 
    0.03499162942171097, -0.1293097287416458, 0.09808069467544556, 0.05228902027010918, 
    0.11660771816968918, -0.14648495614528656, -0.012648397125303745, 0.07966113835573196, 
    0.06471420079469681, 0.05916004255414009, -0.032405443489551544, 0.02573918178677559, 
    -0.033697739243507385, 0.01854700595140457, -0.0831635519862175, 0.0672403946518898, 
    0.13718712329864502, -0.1038430854678154, 0.004154416732490063, 0.04122813791036606, 
    0.1180102750658989, -0.17424434423446655, -0.012067524716258049, 0.06646717339754105, 
    0.0205447506159544, 0.1262931078672409, -0.0018403854919597507, 0.04034516215324402, 
    -0.05711783468723297, 0.07587645202875137, -0.05315494164824486, 0.1205512210726738, 
    0.010332571342587471, 0.0004908217815682292, 0.10061363875865936, 0.01198656391352415, 
    -0.010210818611085415, 0.05867227911949158, 0.031936224550008774, 0.10381334275007248, 
    0.00995705183595419, 0.11236971616744995, -0.015615727752447128, 0.10868712514638901, 
    -0.018444838002324104, 0.011294348165392876, -0.019274039193987846, -0.0030867569148540497, 
    -0.001409372896887362, 0.04413171485066414, -0.018170978873968124, -0.045066628605127335, 
    -0.01380434911698103, 0.02853412553668022, -0.05073322728276253, 0.013222088105976582, 
    0.07232701778411865, 0.055746760219335556, -0.05959192290902138, 0.046892326325178146, 
    -0.11662255972623825, -0.10620534420013428, -0.06752818077802658, -0.045794956386089325, 
    0.02443239465355873, 0.05850202217698097, -0.11068420112133026, -0.0761442482471466, 
    -0.00947768334299326, 0.2596513330936432, 0.013690106570720673, -0.04133714362978935, 
    -0.03994122892618179, -0.14097146689891815, -0.016115665435791016, -0.09339264035224915, 
    -0.10665103048086166, -0.1673600673675537, -0.21701142191886902, -0.07144568860530853, 
    0.07099778950214386, 0.13800927996635437, -0.07583470642566681, -0.08466451615095139, 
    0.03404306247830391, 0.1001824289560318, 0.047365207225084305, -0.04884552210569382, 
    -0.022432841360569, -0.010142028331756592, -0.056609902530908585, -0.0764651745557785, 
    -0.013503608293831348, -0.07220562547445297, -0.1754353940486908, -0.05852978676557541, 
    -0.02686801739037037, 0.01954827457666397, -0.06259655207395554, -0.04001332446932793, 
    0.05523739755153656, -0.03476714342832565, 0.03022676520049572, 0.038726091384887695, 
    -0.010695847682654858, -0.10437393188476562, 0.14157503843307495, 0.015905966982245445, 
    0.07157536596059799, 0.032182302325963974, -0.23479057848453522, 0.004992788657546043, 
    0.05836400389671326, 0.08988545835018158, 0.022438576444983482, 0.0017293337732553482, 
    0.08107446879148483, 0.19585168361663818, -0.03567182645201683, 0.045271214097738266, 
    0.07443570345640182, -0.06560980528593063, -0.0203427504748106, -0.0239808838814497, 
    0.06934194266796112, 0.07987772673368454, -0.11215987056493759, 0.05371436849236488, 
    0.0737944096326828, 0.11834651976823807, -0.05545532703399658, 0.03129566088318825, 
    -0.06689818948507309, 0.10967157781124115, -0.019978877156972885, -0.07835589349269867, 
    -0.07439395040273666, 0.023412279784679413, -0.07727142423391342, 0.0579741932451725, 
    -0.08421531319618225, -0.0288781076669693, -0.015139482915401459, 0.042173270136117935, 
    -0.05572320148348808, -0.19184155762195587, 0.05436141416430473, 0.0896877720952034, 
    0.007124781608581543, -0.0053197951056063175, 0.07734310626983643, 0.028372587636113167, 
    0.16946814954280853, -0.0016295942477881908, 0.14315366744995117, -0.01676221936941147, 
    -0.07218426465988159, 0.030336398631334305, -0.06183568760752678, 0.17444725334644318, 
    -0.04198112711310387, -0.1818707436323166, 0.18534784018993378, 0.0861787423491478, 
    0.025958064943552017, -0.060963425785303116, 0.10417435318231583, 0.06408945471048355, 
    0.09489963203668594, 0.02262023650109768, 0.14999108016490936, 0.14120866358280182, 
    -0.04655915126204491, 0.1580791026353836, -0.050709135830402374, 0.12342268973588943, 
    0.011866442859172821, -0.13076777756214142, 0.15358346700668335, 0.006367170717567205, 
    0.04938159137964249, -0.31633681058883667, 0.056981150060892105, 0.101719930768013, 
    0.08689987659454346, 0.12491489201784134, 0.011845479719340801, 0.10091464966535568, 
    -0.22792428731918335, 0.015231253579258919, -0.19852019846439362, 0.10370434075593948, 
    0.0015057314885780215, -0.19060000777244568, 0.08378046751022339, 0.00628525298088789, 
    0.012539629824459553, -0.2653542757034302, -0.026688100770115852, 0.1257486194372177, 
    0.01390700414776802, 0.10981114953756332, -0.011641926132142544, 0.129117950797081, 
    -0.20962108671665192, -0.015838932245969772, -0.1317415088415146, 0.04260292649269104, 
    -0.03552285581827164, -0.04112722724676132, 0.05627167969942093, -0.06498079746961594, 
    -0.033839695155620575, -0.18728414177894592, -0.036824781447649, 0.08837814629077911, 
    0.029306085780262947, 0.02662385068833828, 0.025290220975875854, 0.03641258925199509, 
    -0.1642833650112152, 0.002498689806088805, -0.26511964201927185, -0.02683919109404087, 
    -0.0517423115670681, -0.09350122511386871, -0.0015910889487713575, 0.005236395634710789, 
    -0.0038286380004137754, -0.22459055483341217, 0.05913272872567177, 0.05896555632352829, 
    0.027248814702033997, 0.07586143910884857, -4.1104685806203634e-05, 0.034984439611434937, 
    -0.2093881070613861, -0.08220669627189636, -0.4211028516292572, 0.030401479452848434, 
    0.040083516389131546, -0.08131281286478043, 0.05828344076871872, 0.007578250486403704, 
    0.04502208158373833, -0.16034871339797974, 0.03023460879921913, 0.02512357570230961, 
    0.02026945725083351, -0.008706390857696533, 0.03682747483253479, -0.02635788358747959, 
    0.013584451749920845, -0.04660848528146744, -0.19571712613105774, 0.08528020232915878, 
    -0.01977359876036644, -0.04952225834131241, 0.0058236392214894295, 0.07945538312196732, 
    -0.054966483265161514, 0.10673271864652634, -0.06145230680704117, 0.05174938589334488, 
    0.08604244142770767, -0.03170858696103096, 0.03382501006126404, -0.008152361959218979, 
    -0.06488637626171112, 0.08207983523607254, -0.05958590656518936, 0.08930131047964096, 
    0.03322574123740196, 0.03323477506637573, 0.030020274221897125, 0.018950937315821648, 
    -0.10405189543962479, -0.045618683099746704, -0.00948816817253828, 0.0641753226518631, 
    -0.04205883666872978, 0.08737353980541229, -0.03682149946689606, 0.06014767661690712, 
    0.16904418170452118, -0.05275584012269974, 0.005827872082591057, -0.05768724903464317, 
    0.03274424746632576, 0.17012445628643036, -0.06702493131160736, -0.002088880864903331, 
    0.05793603137135506, 0.4190974831581116, -0.07787007838487625, -0.15205906331539154, 
    -0.06071343645453453, -0.052508171647787094, -0.026744509115815163, -0.05109651759266853, 
    -0.05077687278389931, 0.04023430496454239, 0.10637009888887405, -0.05711517110466957, 
    0.19947409629821777, 0.04787992313504219, -0.11085321754217148, -0.04585326090455055, 
    0.09224715083837509, 0.1347287893295288, 0.09078358113765717, -0.028997205197811127, 
    -0.05930207297205925, 0.06274368613958359, -0.009659807197749615, 0.00032801023917272687, 
    0.0035628359764814377, -0.047800399363040924, 0.08027119189500809, 0.027252549305558205, 
    0.05969225615262985, 0.10128963738679886, -0.04214685410261154, -0.019158434122800827, 
    0.08562992513179779, 0.02032206393778324, -0.005966635420918465, -0.035069845616817474, 
    0.008371802046895027, -0.11615651100873947, 0.11622152477502823, 0.010177915915846825, 
    0.15695567429065704, 0.09348619729280472, 0.1177777573466301, 0.07952331006526947, 
    0.07997072488069534, 0.11177441477775574, 0.019170114770531654, 0.10555713623762131, 
    -0.0021029221825301647, 0.10081124305725098, -0.054075758904218674, 0.02106078900396824, 
    0.07141725718975067, 0.006898481864482164, -0.007113480009138584, -0.0009511748794466257, 
    -0.025502875447273254, 0.10259652882814407, 0.10585463792085648, 0.004306110553443432, 
    0.03267163038253784, -0.10872916132211685, -0.002131853485479951, 0.04251918941736221, 
    0.044591814279556274, 0.001689318218268454, -0.05298344045877457, 0.022059425711631775, 
    0.020825708284974098, 0.03609665110707283, 0.04285659268498421, 0.037968914955854416, 
    0.00966617651283741, -0.04452265426516533, 0.02891589142382145, 0.11427084356546402, 
    0.24412813782691956, -0.1638568788766861, 0.03691289201378822, 0.014080043882131577, 
    0.06504298746585846, -0.09793642163276672, 0.012992212548851967, -0.032896049320697784, 
    0.12498195469379425, 0.01745741441845894, 0.0072618648409843445, -0.02056463062763214, 
    -0.009811817668378353, -0.003548080800101161, -0.055082160979509354, 0.19097578525543213, 
    0.15803126990795135, -0.24173472821712494, 0.131530299782753, 0.0733172595500946, 
    0.07209420949220657, -0.10459625720977783, 0.14247578382492065, 0.10551296174526215, 
    0.15602639317512512, -0.03725535050034523, 0.09691018611192703, 0.09297458082437515, 
    -0.13361983001232147, 0.07801691442728043, 0.033846400678157806, 0.06663201749324799, 
    0.1097765788435936, -0.07649298012256622, 0.06363962590694427, 0.010075780563056469, 
    0.026078658178448677, -0.19766764342784882, 0.10616734623908997, 0.01806558482348919, 
    -0.015514643862843513, 0.07060623168945312, 0.13828836381435394, 0.14175163209438324, 
    -0.056905597448349, -0.013258845545351505, -0.07569313794374466, 0.05991682782769203, 
    0.03699779883027077, 0.06459026783704758, 0.06252367794513702, -0.10811661183834076, 
    -0.02869763784110546, 0.005270724184811115, 0.0686231404542923, 0.042863622307777405, 
    -0.025351710617542267, 0.07546062022447586, -0.07042393088340759, -0.027990959584712982, 
    0.005634249188005924, -0.008520309813320637, 0.0007413646671921015, 0.012526615522801876, 
    0.05960502848029137, 0.04529290646314621, 0.01792077161371708, -0.09929190576076508, 
    -0.08726627379655838, 0.0195094496011734, 0.05406949296593666, -0.06038602069020271, 
    -0.0069977277889847755, 0.028657132759690285, 0.058754727244377136, -0.033413276076316833, 
    0.02483767829835415, -0.0719953328371048, -0.029198812320828438, -0.05599498376250267, 
    0.05100219324231148, 0.1029127985239029, 0.0009383542346768081, -0.04808139428496361, 
    -0.03648492321372032, 0.09252405166625977, -0.03270210325717926, 0.01940407231450081, 
    -0.06905969232320786, -0.025371385738253593, -0.10149560868740082, -0.04517577216029167, 
    0.04272594675421715, -0.11390573531389236, -0.023613188415765762, -0.09020311385393143, 
    0.01599625125527382, 0.06680937111377716, -0.022114673629403114, -0.05609406903386116, 
    -0.08658751100301743, 0.1188943088054657, -0.03325403854250908, -0.06421038508415222, 
    -0.04415261745452881, 0.030587635934352875, -0.06329584121704102, -0.06913647055625916, 
    -0.029750173911452293, -0.10562784224748611, -0.05094726011157036, 0.004586723633110523, 
    0.025326257571578026, -0.017800910398364067, -0.09411464631557465, -0.04883098974823952, 
    -0.053042855113744736, 0.008720040321350098, -0.020218387246131897, -0.09280823916196823, 
    0.12117055058479309, -0.06664389371871948, 0.08530299365520477, -0.03167041018605232, 
    -0.06974270194768906, -0.044793467968702316, -0.09073332697153091, 0.019118579104542732, 
    0.02280276268720627, -0.02241615019738674, -0.04094335436820984, -0.0827551856637001, 
    -0.06479021906852722, -0.10944095999002457, -0.0032201760914176702, -0.08236583322286606, 
    0.09899453818798065, 0.07463797926902771, -0.0418228879570961, -0.08950258046388626, 
    0.1560322642326355, 0.01027178205549717, 0.10691428184509277, -0.04884202033281326, 
    0.023855246603488922, 0.027728579938411713, -0.05432314798235893, 0.08001403510570526, 
    0.09863871335983276, 0.10631904751062393, 0.14347665011882782, -0.007861101999878883, 
    0.07481793314218521, 0.04703740030527115, 0.05501716956496239, 0.06743180751800537, 
    -0.043624166399240494, 0.06566257029771805, 0.013152563013136387, -0.036182306706905365, 
    0.11207249015569687, 0.1686996966600418, 0.048523977398872375, -0.03629207983613014, 
    0.018685361370444298, 0.0763765424489975, 0.012900928035378456, 0.0195149052888155, 
    0.0014196202391758561, 0.09798850119113922, 0.01852181926369667, 0.01117696613073349, 
    0.06995483487844467, -0.0397769957780838, 0.055100761353969574, 0.0054438370279967785, 
    0.06055349484086037, 0.10099104791879654, -0.03658224269747734, 0.07762140035629272, 
    0.00654790410771966, 0.0752536803483963, 0.1120346263051033, -0.010993975214660168, 
    0.003750469069927931, 0.013104245066642761, 0.17530149221420288, -0.03092109225690365, 
    0.02599341794848442, 0.06526005268096924, 0.046963952481746674, 0.025554636493325233, 
    0.050608158111572266, 0.1454353779554367, -0.022561009973287582, 0.09595099836587906, 
    0.08162251114845276, 0.04194151237607002, 0.083101786673069, 0.006818852387368679, 
    -0.010611330159008503, 0.019778961315751076, 0.045094944536685944, 0.11522123217582703, 
    -0.03650993853807449, 0.021867239847779274, -0.011443077586591244, 0.02651255391538143, 
    -0.029301075264811516, 0.09580709040164948, 0.0293985977768898, 0.06999731063842773, 
    0.0011502292472869158, -0.0176300797611475, 0.07277245074510574, 0.035372648388147354, 
    -0.01378312986344099, 0.003514230251312256, -0.04657936468720436, 0.03229841962456703, 
    -0.017760783433914185, 0.010631829500198364, 0.01900859922170639, 0.005764723755419254, 
    -0.06831875443458557, -0.03500048443675041, -0.004365012515336275, 0.023215044289827347, 
    -0.017808858305215836, -0.1325153261423111, 0.07477418333292007, 0.027202293276786804, 
    -0.06477510184049606, -0.022736843675374985, 0.07057702541351318, 0.016617240384221077, 
    -0.05259963124990463, 0.07163969427347183, -0.06538724899291992, 0.08538006991147995, 
    -0.030557362362742424, -0.11678548902273178, 0.07357630878686905, 0.06920678913593292, 
    -0.07377790659666061, -0.12882742285728455, -0.014861403964459896, 0.010814876295626163, 
    0.009206322953104973, 0.024806322529911995, 0.048491571098566055, 0.05710642784833908, 
    -0.03866344690322876, -0.02632354572415352, 0.015053058043122292, 0.02097294293344021, 
    -0.0037475251592695713, -0.17903535068035126, 0.03541687875986099, -0.02381962724030018, 
    0.042064208537340164, -0.16213704645633698, -0.02869681641459465, -0.018120385706424713, 
    0.04533974453806877, 0.031151503324508667, 0.0013231009943410754, -0.050167713314294815, 
    -0.04162759333848953, 0.031705982983112335, -0.01502582710236311, 0.016744401305913925, 
    -0.0027010522317141294, -0.15093640983104706, -0.0015942829195410013, 0.024362290278077126, 
    0.033492688089609146, -0.16717875003814697, -0.006739468313753605, 0.04718721657991409, 
    -0.06089070811867714, 0.03272893652319908, -0.021997883915901184, 0.017785297706723213, 
    -0.06905598193407059, -0.007601662538945675, -0.03120293654501438, -0.11551148444414139, 
    -0.012161378748714924, 0.05354611575603485, -0.0063566043972969055, -0.011314598843455315, 
    -0.12888967990875244, -0.03646722808480263, -0.11271064728498459, -0.002814690815284848, 
    -0.05709599331021309, -0.04979655519127846, -0.05398837849497795, -0.035189200192689896, 
    0.07040458917617798, -0.0564580038189888, 0.0833921954035759, -0.05499880760908127, 
    -0.10546627640724182, -0.015733737498521805, -0.04565132036805153, -0.048426833003759384, 
    -0.13339941203594208, -0.036388691514730453, -0.08982712030410767, 0.060060691088438034, 
    -0.017104391008615494, -0.013771620579063892, -0.10851692408323288, -0.12761616706848145, 
    -0.07231253385543823, -0.020953215658664703, 0.012038080021739006, -0.09544369578361511, 
    -0.08208809047937393, -0.06518806517124176, -0.06975483894348145, -0.005341364070773125, 
    -0.0712677538394928, -0.07633434236049652, -0.051479898393154144, -0.08015535026788712, 
    -0.010006574913859367, 0.028793172910809517, 0.053670115768909454, -0.06494438648223877, 
    -0.04951854050159454, -0.007996972650289536, -0.016030328348279, -0.05019767954945564, 
    -0.02733484096825123, -0.0354793407022953, -0.0976535901427269, -0.005838879384100437, 
    0.036753445863723755, -0.11005361378192902, 0.01673176884651184, -0.14990399777889252, 
    0.11551053076982498, -0.013964787125587463, 0.029802896082401276, -0.03679267317056656, 
    -0.15333954989910126, -0.021118661388754845, -0.06402389705181122, -0.050962213426828384, 
    0.07112399488687515, 0.04248540475964546, -0.06121251359581947, -0.08780176937580109, 
    0.06873060762882233, -0.24087922275066376, 0.051956966519355774, -0.15137812495231628, 
    0.07588028907775879, -0.007632354740053415, -0.007053382229059935, -0.09251978248357773, 
    -0.002608432900160551, 0.00362864276394248, -0.026744667440652847, 0.06120039522647858, 
    0.10806909203529358, 0.25492823123931885, 0.07125774025917053, 0.033539727330207825, 
    0.22349125146865845, 0.06042763218283653, 0.15062858164310455, -0.04457511380314827, 
    -0.05164194479584694, 0.03003428317606449, 0.0035910732112824917, 0.03125685080885887, 
    -0.013221314176917076, 0.009784684516489506, -0.03842177987098694, 0.018904464319348335, 
    0.16088880598545074, 0.25369107723236084, 0.05707608535885811, -0.012458832003176212, 
    0.1762951761484146, 0.05329703539609909, 0.185055211186409, -0.07699370384216309, 
    0.0033101383596658707, 0.030843552201986313, 0.10865804553031921, 0.004282454028725624, 
    -0.0936661809682846, -0.010762659832835197, -0.03717536851763725, -0.014481568709015846, 
    0.22433684766292572, 0.30330872535705566, -0.009390401653945446, 0.019586646929383278, 
    0.14910903573036194, -0.02432825043797493, 0.1903771311044693, -0.01742824725806713, 
    0.15894387662410736, -0.01858188770711422, 0.16093070805072784, 0.0464431457221508, 
    -0.11091957986354828, 0.03446574509143829, 0.0018349079182371497, 0.02005944401025772, 
    0.2879112660884857, 0.14855892956256866, 0.005312994122505188, -0.0023436613846570253, 
    0.17753350734710693, -0.09727897495031357, 0.16499924659729004, -0.012568171136081219, 
    0.03798070549964905, 0.01568414457142353, 0.07745445519685745, -0.011767562478780746, 
    -0.031480759382247925, 0.025989985093474388, -0.033769454807043076, 0.11025027930736542, 
    0.11919412016868591, 0.02950078435242176, 0.005829904228448868, -0.02927909977734089, 
    0.083169125020504, -0.10421016812324524, 0.10307896137237549, -0.11898262798786163, 
    0.02372041717171669, 0.023593606427311897, 0.16900312900543213, -0.004267368000000715, 
    -0.18924514949321747, -0.0005321808275766671, -0.03851209208369255, -0.030521860346198082, 
    -0.002386729931458831, -0.12348996847867966, 0.04220912605524063, 0.04060157760977745, 
    0.013169958256185055, -0.27038338780403137, 0.06422221660614014, -0.056031886488199234, 
    0.06147727742791176, 0.054343219846487045, 0.12988469004631042, -0.04391124099493027, 
    -0.10670068860054016, 0.046432413160800934, -0.025288138538599014, -0.026805169880390167, 
    -0.0047645787708461285, -0.2325516790151596, 0.0697716549038887, 0.03511003777384758, 
    -0.03844397887587547, -0.16669319570064545, -0.006537497043609619, 0.05014906823635101, 
    -0.016703443601727486, 0.01023450493812561, 0.0021355715580284595, 0.020042937248945236, 
    -0.10749980807304382, -0.04203873500227928, -0.07480096071958542, 0.0016758993733674288, 
    -0.05664581432938576, -0.11544406414031982, 0.027216097339987755, -0.003542069811373949, 
    -0.08775697648525238, -0.3009395897388458, -0.0051939599215984344, 0.04181680455803871, 
    0.05263380706310272, 0.01905468851327896, 0.06414204835891724, 0.07567592710256577, 
    -0.03303363546729088, -0.0403842069208622, -0.07602797448635101, 0.05253038927912712, 
    -0.07742857187986374, -0.18376708030700684, -0.03503245860338211, -0.08948952704668045, 
    0.014935018494725227, -0.14900633692741394, -0.01627308502793312, -0.0004035075253341347, 
    -0.06009674072265625, 0.02174282819032669, -0.017917761579155922, -0.04752703756093979, 
    0.10890673846006393, -0.04933670535683632, -0.019020093604922295, 0.010189620777964592, 
    -0.0751149132847786, -0.0030143691692501307, -0.06416783481836319, -0.05025893822312355, 
    -0.058073803782463074, 0.007283842656761408, 0.04508719965815544, 0.0974438264966011, 
    0.04679783433675766, 0.0009366951417177916, 0.06567497551441193, -0.013479795306921005, 
    0.05333605408668518, 0.028730878606438637, 0.08219687640666962, -0.0555427260696888, 
    0.09259116649627686, 0.0518011637032032, 0.0544281043112278, 0.011674297042191029, 
    0.01131379883736372, -0.022224264219403267, 0.03236158937215805, 0.015096048824489117, 
    0.015507088042795658, 0.04053821787238121, -0.05603482201695442, 0.015727760270237923, 
    0.12536944448947906, -0.059563010931015015, 0.007134575396776199, 0.026456337422132492, 
    0.11747342348098755, -0.081878162920475, 0.01084497943520546, -0.05259286239743233, 
    0.02780923806130886, 0.02514142356812954, 0.0810832753777504, -0.052972547709941864, 
    0.09027047455310822, 0.017527638003230095, -0.03818771243095398, 0.007903970777988434, 
    0.013359823264181614, 0.0035577374510467052, 0.09078844636678696, 0.020515557378530502, 
    0.08790233731269836, -0.0018374890787526965, 0.021478457376360893, 0.0016314686508849263, 
    0.06187942996621132, 0.10803011804819107, 0.03208582103252411, -0.03650406002998352, 
    -0.05525287985801697, -0.014027184806764126, -0.039157066494226456, -0.036242131143808365, 
    -0.001868054736405611, -0.029408084228634834, 0.05413981154561043, -0.023818958550691605, 
    0.035856250673532486, 0.06827843189239502, -0.03774113208055496, -0.06163041293621063, 
    -0.06380864232778549, -0.16450023651123047, 0.03754163160920143, -0.03665915131568909, 
    -0.07944932579994202, 0.010666576214134693, -0.035785991698503494, -0.044327523559331894, 
    -0.07914168387651443, -0.144325852394104, 0.028864853084087372, -0.03382621333003044, 
    0.25483739376068115, 0.2627847194671631, -0.035370029509067535, -0.05859510973095894, 
    0.14801529049873352, -0.023099936544895172, 0.1451110690832138, -0.15490075945854187, 
    -0.05491043999791145, -0.019285403192043304, 0.11064323782920837, 0.02975763939321041, 
    -0.12938302755355835, -0.08528963476419449, 0.027108414098620415, -0.081308513879776, 
    0.09116876870393753, 0.2061375081539154, -0.06604837626218796, -0.10534463822841644, 
    0.17356052994728088, 0.1569213569164276, 0.10272297263145447, -0.17368842661380768, 
    -0.02822847291827202, 0.02075723558664322, 0.14623144268989563, 0.003114045364782214, 
    -0.09835374355316162, -0.024186093360185623, 0.10142409801483154, -0.024701107293367386, 
    0.1510438621044159, 0.057279158383607864, -0.013011859729886055, -0.03736545145511627, 
    0.14568543434143066, 0.029054459184408188, 0.14040164649486542, -0.05253712832927704, 
    0.04556358605623245, -0.013548607006669044, 0.1567012220621109, -0.04867715388536453, 
    -0.0005779532948508859, -0.024448955431580544, 0.00563751719892025, 0.001899957424029708, 
    0.15944379568099976, 0.1855788379907608, -0.066746786236763, -0.052593447268009186, 
    0.18612991273403168, -0.01420657243579626, 0.06762576848268509, -0.06646688282489777, 
    0.09033149480819702, -0.005605013575404882, -0.0016883715288713574, 0.004912730306386948, 
    0.012158800847828388, -0.01739252358675003, -0.041317105293273926, 0.03914959356188774, 
    0.08973708748817444, -0.02091071754693985, -0.03491615504026413, -0.000416643830249086, 
    0.0443795770406723, 0.14832712709903717, 0.08927866071462631, -0.06088453531265259, 
    0.17880798876285553, -0.032505519688129425, 0.11364657431840897, 0.050844017416238785, 
    -0.048045992851257324, -0.0396212562918663, 0.0754673108458519, 0.0005279950564727187, 
    0.07895982265472412, -0.049359407275915146, -0.03142934665083885, -0.01640104502439499, 
    0.10949798673391342, -0.18132266402244568, 0.0688747987151146, 0.05180557444691658, 
    -0.08425381779670715, -0.0236150324344635, 0.05424656718969345, -0.06537605077028275, 
    -0.05504593998193741, -0.048919156193733215, -0.12327472865581512, 0.04332927614450455, 
    0.03982062265276909, -0.03113533928990364, 0.011173288337886333, 0.05410361289978027, 
    0.05721762403845787, -0.0752018392086029, 0.08493943512439728, 0.055831991136074066, 
    0.10351430624723434, -0.05210895091295242, 0.012475283816456795, 0.01670195162296295, 
    -0.09029436111450195, 0.06338261067867279, -0.08808761090040207, 0.06697537750005722, 
    0.03322595730423927, -0.14879988133907318, 0.01274445652961731, -0.022225823253393173, 
    0.049622680991888046, -0.008628505282104015, 0.003416968509554863, -0.01713668741285801, 
    -0.07892575860023499, 0.04926200583577156, 0.06547439098358154, 0.028012147173285484, 
    0.041074126958847046, 0.08399032801389694, -0.004549340344965458, 0.06117068603634834, 
    0.11333771049976349, -0.10831060260534286, -0.015189072117209435, -0.02231440320611, 
    -0.034778885543346405, -0.02827991172671318, -0.007406049408018589, 0.035971950739622116, 
    -0.016145069152116776, 0.016371140256524086, -0.0939873680472374, 0.07906823605298996, 
    0.050598468631505966, -0.06614258885383606, -0.0005370051367208362, -0.003873055335134268, 
    -0.16786877810955048, -0.13164527714252472, -0.05955972522497177, 0.0841725692152977, 
    -0.03554023429751396, -0.08111915737390518, -0.0491461344063282, 0.070490762591362, 
    -0.08079476654529572, -0.07734458893537521, -0.0663401409983635, -0.03587585687637329, 
    -0.007784267421811819, 0.032095614820718765, 0.16234980523586273, 0.01858474127948284, 
    -0.22495922446250916, -0.07010290026664734, 0.025356492027640343, 0.10044871270656586, 
    -0.03537336364388466, -0.04564744234085083, -0.1740201711654663, 0.09446556121110916, 
    -0.025013383477926254, 0.052527815103530884, -0.05349709093570709, -0.022979188710451126, 
    -0.006036832928657532, 0.01186019740998745, 0.15872173011302948, -0.029955076053738594, 
    -0.11249096691608429, -0.1100742295384407, -0.008908441290259361, 0.061841875314712524, 
    -0.01959214359521866, 0.04903676360845566, -0.006541204173117876, 0.01671025902032852, 
    0.008370937779545784, 0.011174170300364494, -0.07455727458000183, 0.051274653524160385, 
    -0.05461039021611214, 0.05003317818045616, 0.24053815007209778, -0.018848059698939323, 
    -0.1400514394044876, -0.015635283663868904, -0.006604289170354605, 0.0478489026427269, 
    -0.008230994455516338, 0.13884609937667847, -0.025301426649093628, 0.029822058975696564, 
    0.03408529981970787, 0.024555038660764694, 0.03535997495055199, 0.0374687984585762, 
    0.01731877215206623, 0.12940450012683868, 0.18118789792060852, 0.02274196222424507, 
    -0.09928955137729645, -0.0694303959608078, 0.02522272616624832, 0.016331346705555916, 
    -0.04115957021713257, 0.08482200652360916, 0.07693246006965637, -0.014280709438025951, 
    -0.029809195548295975, 0.12304376810789108, -0.059599537402391434, 0.06719468533992767, 
  
    };
    static const neuron_t neuron0 = {weights0, 0.006793336942791939};
    neurons[0]=neuron0;

    static const float weights1[] ={
    0.025704434141516685, -0.04838387295603752, -0.04375390335917473, 0.015366986393928528, 
    -0.03710711747407913, 0.030106747522950172, -0.018472271040081978, -0.03466728702187538, 
    -0.05159008130431175, 0.03939687833189964, 0.01528120692819357, -0.02370021678507328, 
    0.037908319383859634, 0.04054313525557518, 0.01671421527862549, -0.011457633227109909, 
    0.013553107157349586, 0.022806251421570778, 0.04846210032701492, 0.03108731098473072, 
    0.04938499629497528, 0.03426258638501167, 0.04356598109006882, -0.04015236347913742, 
    -0.0074805994518101215, 0.028628431260585785, -0.025960704311728477, -0.01703864522278309, 
    0.008138090372085571, -0.00950520858168602, 0.036161527037620544, -0.03778289631009102, 
    -0.04736698046326637, 0.017093470320105553, -0.05422999709844589, -0.021956922486424446, 
    -0.041747085750103, 0.028240807354450226, 0.04212591052055359, 0.002213557716459036, 
    -0.026330985128879547, -0.023308344185352325, 0.01841782219707966, -0.055561233311891556, 
    -0.05644224211573601, -0.015415245667099953, -0.017685316503047943, 0.006073327735066414, 
    -0.004166407976299524, 0.04474184662103653, -0.04648229479789734, -0.05586821958422661, 
    -0.023963913321495056, -0.0025308667682111263, 0.024595005437731743, -0.02948675863444805, 
    0.023219775408506393, -0.04363780841231346, -0.004438209813088179, 0.02254999428987503, 
    -0.04727086052298546, 0.015029607340693474, -0.009966455399990082, 0.009522330947220325, 
    -0.015601969324052334, 0.011230715550482273, -0.0003203663800377399, 0.003072889056056738, 
    -0.02600448578596115, -0.0492885559797287, -0.004975124727934599, -0.00592366699129343, 
    -0.0536918006837368, -0.0018344776472076774, -0.003928863909095526, -0.0532003790140152, 
    -0.042511701583862305, -0.03513209521770477, -0.036693692207336426, -0.02149922400712967, 
    -0.06240328028798103, 0.027161788195371628, -0.03804519400000572, -0.02711198851466179, 
    0.010943001136183739, -0.016626471653580666, 0.010063398629426956, 0.0032746335491538048, 
    -0.0029309606179594994, -0.0086984783411026, 0.03888314589858055, -0.04182165861129761, 
    -0.02964175119996071, -0.029692167416214943, -0.0023035407066345215, -0.04232233390212059, 
    -0.047370269894599915, -0.034134671092033386, 0.014182168990373611, 0.044242165982723236, 
    0.009669722057878971, -0.05579381808638573, 0.01621428318321705, 0.023645268753170967, 
    0.020455218851566315, -0.03865716606378555, -0.018345098942518234, 0.00880387518554926, 
    0.0056168073788285255, -0.006938418839126825, -0.027926165610551834, 0.019558941945433617, 
    0.021935628727078438, -0.02746470272541046, -0.02293439954519272, 0.01653675176203251, 
    -0.008312699384987354, -0.03646888956427574, -0.05815625190734863, -0.02981927990913391, 
    0.03621012717485428, -0.030752506107091904, 0.03215506300330162, -0.0482976958155632, 
    0.005041096359491348, 0.02356150560081005, -0.019805757328867912, 0.008850159123539925, 
    0.04182786867022514, -0.023349305614829063, 0.018907375633716583, -0.06645618379116058, 
    0.005678537767380476, 0.009608910419046879, 0.002401566132903099, 0.017336931079626083, 
    -0.028380004689097404, -0.05913836508989334, 0.013364301063120365, -0.02722558006644249, 
    -0.030016904696822166, -0.019635630771517754, 0.011456327512860298, 0.03934042155742645, 
    -0.05345238745212555, 0.010396641679108143, -0.03674386069178581, -0.05559392273426056, 
    0.018359120935201645, 0.01623033545911312, 0.043129630386829376, -0.006496143061667681, 
    0.006188694853335619, -0.018437551334500313, 0.007613033056259155, 0.02868889458477497, 
    -0.019578073173761368, 0.02790687419474125, -0.07367296516895294, 0.030837539583444595, 
    -0.0119058508425951, 0.003221675055101514, 0.02760358899831772, -0.022141478955745697, 
    0.03760651499032974, -0.0016453207936137915, -0.029220450669527054, -0.05038965865969658, 
    -0.07257039099931717, -0.019248969852924347, -0.04619511589407921, 0.008830011822283268, 
    -0.009061605669558048, -0.03344254940748215, -0.04282940924167633, -0.00663631921634078, 
    0.0011816095793619752, -0.003963830880820751, -0.05625251308083534, -0.032016877084970474, 
    0.02632276713848114, -0.059337906539440155, 0.0051314025186002254, -0.05282219871878624, 
    -0.003643370931968093, 0.00934248510748148, -0.07191088795661926, 0.014037893153727055, 
    -0.05881029739975929, -0.04475387930870056, -0.004716582130640745, 0.0446297861635685, 
    -0.05941656604409218, 0.040863242000341415, -0.01678922399878502, -0.04164060205221176, 
    0.03604087978601456, -0.024061860516667366, -0.019511014223098755, -0.03931678459048271, 
    -0.04191062971949577, 0.012400862760841846, 0.007307711057364941, -0.002272307639941573, 
    -0.001562966383062303, -0.05722323805093765, -0.07279945909976959, 0.006134555675089359, 
    0.038111742585897446, -0.008103178814053535, -0.057305485010147095, -0.024259891360998154, 
    -0.057072628289461136, -0.06464946269989014, -0.008852719329297543, -0.05799344182014465, 
    0.026958700269460678, -0.04864243045449257, -0.010873704217374325, 0.02982194907963276, 
    -0.03919856622815132, -0.00687465351074934, -0.08010370284318924, -0.052792515605688095, 
    -0.05110743269324303, 0.04834426939487457, -0.0021713392343372107, -0.017429696395993233, 
    0.017591072246432304, -0.045504190027713776, -0.045083630830049515, 0.0016102150548249483, 
    0.028068706393241882, 0.043153803795576096, 0.019472066313028336, 0.00693913409486413, 
    -0.04800098016858101, 0.01898878812789917, 0.024612193927168846, -0.0460413359105587, 
    0.0059226262383162975, -0.010597831569612026, -0.027301188558340073, 0.00804164633154869, 
    -0.01143543142825365, 0.01321724895387888, 0.030004005879163742, 0.04404953867197037, 
    -0.014974634163081646, -0.030309462919831276, -0.045309606939554214, -0.007412865292280912, 
    0.03671099245548248, 0.025744233280420303, 0.03600059077143669, -0.03652840852737427, 
    -0.030635826289653778, -0.041055627167224884, -0.031158093363046646, -0.03371430188417435, 
    0.021542580798268318, 0.022226279601454735, -0.042676154524087906, 0.014673457480967045, 
    0.010888702236115932, -0.04056942090392113, 0.02620602212846279, -0.05246231332421303, 
    -0.02195008099079132, -0.020234422758221626, -0.055838942527770996, -0.012584434822201729, 
    -0.06044096499681473, 0.015201177448034286, -0.014470658265054226, -0.045587290078401566, 
    0.030234158039093018, -0.01258478406816721, 0.03917814418673515, -0.05508686229586601, 
    0.03125699982047081, 0.009402381256222725, -0.02005643956363201, 0.0228863675147295, 
    0.013593129813671112, -0.015180876478552818, 0.018168924376368523, -0.028167299926280975, 
    -0.05225621908903122, 0.02286313660442829, -0.013255667872726917, -0.029089590534567833, 
    -0.037793125957250595, -0.06044839695096016, 0.0005374671309255064, 0.029755253344774246, 
    -0.032212354242801666, 0.00633025448769331, -0.03848874941468239, -0.0011647407663986087, 
    -0.031287435442209244, 0.03063521906733513, -0.046340785920619965, -0.01704958826303482, 
    -0.022086046636104584, 0.021274248138070107, -0.05443919450044632, -0.0022459097672253847, 
    -0.0634634792804718, 0.02725902572274208, -0.01681877113878727, 0.010810024105012417, 
    0.03827258571982384, -0.026889750733971596, 0.03645845130085945, 0.01769467443227768, 
    0.004947888199239969, -0.05092744901776314, -0.06501353532075882, -0.05090740695595741, 
    0.018032517284154892, -0.021532662212848663, -0.030391165986657143, 0.02253580652177334, 
    -0.058462150394916534, -0.047425638884305954, -0.037858251482248306, 0.006829232443124056, 
    -0.058931805193424225, -0.011600465513765812, 0.025076476857066154, -0.05643806606531143, 
    -0.03621431812644005, 0.003849214408546686, -0.022412437945604324, 0.04490954056382179, 
    0.04700135067105293, -0.016893578693270683, 0.04440179839730263, 0.001149880699813366, 
    -0.02822243794798851, -0.04198165982961655, 0.03214490786194801, 0.0036286425311118364, 
    0.024701427668333054, -0.03186982870101929, -0.037262991070747375, -0.017941659316420555, 
    0.050737544894218445, 0.005884447600692511, -0.027575498446822166, 0.031274277716875076, 
    0.03329428657889366, -0.06358920782804489, 0.025191418826580048, 0.036219820380210876, 
    -0.02318844385445118, -0.0493541844189167, -0.06037936359643936, 0.015264512039721012, 
    0.009610486216843128, 0.002767095109447837, 0.0184630099684, -0.04662387818098068, 
    -0.035519152879714966, -0.00870486069470644, 0.015253521502017975, 0.027790773659944534, 
    -0.010096877813339233, -0.04347043111920357, -0.05019097775220871, 0.029284551739692688, 
    -0.00753283454105258, -0.06221511587500572, -0.04193424433469772, 0.030590299516916275, 
    0.007363918237388134, -0.056221310049295425, -0.03899264708161354, 0.014328723773360252, 
    0.013747193850576878, -0.037272077053785324, -0.04236001893877983, -0.04679116979241371, 
    -0.007281363010406494, 0.017287421971559525, 0.022113975137472153, 0.027856603264808655, 
    -0.022071117535233498, 0.020933616906404495, 0.03650832548737526, 0.015013131313025951, 
    0.020291315391659737, -0.02953527681529522, -0.05938715860247612, 0.019763018935918808, 
    0.005652871448546648, -0.047054558992385864, -0.008472206071019173, 0.012003524228930473, 
    -0.00837455689907074, 0.007639594376087189, 0.029683301225304604, 0.037583641707897186, 
    -0.048458684235811234, 0.008846593089401722, -0.05035797879099846, 0.033314500004053116, 
    -0.054598528891801834, 0.029425283893942833, -0.017074355855584145, -0.0029261326417326927, 
    -0.01486937515437603, -0.028630241751670837, 0.00954408384859562, 0.0329713448882103, 
    -0.037590738385915756, 0.02721702866256237, -0.03780544176697731, 0.01145331934094429, 
    -0.007078098598867655, 0.007121368311345577, -0.039704207330942154, 0.026445066556334496, 
    -0.01019836775958538, -0.00020679277076851577, -0.036051493138074875, 0.03858219459652901, 
    -0.0024992749094963074, 0.01937677524983883, 0.022021152079105377, 0.0019275863887742162, 
    -0.025988927111029625, 0.04303118586540222, 0.0007246824097819626, 0.009668654762208462, 
    -0.0315767340362072, -0.014348939061164856, -0.062344618141651154, -0.04416508972644806, 
    0.004824207630008459, 0.009241667576134205, -0.05017591267824173, 0.01999242790043354, 
    -0.021779922768473625, -0.015688693150877953, -0.06371277570724487, 0.004889178555458784, 
    0.0009178692125715315, -0.002184974728152156, 0.012888976372778416, -0.01962401531636715, 
    0.010525211691856384, 0.03153052553534508, -0.02130213938653469, -0.05112211033701897, 
    -0.01708069257438183, -0.04062293842434883, -0.024393655359745026, -0.03916744142770767, 
    -0.04993929713964462, -0.004668985493481159, -0.030469326302409172, -0.058809421956539154, 
    -0.012377788312733173, -0.04678720608353615, -0.013238467276096344, -0.050044625997543335, 
    0.02372458390891552, 0.008815000765025616, -0.018260374665260315, 0.024971958249807358, 
    -0.04277952015399933, -0.01940917782485485, -0.02686779387295246, -0.05091068148612976, 
    0.04333561286330223, 0.016912071034312248, -0.01852480322122574, 0.03625180572271347, 
    0.03924252837896347, 0.0171340499073267, 0.016124308109283447, 0.030286911875009537, 
    0.01817656122148037, 0.025527339428663254, 0.008317559026181698, -0.027367712929844856, 
    0.012739700265228748, -0.04549224302172661, 0.005370768718421459, -0.019297687336802483, 
    -0.04913439601659775, 0.03572235256433487, -0.06347993016242981, -0.019030312076210976, 
    -0.05357205867767334, -0.057836394757032394, 0.02104010060429573, 0.011267220601439476, 
    0.037885136902332306, -0.028613530099391937, 0.040586795657873154, 0.03915159031748772, 
    0.014933550730347633, -0.031828466802835464, 0.0186738520860672, 0.012665529735386372, 
    -0.06031151860952377, -0.027022188529372215, 0.044156841933727264, 0.0014889900339767337, 
    -0.024495935067534447, 0.014437947422266006, -0.007248871959745884, 0.011431348510086536, 
    0.008765609003603458, -0.004972941242158413, 0.042246244847774506, -0.009014632552862167, 
    -0.05913307145237923, 0.00960741750895977, 0.0016989359864965081, -0.05917629972100258, 
    -0.056941211223602295, 0.008084953762590885, 0.010396531783044338, -0.00403146306052804, 
    0.03917812556028366, 0.0016025416553020477, 0.006465759128332138, 0.015154199674725533, 
    0.04628866910934448, 0.038924649357795715, -0.056167811155319214, -0.03271368518471718, 
    0.022709934040904045, 0.02764817886054516, 0.013323294930160046, 0.001346750883385539, 
    0.005457151215523481, 0.03495682403445244, -0.0020813208539038897, -0.0016187865985557437, 
    0.04114290326833725, 0.04764831066131592, 0.00015269739378709346, -0.015781300142407417, 
    -0.03797232359647751, -0.028383180499076843, -0.000662721402477473, 0.02736016735434532, 
    0.021216213703155518, 0.0051437970250844955, 0.04174850881099701, 0.03650156036019325, 
    0.04861415550112724, 0.001807728549465537, -0.04431905969977379, 0.011723410338163376, 
    -0.03755616769194603, -0.02995508536696434, 0.027629483491182327, 0.022467100992798805, 
    -0.046920545399188995, -0.033952582627534866, -0.02232682704925537, 0.03248007968068123, 
    0.015332385897636414, 0.02867399901151657, 0.015472019091248512, 0.03836553916335106, 
    -0.030123669654130936, -0.03171730414032936, -0.03283640369772911, -0.002047903137281537, 
    0.044961608946323395, -0.03558479994535446, -0.028397852554917336, 0.02461523562669754, 
    -0.029354911297559738, 0.020347101613879204, 0.0022924263030290604, -0.021184666082262993, 
    -0.03326985612511635, 0.009660807438194752, -0.04272911697626114, 0.016246099025011063, 
    -0.04053742438554764, -0.019958194345235825, -0.00799194909632206, -0.01607576571404934, 
    -0.004427395761013031, -0.020740391686558723, 0.019615907222032547, -0.04763983190059662, 
    0.02488395944237709, 0.000168625803780742, -0.059231776744127274, 0.01838524453341961, 
    -0.01426153164356947, -0.016368700191378593, -0.05186932906508446, -0.045549724251031876, 
    0.0005145135219208896, 0.016214311122894287, 0.027543136849999428, -0.01283818669617176, 
    -0.03453080356121063, -0.0007851366535760462, 0.009259113110601902, -0.03773435205221176, 
    -0.01955573260784149, 0.02657710574567318, -0.05576573684811592, 0.012972671538591385, 
    -0.046743035316467285, -0.006917502731084824, -0.020151501521468163, 0.0395711250603199, 
    -0.03000982291996479, -0.042439721524715424, 0.035255059599876404, -0.02065960131585598, 
    0.034968964755535126, 0.004003243986517191, -0.01635568030178547, 0.034039080142974854, 
    -0.013884235173463821, -0.04613775014877319, -0.05961093679070473, -0.001949471072293818, 
    0.025405453518033028, -0.03629765287041664, 0.03250536322593689, 0.02494201622903347, 
    -0.025473270565271378, -0.04494553431868553, 0.00020816813048440963, -0.041539762169122696, 
    -0.012239932082593441, 0.028476180508732796, 0.028920605778694153, 0.022462857887148857, 
    0.006048755720257759, 0.023953668773174286, -0.048436012119054794, -0.02621970884501934, 
    0.029156573116779327, 0.006455387454479933, 0.028464946895837784, -0.05150012671947479, 
    0.01750805415213108, 0.020187418907880783, -0.08430042117834091, -0.02460533007979393, 
    -0.008272182196378708, -0.01043565571308136, 0.024096520617604256, -0.04436812549829483, 
    0.03895897790789604, -0.06652245670557022, -0.06097347289323807, -0.006115891970694065, 
    0.0355488583445549, 0.022872785106301308, -0.021485337987542152, 0.001531753921881318, 
    0.030399248003959656, 0.03505890816450119, -0.029258882626891136, -0.027268456295132637, 
    0.02361537329852581, -0.04891336336731911, -0.006898665800690651, -0.011025600135326385, 
    0.04112068936228752, -0.04063379764556885, -0.04845229536294937, -0.05386118218302727, 
    0.0014386159600690007, 0.006912555079907179, -0.03467627242207527, 0.043029773980379105, 
    0.0307112168520689, 0.037821557372808456, 0.0010918386979028583, 0.034654147922992706, 
    -0.022042283788323402, 0.011128336191177368, 0.012948970310389996, 0.027944989502429962, 
    0.016096992418169975, 0.01063535362482071, -0.06528299301862717, -0.0006963484920561314, 
    -0.04768342897295952, -0.026899700984358788, 0.035671666264534, -0.019028816372156143, 
    -0.05658338963985443, 0.03876455873250961, -0.002611987292766571, -0.00538743706420064, 
    0.008668094873428345, 0.04536561667919159, 0.017802203074097633, -0.016432859003543854, 
    0.041521236300468445, -0.05230826884508133, -0.023549754172563553, 0.010548721998929977, 
    0.008767008781433105, 0.03107164427638054, 0.04091894254088402, -0.046842291951179504, 
    -0.05396971106529236, 0.03669820353388786, -0.0168217234313488, 0.02982977218925953, 
    -0.006262699607759714, -0.050112321972846985, -0.06048315018415451, -0.060184795409440994, 
    0.006687722634524107, -0.014049735851585865, 0.0003141490160487592, -0.0485805943608284, 
    -0.04410106688737869, -0.010720056481659412, -0.03362973779439926, 0.008083607070147991, 
    0.02096160128712654, 0.036332547664642334, -0.05119302496314049, 0.013406765647232533, 
    0.01688927225768566, -0.03209570795297623, -0.05706905573606491, -0.05080892890691757, 
    0.026209255680441856, 0.026405302807688713, 0.02498035505414009, -0.008626721799373627, 
    -0.0032175048254430294, 0.037984080612659454, -0.041638169437646866, 0.03864021599292755, 
    -0.0392407663166523, -0.007144939620047808, 0.020182231441140175, 0.032497063279151917, 
    0.04030347615480423, -0.05378681793808937, -0.04711485654115677, -0.05964129418134689, 
    -0.02012387104332447, -0.05929777771234512, 0.028592783957719803, 0.03866282477974892, 
    -0.01698910817503929, -0.041489455848932266, -0.0192855354398489, -0.013141126371920109, 
    0.0408574603497982, -0.018839377909898758, -0.06896017491817474, 0.0033687325194478035, 
    -0.03725520148873329, -0.00982776377350092, -0.035662949085235596, -0.034371133893728256, 
    -0.014297889545559883, -0.020069675520062447, 0.03125007450580597, 0.0370514802634716, 
    0.01967500150203705, -0.020372727885842323, 0.03002292290329933, -0.01753082498908043, 
    -0.03773686662316322, 0.04110332205891609, -0.03725200146436691, -0.047746870666742325, 
    0.037345364689826965, -0.06168433278799057, -0.027034534141421318, 0.007871042005717754, 
    -0.010285469703376293, 0.026034222915768623, -0.0013710063649341464, 0.010190588422119617, 
    -0.05277196317911148, 0.0002798456116579473, 0.0015180957270786166, -0.03158099949359894, 
    -0.0008133454248309135, 0.03950310871005058, -0.0499972440302372, 0.012888241559267044, 
    -0.01590120792388916, 0.04301004856824875, -0.04110388830304146, 0.005364826414734125, 
    0.002395502058789134, -0.06976242363452911, 0.023716237396001816, -0.012056701816618443, 
    0.01152404397726059, -0.06344928592443466, -0.03213795647025108, -0.04922965168952942, 
    -0.061122674494981766, -0.05053650587797165, -0.03204280510544777, -0.058370910584926605, 
    -0.047367095947265625, -0.054969143122434616, 0.014022822491824627, 0.008945317007601261, 
    -0.0274063553661108, -0.02281634882092476, -0.024443170055747032, -0.03210897371172905, 
    0.03750348836183548, 0.03102908283472061, -0.012092113494873047, -0.03545031696557999, 
    -0.03366125002503395, -0.042151324450969696, -0.019100680947303772, -0.059669118374586105, 
    -0.038708463311195374, -0.0313284732401371, -0.018150901421904564, 0.03389723598957062, 
    0.04038624465465546, 0.000950070156250149, -0.028826655820012093, -0.06032883748412132, 
    0.03794855251908302, -0.000291713688056916, -0.03275775909423828, -0.057471081614494324, 
    0.004070224706083536, -0.016682641580700874, -0.043270643800497055, -0.041270654648542404, 
    0.007030140142887831, -0.04425274208188057, 0.026103349402546883, 0.013354402966797352, 
    -0.009149741381406784, -0.05624828487634659, 0.02954265847802162, -0.02581990323960781, 
    -0.009957042522728443, -0.0558759905397892, -0.04305432364344597, -0.03602691367268562, 
    0.028598764911293983, -0.03788236901164055, -0.024417981505393982, 0.01659901812672615, 
    0.007170713972300291, 0.024758610874414444, -0.021900374442338943, -0.029840324074029922, 
    -0.06727050989866257, 0.0016737806145101786, -0.06280451267957687, -0.016648102551698685, 
    0.03909343108534813, 0.018526606261730194, -0.032494112849235535, -0.009470244869589806, 
    -0.061705976724624634, 0.03224363923072815, -0.04064933583140373, -0.042553938925266266, 
    -0.03448546305298805, 0.024231337010860443, -0.039236880838871, -0.048012875020504, 
    0.027991093695163727, 0.018747208639979362, 0.018000604584813118, 0.037493810057640076, 
    0.0021483178716152906, -0.02086290717124939, 0.010767975822091103, 0.008142055943608284, 
    -0.01051529124379158, 0.026576530188322067, -0.06053919717669487, 0.016113007441163063, 
    -0.03173857182264328, -0.019561640918254852, 0.009502503089606762, -0.04635816439986229, 
    0.0391504280269146, -0.05698075518012047, 0.027737054973840714, 0.0448249876499176, 
    -0.052277009934186935, 0.01739632710814476, -0.018090788275003433, -0.012194463983178139, 
    0.033128269016742706, -0.03459439054131508, 0.02926618605852127, 0.019077211618423462, 
    0.0070667206309735775, -0.04385858774185181, -0.01876446232199669, 0.008260251022875309, 
    0.001770489732734859, -0.03306842967867851, 0.023546753451228142, 0.02685803920030594, 
    0.007568353321403265, 0.040675368160009384, -0.028251606971025467, -0.019335368648171425, 
    -0.010206510312855244, 0.005411670543253422, -0.05214051902294159, 0.039178892970085144, 
    -0.02903343178331852, -0.055242862552404404, 0.009492138400673866, -0.05411684140563011, 
    0.04118554666638374, -0.03651741147041321, -0.05868243798613548, 0.04335624724626541, 
    -0.006411854177713394, -0.05643879994750023, -0.028789939358830452, 0.007555584888905287, 
    -0.01775025762617588, -0.013349916785955429, -0.06104131042957306, 0.029743926599621773, 
    -0.026225049048662186, -0.01170453429222107, 0.011804440058767796, 0.00627993093803525, 
    -0.004773981403559446, -0.026290513575077057, -0.014395216479897499, 0.007238565944135189, 
    -0.013963988050818443, 0.04927092790603638, -0.023087574169039726, -0.0545891709625721, 
    -0.002809991594403982, -0.025072867050766945, 0.020854512229561806, 0.037592560052871704, 
    0.03926300257444382, 0.012464475817978382, 0.025341985747218132, 0.04259511083364487, 
    -0.010218140669167042, -0.012514387257397175, 0.03820917755365372, -0.031089697033166885, 
    -0.059278786182403564, 0.01068155188113451, -0.039961665868759155, 0.020238948985934258, 
    -0.045233212411403656, 0.0009482770692557096, -0.02307477593421936, 0.009947413578629494, 
    0.023280732333660126, 0.01599724590778351, 0.019651807844638824, -0.051309261471033096, 
    -0.05618559569120407, 0.0006762462435290217, 0.03424627333879471, -0.007018223870545626, 
    0.018933510407805443, -0.003128842683508992, 0.021896706894040108, 0.00298177357763052, 
    -0.02659972943365574, -0.05090184882283211, -0.06727942079305649, -0.023706624284386635, 
    -0.046102214604616165, -0.03307618573307991, -0.0607525035738945, 0.007065194193273783, 
    -0.018837550655007362, -0.03862260654568672, -0.05034960061311722, 0.008936259895563126, 
    -0.014857473783195019, -0.014471737667918205, -0.00364500074647367, -0.0023091481998562813, 
    0.026129940524697304, 0.0197208933532238, -0.005934870336204767, 0.025208525359630585, 
    0.02603738009929657, 0.0003661242371890694, -0.04825158789753914, 0.01794436015188694, 
    0.018775885924696922, -0.017250096425414085, -0.017573751509189606, 0.029089367017149925, 
    -0.027293842285871506, 0.014818278141319752, -0.0009082480100914836, 0.009630209766328335, 
    -0.021615292876958847, 0.036233097314834595, 0.017901502549648285, -0.03670889511704445, 
    0.05003727599978447, 0.030047887936234474, -0.01107473112642765, 0.03506891801953316, 
    0.02682127244770527, -0.034847285598516464, -0.030272461473941803, -0.05616762489080429, 
    -0.03560392186045647, -0.011351418681442738, 0.02424028515815735, -0.026609420776367188, 
    0.003375440835952759, 0.029270872473716736, -0.006062165834009647, -0.053369950503110886, 
    0.0262218676507473, -0.030601052567362785, 0.028896410018205643, -0.0038054422475397587, 
    0.014497737400233746, -0.016983866691589355, -0.04468643292784691, -0.013560570776462555, 
    0.01789979822933674, -0.058553509414196014, -0.03360052779316902, -0.019276808947324753, 
    -0.056655339896678925, -0.031124940142035484, -0.02226768247783184, 0.009264366701245308, 
    -0.03627978265285492, 0.005100922659039497, -0.048055894672870636, -0.01664854772388935, 
    -0.04309435561299324, -0.06400809437036514, 0.0030610414687544107, 0.028154723346233368, 
    -0.06040320172905922, -0.010647972114384174, -0.04901784285902977, -0.05203867703676224, 
    -0.025053663179278374, -0.03854890912771225, -0.00743873743340373, 0.016818441450595856, 
    0.020073948428034782, -0.0024747548159211874, -0.036852434277534485, 0.007797364145517349, 
    -0.0634070336818695, -0.04013373330235481, 0.0005075173103250563, 0.022410482168197632, 
    -0.061526503413915634, -0.02610628865659237, -0.00681975856423378, 0.017994701862335205, 
    0.021409817039966583, -0.05289335548877716, 0.01576727256178856, -0.046216364949941635, 
    -0.03344622626900673, -0.002711931010708213, 0.037840522825717926, 0.04225441440939903, 
    -0.05834370478987694, -0.011998062953352928, 0.02794106863439083, 0.012321902438998222, 
    -0.037793491035699844, 0.006742655299603939, 0.01689179055392742, 0.014194555580615997, 
    -0.03465249016880989, -0.058966122567653656, -0.0474061518907547, -0.007982438430190086, 
    0.029855377972126007, -0.03379537910223007, -0.04988100379705429, 0.04140085354447365, 
    0.028469864279031754, -0.054618727415800095, -0.024517690762877464, -0.06352800875902176, 
    -0.045388173311948776, -0.015397276729345322, -0.03863382712006569, -0.013835519552230835, 
    -0.06169772148132324, -0.024177685379981995, -0.017783410847187042, 0.02312186174094677, 
    0.007820340804755688, -0.030920840799808502, -0.006331784650683403, -0.007399759721010923, 
    -0.027555564418435097, -0.05589824169874191, -0.009793432429432869, -0.02402099035680294, 
    -0.050478629767894745, 0.005666996818035841, -0.005101868882775307, -0.007732182741165161, 
    -0.005217218771576881, -0.0302664153277874, -0.005164463073015213, 0.05614589899778366, 
    -0.018622810021042824, -0.01992403343319893, 0.008811002597212791, -0.029847420752048492, 
    0.0037345560267567635, -0.026843801140785217, 0.004704746883362532, 0.04281120002269745, 
    0.00890031736344099, 0.021759897470474243, -0.010150349698960781, 0.015455820597708225, 
    -0.04588877409696579, -0.02806294709444046, -0.03520151972770691, 0.01203547976911068, 
    0.008397242985665798, -0.006803382188081741, 0.017421454191207886, -0.018450014293193817, 
    -0.059760671108961105, -0.07359501719474792, -0.04113420471549034, 0.01843220554292202, 
    0.014387610368430614, 0.016273867338895798, 0.04491801932454109, -0.06169804185628891, 
    0.010506591759622097, -0.03644796088337898, 0.03671422228217125, -0.013598666526377201, 
    0.033126529306173325, 0.02160326950252056, -0.011368009261786938, -0.007301627192646265, 
    0.04059981554746628, -0.07551629096269608, 0.016224119812250137, 0.04156981781125069, 
    -0.008373724296689034, -0.055895477533340454, -0.03711440786719322, -0.0366976298391819, 
    0.009097958914935589, -0.05278097838163376, 0.04426833614706993, 0.0415291003882885, 
    0.003443496534600854, -0.0539264902472496, 0.0378219299018383, -0.017185933887958527, 
    0.0236672293394804, -0.05657161399722099, -5.92694959777873e-05, 0.025545725598931313, 
    -0.03285345062613487, -0.04316011816263199, 0.04799164831638336, -0.046208713203668594, 
    0.04269714280962944, 0.04303940013051033, -0.010418165475130081, -0.012770256958901882, 
    0.024246057495474815, -0.02168780192732811, 0.0350516177713871, 0.03508305922150612, 
    0.008564592339098454, 0.011871200054883957, -0.02198954112827778, -0.06285856664180756, 
    -0.018464284017682076, 0.022829638794064522, -0.043278440833091736, -0.008511822670698166, 
    -0.003205519402399659, -0.012785937637090683, -0.0281431395560503, -0.028664961457252502, 
    0.02155403606593609, 0.03139597177505493, -0.0279745664447546, -0.01903800666332245, 
    0.02180476486682892, -0.08322179317474365, 0.035480912774801254, 0.041193075478076935, 
    0.0011995229870080948, 0.01868191547691822, -0.03460140526294708, -0.001597902039065957, 
    -0.028049470856785774, -0.037043701857328415, 0.0222075916826725, -0.04060039669275284, 
    -0.010424491949379444, -0.05741281434893608, -0.06009705364704132, 0.0312943309545517, 
    0.04444928094744682, -0.018154041841626167, 0.022205956280231476, 0.004539819434285164, 
    -0.00029250039369799197, -0.07278773933649063, -0.0016785908956080675, 0.005342268850654364, 
    -0.017599618062376976, -0.02956310473382473, -0.04704444110393524, 0.005631029140204191, 
    0.0003884693724103272, -0.01908572018146515, 0.032464880496263504, -0.009175064042210579, 
    0.0068476079031825066, 0.006151620764285326, -0.02003326453268528, 0.012168179266154766, 
    0.036109812557697296, -0.06927776336669922, -0.049467939883470535, -0.044612616300582886, 
    -0.04029449075460434, 0.03180043771862984, -0.07613920420408249, 0.03181621432304382, 
    0.015081094577908516, 0.008143671788275242, 0.04461568966507912, -0.05089648440480232, 
    -0.05147738382220268, -0.03997365012764931, -0.026726359501481056, 0.00011895129864569753, 
    -0.04170426353812218, -0.023538043722510338, -0.02240646444261074, -0.041271720081567764, 
    0.016820361837744713, 0.0177004374563694, -0.01794162392616272, -0.06355398893356323, 
    -0.040571775287389755, 0.034515380859375, -0.0038809694815427065, 0.015831664204597473, 
    -0.03356633335351944, -0.000659406476188451, 0.03187813237309456, -0.007618061266839504, 
    0.016594549641013145, -0.017748288810253143, -0.02289479784667492, 0.016226254403591156, 
    -0.05148296058177948, 0.00915552955120802, -0.005819373764097691, -0.04128773882985115, 
    0.014226105064153671, -0.05376175418496132, -0.04264603555202484, -0.02992275543510914, 
    0.007022869773209095, 0.0007635554648004472, -0.04598650336265564, -0.06243795529007912, 
    0.019044004380702972, -0.03060745820403099, -0.019884826615452766, -0.03917907923460007, 
    -0.031963642686605453, -0.005462322384119034, -0.002263696165755391, 0.014111828990280628, 
    0.04659847542643547, -0.00493792537599802, 0.006789954379200935, 0.03511025011539459, 
    -0.0015118223382160068, 0.0039777979254722595, 0.007716872729361057, 0.002622254891321063, 
    -0.05745842680335045, -0.009576073847711086, 0.005152454134076834, 0.038877688348293304, 
    0.036034874618053436, -0.00801518838852644, -0.07895945757627487, -0.061682432889938354, 
    0.030466120690107346, 0.013102589175105095, -0.03531995788216591, -0.044730935245752335, 
    0.03321196138858795, -0.0787731185555458, -0.018843816593289375, -0.03911973536014557, 
    -0.0506066270172596, -0.05364760756492615, -0.049629438668489456, -0.02223917655646801, 
    -0.009735657833516598, -0.05090373754501343, 0.0024804165586829185, -0.0037834281101822853, 
    -0.045550551265478134, -0.04757926985621452, -0.04103727266192436, 0.05064738169312477, 
    0.017706505954265594, -0.009237163700163364, 0.02044162154197693, 0.04549862816929817, 
    -0.02382975071668625, -0.024117672815918922, 0.0036290467251092196, -0.042059436440467834, 
    0.025421563535928726, 0.007804843597114086, -0.0008856290369294584, -0.04204988107085228, 
    0.02157549560070038, -0.026514451950788498, -0.06035212427377701, 0.03431781008839607, 
    0.0471615232527256, -0.017039021477103233, 0.010578416287899017, -0.05743774399161339, 
    0.006315004546195269, -0.0762234553694725, 0.019909001886844635, 0.019846878945827484, 
    0.0156065309420228, 0.013048731721937656, -0.048760537058115005, 0.028675157576799393, 
    -0.02070912905037403, -0.017670851200819016, -0.024682801216840744, -0.03663892671465874, 
