#include "embedia_model.h"
#include "embedia_debug.h"

// Initialization function prototypes
conv2d_layer_t init_conv2d_10_data(void);
conv2d_layer_t init_conv2d_11_data(void);
dense_layer_t init_dense_8_data(void);
dense_layer_t init_dense_9_data(void);


// Global Variables
conv2d_layer_t conv2d_10_data;
conv2d_layer_t conv2d_11_data;
dense_layer_t dense_8_data;
dense_layer_t dense_9_data;


void model_init(){
    conv2d_10_data = init_conv2d_10_data();
    conv2d_11_data = init_conv2d_11_data();
    dense_8_data = init_dense_8_data();
    dense_9_data = init_dense_9_data();

}

void model_predict(data3d_t input, data1d_t * output){
  
    prepare_buffers();
    
    //*************** LAYER 0 **************//
    // Layer name: conv2d_10
    data3d_t output0;
    conv2d_layer(conv2d_10_data, input, &output0);
    // Activation layer for conv2d_10
    relu_activation(output0.data, 5040);
    // Debug function for layer conv2d_10
    print_data3d_t("conv2d_10", output0);
    
    //*************** LAYER 1 **************//
    // Layer name: max_pooling2d_8
    input = output0;
    static const pooling2d_layer_t max_pooling2d_8_data = { 2, 2 };
    max_pooling2d_layer(max_pooling2d_8_data, input, &output0);
    // Debug function for layer max_pooling2d_8
    print_data3d_t("max_pooling2d_8", output0);
    
    //*************** LAYER 2 **************//
    // Layer name: conv2d_11
    input = output0;
    conv2d_layer(conv2d_11_data, input, &output0);
    // Activation layer for conv2d_11
    relu_activation(output0.data, 2016);
    // Debug function for layer conv2d_11
    print_data3d_t("conv2d_11", output0);
    
    //*************** LAYER 3 **************//
    // Layer name: flatten_4
    input = output0;
    data1d_t output1;
    flatten3d_layer(input, &output1);
    // Debug function for layer flatten_4
    print_data1d_t("flatten_4", output1);
    
    //*************** LAYER 4 **************//
    // Layer name: dense_8
    data1d_t input1;
    input1 = output1;
    dense_layer(dense_8_data, input1, &output1);
    
    // Activation layer for dense_8
    relu_activation(output1.data, 16);
    // Debug function for layer dense_8
    print_data1d_t("dense_8", output1);
    
    //*************** LAYER 5 **************//
    // Layer name: dense_9
    input1 = output1;
    dense_layer(dense_9_data, input1, &output1);
    
    // Activation layer for dense_9
    softmax_activation(output1.data, 3);
    // Debug function for layer dense_9
    print_data1d_t("dense_9", output1);
    

    *output = output1;

}

int model_predict_class(data3d_t input, data1d_t * results){
  
   
    model_predict(input, results);
    
    return argmax(*results);
    //return argmax(data1d_t);

}

// Implementation of initialization functions



conv2d_layer_t init_conv2d_10_data(void){

        static filter_t filters[8];
        
        static const float weights0[]={ 
    0.02790650725364685, 0.3627376854419708, -0.10382581502199173, 
    0.07501374930143356, 0.4052354097366333, -0.37741562724113464, 
    0.3291383981704712, 0.24128954112529755, -0.2611791789531708, 

        };
        static filter_t filter0 = {1, 3, weights0, 0.0015080971643328667};
        filters[0]=filter0;
            
        static const float weights1[]={ 
    0.33948665857315063, -0.1498306542634964, -0.19660106301307678, 
    0.1267612874507904, 0.18981176614761353, 0.17425420880317688, 
    -0.2849638760089874, -0.26411253213882446, -0.24556152522563934, 

        };
        static filter_t filter1 = {1, 3, weights1, 0.07720986008644104};
        filters[1]=filter1;
            
        static const float weights2[]={ 
    0.4134589731693268, 0.15928678214550018, 0.3365176320075989, 
    0.3985674977302551, 0.3159118592739105, 0.38527390360832214, 
    -0.07686810195446014, -0.3852417767047882, -0.24539580941200256, 

        };
        static filter_t filter2 = {1, 3, weights2, -0.009946469217538834};
        filters[2]=filter2;
            
        static const float weights3[]={ 
    0.42083990573883057, 0.23939795792102814, -0.10043326765298843, 
    0.745232880115509, 0.36369624733924866, 0.24223585426807404, 
    0.5149166584014893, 0.4549768269062042, -0.07604384422302246, 

        };
        static filter_t filter3 = {1, 3, weights3, 0.0008270602556876838};
        filters[3]=filter3;
            
        static const float weights4[]={ 
    -0.11146146059036255, 0.04017333313822746, -0.3491196930408478, 
    0.5997895002365112, 0.19599375128746033, 0.48915666341781616, 
    0.10111188888549805, 0.10640528053045273, 0.42920875549316406, 

        };
        static filter_t filter4 = {1, 3, weights4, -0.0025019540917128325};
        filters[4]=filter4;
            
        static const float weights5[]={ 
    0.23468655347824097, 0.15878769755363464, 0.3606361150741577, 
    0.1524791121482849, 0.2626262605190277, 0.2978554368019104, 
    0.11385475099086761, 0.18411439657211304, 0.020457107573747635, 

        };
        static filter_t filter5 = {1, 3, weights5, 0.00675155408680439};
        filters[5]=filter5;
            
        static const float weights6[]={ 
    0.008003994822502136, -0.12172523140907288, -0.1614772528409958, 
    0.5331773161888123, 0.18618243932724, 0.1713988035917282, 
    -0.3298831880092621, 0.04654600843787193, 0.1454685479402542, 

        };
        static filter_t filter6 = {1, 3, weights6, -0.027443762868642807};
        filters[6]=filter6;
            
        static const float weights7[]={ 
    -0.09416496008634567, -0.05028540641069412, 0.01391335017979145, 
    0.20960769057273865, 0.7190000414848328, 0.21437841653823853, 
    0.32184311747550964, 0.6489526033401489, -0.013669513165950775, 

        };
        static filter_t filter7 = {1, 3, weights7, -0.0026243238244205713};
        filters[7]=filter7;
            
        conv2d_layer_t layer = {8, filters};
        return layer;
        }
        

conv2d_layer_t init_conv2d_11_data(void){

        static filter_t filters[16];
        
        static const float weights0[]={ 
    0.33639246225357056, -0.15412913262844086, 
    0.20419199764728546, -0.20551615953445435, 

    0.1780259609222412, -0.036697160452604294, 
    0.20820514857769012, 0.17283211648464203, 

    0.11087286472320557, 0.10214020311832428, 
    0.10961457341909409, -0.2771589457988739, 

    0.07311706990003586, -0.25420287251472473, 
    0.23997484147548676, -0.23087027668952942, 

    0.08525893092155457, 0.21186880767345428, 
    -0.24561543762683868, -0.20043222606182098, 

    0.11177384108304977, 0.0555262491106987, 
    0.2350023239850998, -0.05860614776611328, 

    -0.31367766857147217, -0.05221255123615265, 
    -0.14395900070667267, 0.016332009807229042, 

    0.019842281937599182, 0.0003458682622294873, 
    0.08551832288503647, -0.350010484457016, 

        };
        static filter_t filter0 = {8, 2, weights0, -0.026624729856848717};
        filters[0]=filter0;
            
        static const float weights1[]={ 
    0.06481669843196869, 0.2360401451587677, 
    0.12036710977554321, -0.38486096262931824, 

    -0.030967045575380325, 0.3936770260334015, 
    0.33466219902038574, 0.23433414101600647, 

    0.40642285346984863, 0.19880254566669464, 
    -0.07791592180728912, -0.26443031430244446, 

    0.2193322479724884, 0.0549515075981617, 
    -0.1314365565776825, -0.42443034052848816, 

    0.15361513197422028, -0.058515649288892746, 
    -0.3500906229019165, -0.5285243988037109, 

    0.012620768509805202, -0.035316381603479385, 
    -0.1554439663887024, -0.2209659069776535, 

    0.3917667865753174, -0.058267608284950256, 
    0.18470121920108795, -0.3964521586894989, 

    0.08194876462221146, -0.09148495644330978, 
    -0.040550168603658676, -0.1981014758348465, 

        };
        static filter_t filter1 = {8, 2, weights1, 0.10252118110656738};
        filters[1]=filter1;
            
        static const float weights2[]={ 
    0.4001995921134949, -0.2560594081878662, 
    0.1199466809630394, -0.22833293676376343, 

    0.17076505720615387, 0.25182318687438965, 
    -0.40657714009284973, -0.16479241847991943, 

    0.17967265844345093, -0.21070212125778198, 
    -0.016292108222842216, 0.10855225473642349, 

    -0.030010437592864037, 0.15484225749969482, 
    -0.1264858841896057, 0.10450442880392075, 

    0.29644864797592163, -0.17379902303218842, 
    -0.2678794264793396, 0.3370535373687744, 

    0.1314469873905182, -0.2188684642314911, 
    -0.043709754943847656, -0.028918365016579628, 

    0.37165990471839905, 0.1179799735546112, 
    -0.38846033811569214, 0.374989777803421, 

    0.04524945095181465, 0.04861149191856384, 
    -0.12939338386058807, -0.09609329700469971, 

        };
        static filter_t filter2 = {8, 2, weights2, 0.010538511909544468};
        filters[2]=filter2;
            
        static const float weights3[]={ 
    -0.27231425046920776, -0.20028451085090637, 
    -0.18604008853435516, 0.18997277319431305, 

    -0.3385312259197235, -0.15907278656959534, 
    0.060627713799476624, -0.21206018328666687, 

    -0.03419468179345131, -0.06842361390590668, 
    0.10890007764101028, -0.04701690003275871, 

    0.18938419222831726, 0.09198823571205139, 
    0.04954420030117035, -0.17834484577178955, 

    0.1467086225748062, 0.18750908970832825, 
    -0.11080396920442581, -0.029624221846461296, 

    -0.04876140505075455, 0.04326503723859787, 
    0.18667063117027283, -0.09148941934108734, 

    0.1025020033121109, -0.0035592312924563885, 
    0.020607486367225647, -0.3011011779308319, 

    -0.01373859029263258, 0.06243174150586128, 
    -0.1353704333305359, 0.11582231521606445, 

        };
        static filter_t filter3 = {8, 2, weights3, 0.02845759503543377};
        filters[3]=filter3;
            
        static const float weights4[]={ 
    -0.13729703426361084, -0.04238716885447502, 
    -0.010145660489797592, 0.2208397388458252, 

    0.4713687300682068, 0.18664753437042236, 
    -0.04468489810824394, 0.08824662864208221, 

    0.1678544580936432, -0.15787355601787567, 
    0.19498702883720398, -0.021218419075012207, 

    0.17404581606388092, -0.3421688377857208, 
    0.10463611781597137, 0.024114450439810753, 

    -0.1299421638250351, 0.026592586189508438, 
    0.16317059099674225, 0.14598053693771362, 

    -0.011517776176333427, -0.15832842886447906, 
    -0.19946616888046265, -0.27551165223121643, 

    0.20661357045173645, -0.13126757740974426, 
    0.1589004248380661, 0.20380112528800964, 

    0.16417081654071808, -0.3643479645252228, 
    -0.17043960094451904, -0.08769523352384567, 

        };
        static filter_t filter4 = {8, 2, weights4, -0.0017048498848453164};
        filters[4]=filter4;
            
        static const float weights5[]={ 
    -0.6366896629333496, -0.20998941361904144, 
    -0.3448764979839325, 0.08494747430086136, 

    0.3099139332771301, -0.01736333593726158, 
    -0.2664322257041931, 0.224545419216156, 

    -0.20513536036014557, 0.24085402488708496, 
    0.1331838220357895, 0.06433134526014328, 

    -0.5742878317832947, -0.18286684155464172, 
    0.04629909247159958, 0.35303986072540283, 

    -0.1121412143111229, -0.1704157441854477, 
    0.2669104039669037, 0.3828146755695343, 

    -0.2878638207912445, 0.03567630052566528, 
    -0.1425492912530899, -0.03444034978747368, 

    -0.15207789838314056, -0.09852445125579834, 
    -0.009782187640666962, 0.2802066206932068, 

    -0.5007770657539368, -0.07136503607034683, 
    -0.04951218515634537, 0.4141453504562378, 

        };
        static filter_t filter5 = {8, 2, weights5, 0.025827813893556595};
        filters[5]=filter5;
            
        static const float weights6[]={ 
    -0.07336500287055969, 0.03532678633928299, 
    0.20187488198280334, 0.1544950157403946, 

    -0.4176293611526489, -0.3524875044822693, 
    -0.5654756426811218, -0.2330068051815033, 

    0.13685274124145508, 0.0338519923388958, 
    -0.17389723658561707, -0.08943930268287659, 

    -0.06861843913793564, 0.12545043230056763, 
    -0.029215987771749496, 0.18150508403778076, 

    -0.12405072897672653, -0.21343551576137543, 
    -0.14145386219024658, 0.2738391160964966, 

    0.11631760001182556, -0.009183145128190517, 
    0.15651299059391022, 0.12402366101741791, 

    -0.08874857425689697, -0.29672521352767944, 
    -0.1223914846777916, -0.1258649080991745, 

    0.2967093586921692, 0.04311484470963478, 
    0.09941578656435013, -0.1648438721895218, 

        };
        static filter_t filter6 = {8, 2, weights6, 0.11337548494338989};
        filters[6]=filter6;
            
        static const float weights7[]={ 
    0.17708951234817505, 0.15434928238391876, 
    0.041789840906858444, 0.1508771926164627, 

    -0.30628442764282227, -0.10205584019422531, 
    -0.037960153073072433, -0.3200880289077759, 

    0.12636874616146088, -0.06065356731414795, 
    -0.2559152841567993, 0.1253383308649063, 

    0.045061491429805756, 0.05294943228363991, 
    0.11756037920713425, -0.05527995526790619, 

    0.11852867156267166, 0.20063713192939758, 
    -0.1934025138616562, 0.10153140127658844, 

    -0.13337014615535736, 0.23070736229419708, 
    0.020036615431308746, -0.13023614883422852, 

    -0.3593296706676483, -0.055757783353328705, 
    -0.41621261835098267, -0.299772173166275, 

    0.28336048126220703, 0.0689765065908432, 
    -0.061776332557201385, 0.183712437748909, 

        };
        static filter_t filter7 = {8, 2, weights7, 0.05485305190086365};
        filters[7]=filter7;
            
        static const float weights8[]={ 
    0.02564764767885208, -0.08928590267896652, 
    0.4589926600456238, 0.15824122726917267, 

    0.06056360527873039, -0.10229053348302841, 
    -0.1371489316225052, -0.2251940220594406, 

    0.024112643674016, 0.16122817993164062, 
    -0.13248054683208466, -0.26382744312286377, 

    -0.3936898112297058, -0.45307403802871704, 
    0.29654425382614136, 0.03838019073009491, 

    -0.4209376573562622, -0.6354855895042419, 
    -0.09120295941829681, 0.10614627599716187, 

    -0.10115598142147064, -0.5046799778938293, 
    0.07991627603769302, -0.3074793815612793, 

    -0.16779467463493347, -0.030827440321445465, 
    0.12962734699249268, -0.08719281852245331, 

    -0.3728640675544739, -0.5819337964057922, 
    0.25330668687820435, 0.09596087783575058, 

        };
        static filter_t filter8 = {8, 2, weights8, 0.010184558108448982};
        filters[8]=filter8;
            
        static const float weights9[]={ 
    -0.18224218487739563, 0.23029689490795135, 
    -0.21876424551010132, 0.24406059086322784, 

    -0.05463986471295357, -0.4138789772987366, 
    -0.23357492685317993, -0.309208482503891, 

    -0.006148736458271742, 0.0283626951277256, 
    0.1460827738046646, 0.03246990218758583, 

    -0.07721032202243805, -0.22188234329223633, 
    -0.03218970447778702, 0.2605179250240326, 

    -0.22969891130924225, 0.18797728419303894, 
    -0.2512538433074951, 0.04300333932042122, 

    -0.13871148228645325, 0.2690221965312958, 
    0.1793639212846756, 0.16206581890583038, 

    -0.37306636571884155, -0.29748138785362244, 
    -0.4466025233268738, -0.13334840536117554, 

    -0.031044546514749527, 0.2889004945755005, 
    -0.06499352306127548, 0.17456859350204468, 

        };
        static filter_t filter9 = {8, 2, weights9, 0.10009130835533142};
        filters[9]=filter9;
            
        static const float weights10[]={ 
    -0.3209722340106964, -0.14226318895816803, 
    -0.36233770847320557, 0.0030382932163774967, 

    -0.063496433198452, -0.027887454256415367, 
    0.3648523688316345, 0.12626707553863525, 

    -0.03376837447285652, 0.33380192518234253, 
    -0.22941865026950836, -0.10873095691204071, 

    -0.2419232428073883, -0.019482677802443504, 
    -0.36382192373275757, 0.27112895250320435, 

    0.11820172518491745, 0.10304774343967438, 
    -0.285582035779953, 0.2710551917552948, 

    0.2370622307062149, 0.2934715151786804, 
    -0.27606645226478577, -0.030565937981009483, 

    -0.14741192758083344, 0.05076082795858383, 
    -0.21688829362392426, -0.038274507969617844, 

    -0.20596274733543396, 0.326191782951355, 
    -0.3355250358581543, -0.1226176843047142, 

        };
        static filter_t filter10 = {8, 2, weights10, 0.23222984373569489};
        filters[10]=filter10;
            
        static const float weights11[]={ 
    0.011064824648201466, 0.0691220685839653, 
    0.034254420548677444, 0.190781831741333, 

    -0.1999662071466446, 0.10222253203392029, 
    -0.5282643437385559, -0.05076330155134201, 

    -0.2832176387310028, 0.01702999882400036, 
    0.01775033213198185, 0.1673351228237152, 

    -0.0032485676929354668, 0.13222068548202515, 
    0.15694081783294678, 0.2363097220659256, 

    -0.14903447031974792, -0.1504407525062561, 
    -0.2664618492126465, -0.06967729330062866, 

    -0.03661865368485451, 0.07347721606492996, 
    0.20385973155498505, 0.17859099805355072, 

    -0.29685282707214355, 0.017813516780734062, 
    -0.24324443936347961, 0.12261896580457687, 

    -0.23886695504188538, 0.28263935446739197, 
    -0.20669867098331451, 0.03715186193585396, 

        };
        static filter_t filter11 = {8, 2, weights11, 0.0872889906167984};
        filters[11]=filter11;
            
        static const float weights12[]={ 
    0.29230839014053345, -0.3986815810203552, 
    -0.043833475559949875, 0.15254387259483337, 

    0.05786485597491264, 0.21027922630310059, 
    0.41549545526504517, -0.0605623759329319, 

    -0.2596769630908966, -0.4635278284549713, 
    0.06165153533220291, -0.5625799894332886, 

    0.2970859110355377, -0.41537606716156006, 
    0.34351733326911926, -0.2369421273469925, 

    0.05229504406452179, -0.4270433485507965, 
    0.3579208254814148, -0.015750713646411896, 

    -0.1901669204235077, -0.5461263656616211, 
    0.3223523795604706, -0.2632276713848114, 

    -0.04241593927145004, -0.5016244053840637, 
    0.5839818716049194, 0.0437299981713295, 

    0.0710061565041542, -0.12401175498962402, 
    -0.05643390864133835, -0.09338876605033875, 

        };
        static filter_t filter12 = {8, 2, weights12, 0.09865313768386841};
        filters[12]=filter12;
            
        static const float weights13[]={ 
    -0.018578289076685905, -0.19520841538906097, 
    0.1227368488907814, 0.2558504343032837, 

    -0.15117290616035461, -0.20652231574058533, 
    -0.4707046151161194, 0.0834222137928009, 

    -0.14821240305900574, 0.260593056678772, 
    0.1772899031639099, -0.10309100151062012, 

    0.020469436421990395, 0.019680367782711983, 
    -0.13499155640602112, 0.13822467625141144, 

    -0.07046248763799667, 0.2578508257865906, 
    0.041208673268556595, -0.09247367084026337, 

    -0.2085731029510498, 0.2370324581861496, 
    -0.15243716537952423, -0.1384246051311493, 

    -0.27838844060897827, -0.020830726251006126, 
    -0.171906977891922, 0.055358581244945526, 

    0.2569217085838318, 0.08628110587596893, 
    -0.114080049097538, -0.06814289838075638, 

        };
        static filter_t filter13 = {8, 2, weights13, 0.07040988653898239};
        filters[13]=filter13;
            
        static const float weights14[]={ 
    -0.008340556174516678, -0.21605345606803894, 
    -0.004519762471318245, -0.0725460797548294, 

    -0.2516457736492157, 0.18960018455982208, 
    0.1532280445098877, 0.31280383467674255, 

    -0.4073290526866913, 0.15903756022453308, 
    0.16134923696517944, -0.19511279463768005, 

    -0.17321334779262543, 0.074381023645401, 
    0.2858635187149048, -0.11993686854839325, 

    -0.21953526139259338, -0.45234543085098267, 
    0.3776766061782837, -0.22912272810935974, 

    0.00533926161006093, -0.37032291293144226, 
    -0.129474937915802, 0.05821355804800987, 

    -0.2417020946741104, -0.48219192028045654, 
    0.37922826409339905, 0.1682119518518448, 

    -0.05192658305168152, -0.24326390027999878, 
    0.2695121467113495, 0.06608749181032181, 

        };
        static filter_t filter14 = {8, 2, weights14, -0.03274828940629959};
        filters[14]=filter14;
            
        static const float weights15[]={ 
    0.07752247154712677, -0.13185134530067444, 
    -0.36232492327690125, 0.11384834349155426, 

    0.23913630843162537, 0.022123785689473152, 
    -0.10225602239370346, -0.2051665037870407, 

    0.12260869890451431, 0.2793191075325012, 
    -0.08281705528497696, 0.10739018768072128, 

    -0.19699233770370483, 0.06416216492652893, 
    -0.39703798294067383, 0.17423084378242493, 

    0.31697240471839905, 0.25276464223861694, 
    -0.48787593841552734, -0.2822251617908478, 

    -0.12415476143360138, -0.17027315497398376, 
    0.0005787350237369537, -0.03751193359494209, 

    0.3500586450099945, 0.3119828999042511, 
    -0.2962426543235779, -0.32888147234916687, 

    0.14029520750045776, 0.3193422257900238, 
    -0.4297390878200531, -0.1560228019952774, 

        };
        static filter_t filter15 = {8, 2, weights15, 0.06763192266225815};
        filters[15]=filter15;
            
        conv2d_layer_t layer = {16, filters};
        return layer;
        }
        
dense_layer_t init_dense_8_data(void){

    static neuron_t neurons[16];

    static const float weights0[] ={
    0.022934935986995697, -0.1278851479291916, -0.02255941554903984, -0.006694201845675707, 
    0.1664159744977951, 0.16998106241226196, 0.015632884576916695, 0.028583331033587456, 
    0.10009169578552246, 0.09993375837802887, 0.02194935269653797, -0.07533866167068481, 
    0.009131931699812412, -0.02889309823513031, -0.05025915056467056, 0.07519498467445374, 
    -0.08656410872936249, -0.0461098812520504, 0.01633395068347454, -0.09771442413330078, 
    -0.09119392186403275, 0.006767220329493284, 0.05989943444728851, 0.06066659837961197, 
    0.08497676253318787, 0.002690963912755251, -0.15508805215358734, 0.011071506887674332, 
    -0.13214263319969177, -0.018583213910460472, 0.11780447512865067, 0.05263303592801094, 
    0.028950275853276253, 0.0019058784237131476, 0.09120849519968033, 0.009097873233258724, 
    0.21849274635314941, -0.08683507889509201, 0.01779060624539852, -0.013595875352621078, 
    0.14657583832740784, -0.027081714943051338, -0.19197821617126465, -0.04344624653458595, 
    0.23258288204669952, -0.10632384568452835, 0.11080858111381531, 0.02714446932077408, 
    -0.03461649268865585, -0.1229136511683464, 0.06746720522642136, -0.10561972111463547, 
    0.014599279500544071, 0.0634860023856163, 0.005122813396155834, -0.10616136342287064, 
    0.12917663156986237, -0.04936166852712631, -0.16615545749664307, -0.05066364258527756, 
    0.039658740162849426, -0.07098864763975143, 0.0029107925947755575, -0.009712014347314835, 
    -0.017557572573423386, -0.04420197382569313, 0.003969998098909855, -0.10800287872552872, 
    0.03548445925116539, -0.08003272861242294, -0.06327579915523529, -0.08210861682891846, 
    0.0527757965028286, -0.09341337531805038, -0.048600804060697556, -0.045101165771484375, 
    0.04854564368724823, 0.006050324533134699, 0.03213467076420784, -0.012331712059676647, 
    0.03149843588471413, 0.07923989742994308, 0.006653827149420977, -0.07552759349346161, 
    0.20943377912044525, -0.017040599137544632, -0.083733469247818, -0.08684325963258743, 
    -0.10115847736597061, -0.13919784128665924, 0.001360531197860837, -0.12972894310951233, 
    0.16311244666576385, -0.08270750194787979, -0.08157626539468765, -0.10937304049730301, 
    -0.04667491838335991, 0.07484325021505356, -0.22415217757225037, -0.1759721040725708, 
    0.10916909575462341, 0.1128036379814148, -0.10053654760122299, -0.08503740280866623, 
    -0.0767335593700409, 0.04342896118760109, 0.09672088176012039, -0.002340336563065648, 
    0.13714434206485748, -0.03286520019173622, -0.11394529789686203, -0.058850016444921494, 
    -0.17998698353767395, 0.05679253488779068, -0.16143545508384705, -0.048415981233119965, 
    0.12355170398950577, 0.16815200448036194, -0.1177922785282135, -0.023920847102999687, 
    -0.006852551829069853, 0.05012926831841469, 0.15563327074050903, 0.06047436222434044, 
    -0.05912529677152634, -0.05481298267841339, -0.021013984456658363, 0.070807546377182, 
    -0.12617911398410797, -0.0380931980907917, -0.05037514120340347, -0.03340977430343628, 
    0.10039984434843063, 0.19147220253944397, -0.015831680968403816, -0.048192039132118225, 
    0.14348705112934113, -0.013959740288555622, 0.07537955045700073, -0.009994031861424446, 
    0.053527891635894775, 0.0519290417432785, 0.10514526814222336, 0.12925679981708527, 
    -0.11392239481210709, 0.08982396870851517, -0.08587358891963959, 0.02528849057853222, 
    0.07164141535758972, 0.28633973002433777, 0.02024058811366558, 0.016672546043992043, 
    0.3443129062652588, 0.09609989821910858, 0.025886600837111473, 0.020771021023392677, 
    0.029945937916636467, 0.03880823776125908, 0.04278062656521797, 0.12819094955921173, 
    0.03827880695462227, 0.1260487586259842, 0.079200878739357, 0.02257177047431469, 
    0.05472804233431816, 0.0938272550702095, 0.0063513885252177715, 0.03377627953886986, 
    0.19545574486255646, -0.05329542234539986, -0.06664278358221054, -0.011686637997627258, 
    -0.022655369713902473, 0.048388902097940445, 0.030119486153125763, 0.0344436839222908, 
    0.05861443653702736, 0.1538030505180359, 0.06954338401556015, -0.0035308324731886387, 
    0.1816103160381317, 0.23102544248104095, -0.11405881494283676, 0.021095026284456253, 
    0.2198571264743805, -0.0172392837703228, 0.023961711674928665, 0.008615126833319664, 
    0.17293179035186768, 0.0012690960429608822, 0.11317570507526398, 0.11978971213102341, 
    0.013219608925282955, 0.13241851329803467, 0.11566083133220673, 0.018913419917225838, 
    0.092732734978199, 0.24912191927433014, -0.09124517440795898, 0.10130119323730469, 
    0.18199357390403748, 0.13634133338928223, 0.08361220359802246, 0.055460065603256226, 
    -0.0803184062242508, 0.029691284522414207, -0.2302984893321991, 0.05863422900438309, 
    0.0440346822142601, 0.177595853805542, 0.08769357204437256, 0.09170381724834442, 
    0.15418431162834167, 0.16559605300426483, 0.018951918929815292, 0.04584263265132904, 
    0.052174702286720276, 0.06193170323967934, 0.08913087099790573, 0.06065412983298302, 
    0.005996627267450094, 0.022037941962480545, 0.029595905914902687, 0.15157103538513184, 
    0.06599804759025574, -0.11389978975057602, -0.2900356352329254, 0.07607654482126236, 
    -0.09070803970098495, -0.09312689304351807, 0.03243222087621689, -0.021726857870817184, 
    -0.17947208881378174, 0.05258066579699516, -0.057313740253448486, 0.010998740792274475, 
    0.017205320298671722, -0.0062518795020878315, 0.01612730324268341, 0.12145886570215225, 
    -0.01403904054313898, -0.03360234200954437, -0.035965561866760254, 0.01207992434501648, 
    -0.11012111604213715, -0.23816384375095367, 0.04589458927512169, 0.03940445929765701, 
    -0.20163309574127197, -0.004068102687597275, 0.0033254020381718874, 0.048162780702114105, 
    -0.11936656385660172, 0.0430939607322216, -0.03491150960326195, 0.1035204827785492, 
    -0.13067014515399933, -0.08271481841802597, 0.10750862210988998, 0.01496285293251276, 
    0.018525876104831696, -0.06496623158454895, -0.004411356057971716, 0.04462052509188652, 
    -0.0928453877568245, 0.010260910727083683, -0.08380724489688873, 0.001681084861047566, 
    0.024065319448709488, -0.017728492617607117, 0.011454042047262192, -0.002872032579034567, 
    -0.04871018975973129, 0.016420511528849602, -0.06780356913805008, -0.001700491295196116, 
    0.095364049077034, 0.06768689304590225, -0.012439853511750698, -0.07651966065168381, 
    0.04498796910047531, -0.07851845771074295, -0.145573690533638, 0.03395611792802811, 
    0.12327077984809875, 0.012669959105551243, 0.08798874914646149, 0.015985799953341484, 
    0.010856273584067822, 0.057965394109487534, -0.06021728739142418, -0.019636815413832664, 
    0.09104367345571518, -0.004653876647353172, -0.17576180398464203, -0.09095524251461029, 
    0.08912010490894318, -0.1367284655570984, -0.08062812685966492, -0.050790924578905106, 
    0.1683848798274994, -0.012713351286947727, 0.2268199473619461, 0.15077121555805206, 
    -0.001408220618031919, 0.023659128695726395, 0.024294598028063774, -0.07389918714761734, 
    -0.018432708457112312, -0.0651434063911438, 0.003243529936298728, -0.031280517578125, 
    0.02046787180006504, 0.0027968415524810553, -0.03210184723138809, 0.04362368956208229, 
    -0.03176659718155861, 0.0018772196490317583, -0.06304208189249039, -0.022678349167108536, 
    0.018189743161201477, -0.028242871165275574, -0.06612691283226013, 0.02806367166340351, 
    0.06886163353919983, 0.0710812509059906, 0.01631723903119564, -0.05201336368918419, 
    -0.0174420066177845, 0.08844156563282013, 0.0723831057548523, 0.0976865291595459, 
    0.18384666740894318, -0.06702655553817749, 0.00648610619828105, 0.054193031042814255, 
    -0.009300152771174908, -0.07000519335269928, 0.015870941802859306, 0.0526464506983757, 
    -0.00445935083553195, 0.15804390609264374, 0.006705013569444418, 0.05023766681551933, 
    -0.20274300873279572, 0.054069314152002335, 0.1355932354927063, 0.08491784334182739, 
    -0.052242498844861984, -0.012051140889525414, -0.06301306933164597, 0.01878366433084011, 
    -0.0008335519232787192, -0.07489313185214996, -0.03173728659749031, -0.0014621858717873693, 
    -0.10947291553020477, 0.26141059398651123, 0.04649220407009125, 0.03363385424017906, 
    -0.1253882348537445, 0.13083429634571075, 0.14985720813274384, 0.14260278642177582, 
    -0.04539428651332855, 0.00013439173926599324, 0.08277511596679688, 0.06231148540973663, 
    -0.064986951649189, -0.12307751923799515, -0.0843605250120163, -0.036212433129549026, 
    -0.03992624953389168, 0.11779632419347763, 0.13401097059249878, -0.054314929991960526, 
    -0.19719663262367249, 0.07039304077625275, -0.03522363305091858, 0.10276633501052856, 
    0.06570844352245331, 0.029902838170528412, 0.07708883285522461, -0.08239981532096863, 
    0.08233868330717087, 0.005894744303077459, -0.07477278262376785, 0.04621401056647301, 
    0.022694731131196022, -0.03535756468772888, 0.048491764813661575, -0.015267583541572094, 
    -0.0023436537012457848, 0.02591628208756447, -0.052400633692741394, 0.03963400423526764, 
    0.04784763976931572, -0.054696064442396164, 0.11264713108539581, -0.16930843889713287, 
    -0.04480297490954399, 0.0179870817810297, -0.043646153062582016, -0.02949545346200466, 
    0.11737266927957535, -0.04479219391942024, -0.06329383701086044, -0.022711165249347687, 
    -0.1373397707939148, 0.029107075184583664, 0.07602321356534958, 0.02325492352247238, 
    0.1672222763299942, -0.0266756322234869, -0.06896128505468369, -0.13416820764541626, 
    -0.032104067504405975, -0.04117848351597786, -0.13621318340301514, -0.0016550077125430107, 
    0.07456401735544205, 0.1185867115855217, -0.07806619256734848, -0.06226116046309471, 
    -0.2957032322883606, 0.031181976199150085, 0.12334011495113373, 0.06603799015283585, 
    0.09818756580352783, 0.022331666201353073, -0.07198018580675125, -0.06942308694124222, 
    0.06838372349739075, 0.009428952820599079, -0.009506210684776306, 0.09684467315673828, 
    0.10652156174182892, 0.08695272356271744, -0.01433921605348587, -0.042322661727666855, 
    -0.20325300097465515, 0.014809888787567616, 0.00028761420981027186, 0.0745464637875557, 
    0.012487716972827911, 0.041469231247901917, -0.19596411287784576, -0.04977874457836151, 
    0.1149049699306488, 0.17865623533725739, 0.050879158079624176, 0.06260247528553009, 
    0.06194332242012024, 0.08724518120288849, 0.1271430253982544, 0.03784582018852234, 
    -0.08638761192560196, -0.02127976156771183, -0.0754934549331665, -0.047946903854608536, 
    -0.059564296156167984, -0.03818957507610321, -0.08913256227970123, -0.02585122361779213, 
    0.06041131913661957, 0.04942777007818222, -0.05746794864535332, 0.012278406880795956, 
    -0.06784892827272415, 0.03205886110663414, -0.046602945774793625, -0.03172754496335983, 
    -0.02405466139316559, -0.06370460242033005, -0.11620467156171799, -0.08001836389303207, 
    -0.06917990744113922, 0.023030761629343033, -0.06300627440214157, -0.1258799284696579, 
    -0.07112114876508713, 0.0041828700341284275, -0.03732224553823471, 0.012262078933417797, 
    0.012652194127440453, -0.07714226096868515, -0.06100790202617645, -0.005517830606549978, 
    0.10872052609920502, -0.06926970183849335, 0.029300792142748833, -0.088846355676651, 
    -0.026443371549248695, 0.04665110260248184, -0.019188987091183662, 0.09916945546865463, 
    -0.03753511235117912, 0.002475416986271739, 0.15402133762836456, -0.022652409970760345, 
    -0.02334093488752842, 0.015748508274555206, -0.057287707924842834, 0.005386747419834137, 
    -0.0901089459657669, -0.001488812267780304, -0.06452392786741257, -0.06674786657094955, 
    -0.0008858317160047591, 0.113375224173069, -0.07284361124038696, 0.057534050196409225, 
    0.11027631908655167, 0.055855777114629745, 0.02618657797574997, 0.054590824991464615, 
    0.07824509590864182, -0.0025137332268059254, -0.06064429506659508, 0.050211645662784576, 
    -0.0074347215704619884, -0.12763303518295288, -0.048249609768390656, -0.10401979088783264, 
    -0.0683063492178917, -0.06997766345739365, -0.15585102140903473, -0.12526598572731018, 
    0.011739972047507763, -0.08498864620923996, -0.07012385874986649, -0.042232904583215714, 
    0.010729566216468811, -0.03602831810712814, -0.013087967410683632, -0.01650427281856537, 
    -0.04193231463432312, -0.05176372081041336, 0.08537919074296951, -0.11411475390195847, 
    0.13153871893882751, -0.07180630415678024, -0.05167914181947708, -0.058144353330135345, 
    0.020373890176415443, 0.0061669424176216125, -0.09712336212396622, 0.057126790285110474, 
    0.07665544748306274, -0.07012680172920227, -0.005466326605528593, -0.04550468549132347, 
    -0.03368192911148071, 0.024222437292337418, 0.12823116779327393, 0.027861084789037704, 
    0.09958383440971375, -0.026136238127946854, -0.03251487761735916, 0.009433137252926826, 
    -0.1066482663154602, -0.019590003415942192, -0.07939626276493073, -0.002423912985250354, 
    0.00030847531161271036, 0.031880009919404984, 0.013294623233377934, 0.023677045479416847, 
    -0.07805909961462021, 0.06078711897134781, 0.23898975551128387, 0.013145575299859047, 
    0.05499017983675003, 0.021430134773254395, -0.019808171316981316, 0.09711619466543198, 
    -0.07941505312919617, 0.012786214239895344, -0.01960844360291958, 0.14727237820625305, 
    -0.045440200716257095, 0.06755482405424118, 0.03844313323497772, 0.1279049664735794, 
    0.03830546885728836, 0.07533404976129532, 0.2552066147327423, 0.09792546927928925, 
    -0.1143529936671257, 0.1598343402147293, -0.0023168185725808144, 0.11996286362409592, 
    0.1256505399942398, 0.16205786168575287, 0.055775560438632965, 0.10198881477117538, 
    0.07062532007694244, 0.09360181540250778, 0.0586061030626297, 0.16015484929084778, 
    -0.0076936595141887665, 0.05004642531275749, 0.0639415979385376, 0.021654687821865082, 
    0.06103673577308655, 0.07879108935594559, 0.04411211982369423, -0.01215356681495905, 
    0.09080231189727783, 0.11343035846948624, 0.07725445181131363, 0.031109869480133057, 
    0.18690772354602814, -0.025474490597844124, -0.0850474014878273, 0.07944010943174362, 
    -0.017843689769506454, -0.05283920094370842, 0.006360754836350679, -0.03190283104777336, 
    0.17463330924510956, 0.06026672571897507, 0.005326136015355587, -0.03259504958987236, 
    0.12756001949310303, 0.09779863059520721, 0.03263762220740318, 0.03191351890563965, 
    0.043485019356012344, -0.02949339710175991, -0.05376390740275383, 0.034418366849422455, 
    -0.02755667455494404, -0.13462874293327332, 0.15444093942642212, -0.14085008203983307, 
    0.09216884523630142, 0.0354851633310318, -0.08626639097929001, 0.08804676681756973, 
    -0.047811876982450485, 0.017595764249563217, 0.057775791734457016, -0.0317566879093647, 
    0.09964904189109802, -0.004770413972437382, -0.016805727034807205, -0.00013666813902091235, 
    -0.0772835910320282, -0.0012671760050579906, 0.12499561160802841, -0.021621953696012497, 
    -0.01939741149544716, 0.07163023203611374, -0.13816231489181519, 0.04446922615170479, 
    0.03414551541209221, 0.08536920696496964, 0.09463990479707718, 0.003732208861038089, 
    0.02915312349796295, -0.06200306490063667, 0.044242795556783676, 0.05745501071214676, 
    -0.06459211558103561, -0.0942336767911911, 0.010510009713470936, -0.029883911833167076, 
    -0.009595080278813839, 0.08513310551643372, -0.14036095142364502, -0.032070934772491455, 
    0.016177253797650337, 0.09768731147050858, 0.1304675042629242, -0.03270798176527023, 
    0.05127169191837311, 0.041287682950496674, 0.06544754654169083, -0.0036102854646742344, 
    -0.09386668354272842, -0.05396530032157898, -0.19518651068210602, -0.01877632364630699, 
    -0.01954600401222706, -0.06722245365381241, -0.01733282580971718, 0.04398888722062111, 
    0.02857242152094841, -0.13332082331180573, 0.024018799886107445, -0.06750863045454025, 
    0.0007234943332150578, -0.025002403184771538, -0.04596005007624626, -0.12843219935894012, 
    0.1196613535284996, -0.11615581065416336, -0.19035370647907257, -0.01730223000049591, 
    0.0313870832324028, -0.1046309545636177, 0.09163941442966461, -0.09061913937330246, 
    0.027515970170497894, 0.05380645766854286, -0.1443597674369812, 0.032171137630939484, 
    -0.061104342341423035, -0.23005644977092743, -0.1425713449716568, -0.08906053751707077, 
    -0.027429774403572083, -0.1727966070175171, -0.08322014659643173, -0.14925852417945862, 
    0.1134895458817482, -0.03304778411984444, 0.09015117585659027, -0.023518875241279602, 
    -0.09296679496765137, 0.03978731483221054, -0.05823095142841339, -0.052652448415756226, 
    -0.02404237911105156, -0.011735472828149796, -0.057901531457901, -0.0764557346701622, 
    -0.09694856405258179, -0.10049543529748917, -0.1103232130408287, 0.004647573921829462, 
    -0.10374633222818375, -0.06648513674736023, -0.07127080857753754, -0.08946447819471359, 
    0.05725972726941109, 0.10626298189163208, 0.09693918377161026, -0.04087979719042778, 
    0.022034456953406334, -0.2151535600423813, -0.12340202182531357, 0.019127054139971733, 
    0.020319415256381035, -0.10189566016197205, -0.10491635650396347, -0.12911082804203033, 
    -0.009552435018122196, -0.03212860971689224, -0.09564954042434692, 0.07347497344017029, 
    -0.08483505249023438, -0.05755942314863205, -0.05598908290266991, -0.030117765069007874, 
    -0.04544420540332794, -0.18685628473758698, -0.1353262960910797, 0.006410727743059397, 
    -0.1277892291545868, -0.04790082573890686, 0.0397983193397522, -0.04156142473220825, 
    0.05050495266914368, -0.027198368683457375, -0.17465990781784058, -0.010812846012413502, 
    -0.24465666711330414, -0.09449301660060883, -0.003056643297895789, 0.01670890673995018, 
    -0.0376424565911293, -0.10040701180696487, -0.0010351563105359674, 0.027577649801969528, 
    -0.2000754326581955, 0.01581668294966221, 0.1598086655139923, 0.022294005379080772, 
    0.001833152724429965, 0.035668984055519104, -0.1658339500427246, 0.16009633243083954, 
    -0.04922614246606827, -0.13332346081733704, 0.00889351312071085, -0.050800178200006485, 
    -0.24542935192584991, -0.03852314129471779, -0.015909668058156967, 0.0314323753118515, 
    -0.09206174314022064, 0.08467450737953186, 0.12506425380706787, 0.013577841222286224, 
    -0.04763033241033554, 0.008924414403736591, -0.18571723997592926, 0.08003047108650208, 
    -0.0044880216009914875, -0.004035713616758585, -0.06794315576553345, -0.02052125334739685, 
    -0.023015810176730156, -0.1704329550266266, 0.002813831204548478, 0.10004211217164993, 
    -0.1901223361492157, 0.0767887756228447, 0.1445656418800354, 0.07061641663312912, 
    -0.11065018177032471, 0.0014174346579238772, -0.05950162932276726, -0.007078792899847031, 
    0.16474878787994385, -0.017470423132181168, 0.02417813427746296, 0.015288027003407478, 
    0.030209777876734734, -0.0039349934086203575, 0.0006377450772561133, -0.02030061185359955, 
    -0.11130779981613159, 0.005212859250605106, -0.05766022950410843, 0.02415171079337597, 
    -0.0009735262719914317, 0.020574619993567467, 0.008186588995158672, -0.15483559668064117, 
    -0.008461086079478264, -0.02829187549650669, 0.07338165491819382, 0.028723936527967453, 
    -0.010981307365000248, -0.053178995847702026, -0.08166676759719849, -0.10462173819541931, 
    -0.12459868937730789, -0.08790437877178192, -0.011722720228135586, -0.045836757868528366, 
    0.06709641963243484, -0.09408020228147507, -0.02356082759797573, -0.10876733809709549, 
    0.0013912455178797245, -0.046911172568798065, 0.020901566371321678, -0.10641378909349442, 
    0.08876074105501175, -0.02233545109629631, -0.028774496167898178, -0.10570019483566284, 
    0.09094400703907013, -0.06241433322429657, 0.030160022899508476, -0.05715116858482361, 
    0.08136908710002899, -0.09588534384965897, 0.03552476689219475, -0.16760730743408203, 
    -0.08557628095149994, -0.17712238430976868, -0.15401524305343628, -0.0780571699142456, 
    -0.09441590309143066, 0.07435452938079834, -0.04644227772951126, -0.10380547493696213, 
    0.014026030898094177, 0.12096723914146423, -0.032899487763643265, 0.010988554917275906, 
    0.05502988398075104, 0.034034233540296555, 0.014279181137681007, -0.19896924495697021, 
    0.18724337220191956, -0.12232709676027298, -0.08214810490608215, -0.06096673011779785, 
    -0.0318298414349556, -0.10639118403196335, 0.008622059598565102, 0.036744385957717896, 
    0.05856258422136307, 0.03814053535461426, -0.11793714016675949, -0.03727133572101593, 
    0.03471461310982704, 0.030848590657114983, -0.07593042403459549, -0.25467270612716675, 
    0.07753882557153702, -0.004820607136934996, 0.03516140952706337, 0.0027543173637241125, 
    -0.0383443646132946, 0.10941678285598755, -0.02202996052801609, 0.09800051152706146, 
    -0.1497228890657425, 0.0669361874461174, 0.13878092169761658, -0.018744444474577904, 
    0.003557332791388035, -0.0006726211286149919, -0.10023032128810883, 0.06988823413848877, 
    0.045045193284749985, -0.03647533431649208, 0.09000496566295624, 0.06468357890844345, 
    -0.009342744015157223, -0.06564638763666153, -0.007965043187141418, -0.05346193164587021, 
    -0.03218225762248039, -0.06840924918651581, 0.05073774978518486, -0.061781205236911774, 
    -0.12638455629348755, -0.027605535462498665, 0.03287484496831894, 0.18287940323352814, 
    -0.01350895594805479, -0.026048030704259872, 0.023560848087072372, 0.051274169236421585, 
    0.11011941730976105, -0.2042752057313919, -0.11662282794713974, -0.11567637324333191, 
    0.03261363133788109, -0.1240098625421524, -0.0685650035738945, -0.028344769030809402, 
    0.2022589147090912, -0.05861853063106537, 0.00604848051443696, 0.41018038988113403, 
    -0.04983440414071083, -0.048975057899951935, -0.07983406633138657, -0.08602596074342728, 
    -0.040806353092193604, -0.030536580830812454, -0.13078491389751434, -0.1253635585308075, 
    -0.07720339298248291, -0.04875733330845833, -0.00773064186796546, -0.04806498438119888, 
    0.023441815748810768, -0.07095308601856232, 0.010530413128435612, -0.10796547681093216, 
    -0.09124178439378738, -0.06615129858255386, -0.04638771712779999, -0.13162001967430115, 
    0.006641646381467581, -0.06501488387584686, -0.009990811347961426, -0.16942274570465088, 
    0.06960120052099228, -0.1354253590106964, 0.11217799782752991, -0.07886248081922531, 
    -0.036037907004356384, -0.08958201855421066, 0.07846954464912415, -0.12138509750366211, 
    -0.007906490936875343, -0.09313160926103592, -0.08312299847602844, -0.1248035803437233, 
    0.03540929779410362, -0.17442753911018372, -0.09158208221197128, -0.10011041164398193, 
    0.03217383474111557, -0.04795009642839432, 0.10326097905635834, -0.08855998516082764, 
    0.12507984042167664, -0.07692801207304001, 0.0016468050889670849, -0.028832165524363518, 
    -0.3041798770427704, -0.09942591935396194, -0.12136224657297134, -0.11129315942525864, 
    -0.15901342034339905, -0.024539537727832794, -0.04399998113512993, -0.06237029284238815, 
    -0.1559239774942398, 0.050698574632406235, 0.2753521502017975, 0.020889168605208397, 
    -0.18782466650009155, 0.033867835998535156, -0.13469070196151733, 0.15802016854286194, 
    -0.08844669908285141, -0.04664254188537598, 0.002960598561912775, -0.05351100116968155, 
    -0.16647964715957642, -0.02445988729596138, 0.004328805021941662, -0.006003364454954863, 
    -0.17409373819828033, -0.021032491698861122, 0.22614522278308868, -0.016969608142971992, 
    -0.35834378004074097, 0.025564927607774734, -0.11664412170648575, 0.060195423662662506, 
    0.017296407371759415, -0.003868777072057128, -0.01293801050633192, -0.015514926984906197, 
    -0.016366636380553246, -0.07005593180656433, 0.10017909109592438, -0.041908491402864456, 
    0.008920105174183846, 0.03741560876369476, 0.06567180156707764, 0.022447366267442703, 
    -0.20828256011009216, 0.036087919026613235, 0.02831963635981083, -0.012667165137827396, 
    0.055907320231199265, 0.16773663461208344, 0.012130998075008392, -0.025362825021147728, 
    -0.023387573659420013, -0.010716727003455162, 0.03240114450454712, -0.03487065061926842, 
    -0.07546063512563705, -0.0035652548540383577, -0.07103601098060608, 0.005060768686234951, 
    -0.1644379198551178, -0.028493274003267288, -0.03869472071528435, -0.047049567103385925, 
    -0.05758233740925789, 0.013156146742403507, 0.10296078026294708, -0.0830870047211647, 
    -0.14863629639148712, -0.002737832721322775, -0.0011540588457137346, 0.010951360687613487, 
    -0.008072474040091038, -0.012469377368688583, -0.03677746281027794, 0.020301921293139458, 
    -0.2568098306655884, -0.07382501661777496, -0.06216873601078987, -0.036871861666440964, 
    -0.03729741647839546, -7.525066030211747e-05, -0.09242704510688782, -0.02102629467844963, 
    -0.035809583961963654, 0.14413173496723175, -0.03765276446938515, -0.07726434618234634, 
    0.06518800556659698, -0.005169161129742861, 0.012568662874400616, -0.0460696667432785, 
    -0.1075206845998764, -0.0019298181869089603, 0.0578942708671093, 0.12039529532194138, 
    -0.022719770669937134, 0.0006245067343115807, -0.04677489027380943, -0.06563027203083038, 
    -0.06131124123930931, 0.06996157020330429, 0.075083889067173, -0.02342062257230282, 
    0.022303497418761253, 0.09484861046075821, 0.10091123729944229, 0.0648222416639328, 
    -0.043111056089401245, -0.026985054835677147, 0.1378510594367981, 0.09344543516635895, 
    0.11915743350982666, 0.06912317872047424, -0.021094612777233124, -0.011254399083554745, 
    0.12509766221046448, 0.04335973411798477, -0.03355220705270767, -0.023109903559088707, 
    0.06243307888507843, -0.07378283143043518, 0.06662613898515701, -0.02039184793829918, 
    -0.006141477730125189, -0.0345684252679348, 0.08169461786746979, -0.06885171681642532, 
    -0.010054104030132294, -0.14353255927562714, 0.03287774696946144, 0.03133811429142952, 
    0.09730818122625351, -0.0657103955745697, -0.03941267728805542, -0.0020251658279448748, 
    -0.16815918684005737, -0.0026790453121066093, -0.03892270475625992, 0.03660624101758003, 
    0.015882305800914764, 0.05352640897035599, -0.058672916144132614, 0.07408446073532104, 
    0.005221739877015352, -0.022721730172634125, 0.01547152828425169, 0.054809242486953735, 
    -0.04003273695707321, 0.03636995702981949, 0.0492456890642643, 0.03175298497080803, 
    -0.01974617689847946, -0.05934501439332962, 0.11053656041622162, -0.014642159454524517, 
    -0.16101008653640747, 0.01319330744445324, -0.006257456261664629, 0.07479459792375565, 
    -0.08832929283380508, -0.12217068672180176, -0.025222523137927055, 0.026312684640288353, 
    -0.001366067910566926, -0.163688525557518, -0.022937102243304253, -0.046885889023542404, 
    0.03442344442009926, -0.034467991441488266, 0.046634044498205185, -0.06998682767152786, 
    0.12113045156002045, -0.008262397721409798, 0.1093173697590828, 0.11138278245925903, 
    -0.010927621275186539, -0.02126864343881607, -0.07929276674985886, -0.06064322590827942, 
    0.04538444057106972, -0.14413239061832428, -0.09406860917806625, -0.07218945026397705, 
    0.039465922862291336, -0.06554171442985535, 0.055798567831516266, -0.07957538217306137, 
    0.09525126218795776, -0.10270565748214722, 0.11955536156892776, 0.007681508082896471, 
    0.013516142033040524, -0.004494371823966503, -0.0098582087084651, -0.07506253570318222, 
    -0.005788501817733049, -0.19969239830970764, -0.15774132311344147, -0.08917735517024994, 
    -0.018143989145755768, -0.15014208853244781, -0.01867729239165783, -0.08400683104991913, 
    0.02780967205762863, -0.032826803624629974, 0.07220560312271118, -0.07901874929666519, 
    -0.0618855357170105, -0.011020561680197716, -0.10626814514398575, -0.031725168228149414, 
    -0.006866751704365015, -0.08753006905317307, -0.134829580783844, -0.13929907977581024, 
    -0.008810258470475674, -0.036026835441589355, 0.20022697746753693, -0.09516573697328568, 
    0.18024952709674835, -0.0985398143529892, -0.0875520259141922, 0.08601385354995728, 
    -0.10354673117399216, -0.18510442972183228, -0.22974196076393127, -0.013363405130803585, 
    -0.22148063778877258, 0.026617126539349556, -0.08591119199991226, -0.08414880931377411, 
    -0.02780737169086933, 0.04234045371413231, 0.253353089094162, 0.0033753705210983753, 
    -0.16589167714118958, -0.05045122653245926, -0.04774533957242966, 0.2766959071159363, 
    -0.05383767932653427, 0.036825209856033325, -0.004330159164965153, -0.029468804597854614, 
    -0.16093133389949799, -0.010208597406744957, 0.04112168774008751, 0.023471644148230553, 
    0.052383482456207275, 0.01441790908575058, 0.20781247317790985, 0.045159388333559036, 
    -0.3044077455997467, 0.03265819326043129, -0.0910961702466011, 0.05177897959947586, 
    0.046388767659664154, 0.04432263597846031, 0.029941465705633163, -0.0011666450882330537, 
    -0.04645586386322975, -0.018913693726062775, 0.04742296412587166, 0.04832688346505165, 
    -0.17475026845932007, 0.0036396877840161324, 0.07147611677646637, 0.020407015457749367, 
    -0.11358661949634552, 0.0037877708673477173, -0.1183554083108902, 0.053285881876945496, 
    0.1047862321138382, 0.03112752176821232, -0.028273295611143112, 0.007236318662762642, 
    0.004827307071536779, 0.03773564100265503, 0.0920310989022255, 0.03734027221798897, 
    -0.07950721681118011, 0.11639178544282913, -0.10890396684408188, 0.12365154176950455, 
    -0.13426809012889862, -0.011539262719452381, -0.18271806836128235, -0.1236395463347435, 
    -0.03394824266433716, -0.02288760617375374, -0.04677077382802963, -0.05565013363957405, 
    -0.23186911642551422, -0.03438319265842438, 0.08630310744047165, -0.02236807532608509, 
    0.053875893354415894, 0.07788141816854477, -0.07001189887523651, 0.024478308856487274, 
    -0.13431477546691895, 0.04619508236646652, -0.09301060438156128, -0.057299576699733734, 
    0.02412579022347927, 0.0246342271566391, -0.038834553211927414, -0.04893484339118004, 
    -0.02258957363665104, -0.017019672319293022, -0.014819818548858166, 0.06412301957607269, 
    -0.07791019231081009, 0.08953382074832916, 0.10188084840774536, 0.013448587618768215, 
    -0.14106661081314087, -0.008913769386708736, -0.03223885968327522, 0.08425836265087128, 
    0.018401650711894035, 0.11492972075939178, 0.03467710316181183, 0.022668495774269104, 
    -0.049202810972929, 0.0060622720047831535, 0.07461437582969666, 0.033770058304071426, 
    -0.17834287881851196, 0.021172787994146347, 0.05319969728589058, 0.08510482311248779, 
    -0.016755912452936172, 0.02947995811700821, -0.05915287509560585, 0.10880984365940094, 
    0.10929103940725327, 0.024848323315382004, 0.04421849176287651, 0.025828570127487183, 
    0.10510119795799255, -0.08635047823190689, -0.07656015455722809, -0.017932066693902016, 
    -0.02053861692547798, -0.05164835602045059, -0.02498541958630085, 0.022394467145204544, 
    -0.05392667278647423, 0.042168907821178436, -0.003319529350847006, -0.00586320785805583, 
    0.050951410084962845, 0.01924433559179306, -0.10877609252929688, 0.03483118489384651, 
    -0.06617645919322968, 0.1263417899608612, -0.04115486890077591, 0.0065447199158370495, 
    -0.01582580991089344, -0.08639457076787949, -0.04437418282032013, -0.04754485934972763, 
    -0.07385120540857315, 0.0031231308821588755, -0.013195016421377659, 0.07557076960802078, 
    -0.05928151682019234, 0.06266874074935913, 0.1391529142856598, -0.06526797264814377, 
    -0.10876362770795822, -0.014548365958034992, -0.017669053748250008, 0.016223276033997536, 
    -0.12778103351593018, -0.04014642909169197, 0.0063234176486730576, -0.007749715354293585, 
    -0.07199103385210037, -0.006552658975124359, -0.005475506652146578, -0.004960996098816395, 
    -0.07554719597101212, -0.05506885424256325, 0.04501314088702202, 0.014067530632019043, 
    0.08505523204803467, -0.07090315222740173, -0.08658285439014435, -0.07004094123840332, 
    -0.08975038677453995, -0.035416338592767715, 0.061244186013936996, -0.022499987855553627, 
    0.09581520408391953, -0.038460489362478256, 0.09723812341690063, 0.13156834244728088, 
    0.0383392758667469, 0.07383983582258224, 0.0030077858828008175, -0.05552157759666443, 
    0.05594584718346596, -0.10106326639652252, -0.04754549637436867, -0.005031493026763201, 
    -0.009635519236326218, -0.06239774078130722, 0.26576733589172363, -0.012344665825366974, 
    0.05621301382780075, 0.03377373144030571, -0.009310277178883553, 0.06067359074950218, 
    -0.033215899020433426, 0.14397788047790527, 0.019762903451919556, -0.018815161660313606, 
    0.13476696610450745, 0.06807468086481094, -0.05505523085594177, -0.1230148896574974, 
    -0.004931067116558552, -0.12432021647691727, 0.1605333536863327, -0.044387295842170715, 
    0.04860726743936539, -0.14334502816200256, 0.03960878774523735, 0.07247215509414673, 
    -0.07823667675256729, 0.004369422327727079, -0.03827844560146332, -0.079472117125988, 
    0.10658188164234161, -0.04780823737382889, -0.10926330089569092, -0.06705716997385025, 
    0.1135401502251625, -0.07833274453878403, 0.1397107094526291, -0.1307211071252823, 
    0.13467171788215637, -0.15423926711082458, 0.07608060538768768, 0.12280619144439697, 
    -0.06258732080459595, -0.06389489769935608, -0.22175933420658112, -0.059180665761232376, 
    -0.027217041701078415, -0.053055088967084885, -0.032022133469581604, -0.030129630118608475, 
    -0.12118180096149445, 0.02695915289223194, 0.1821296662092209, -0.033219996839761734, 
    0.049602579325437546, -0.04565559700131416, 0.06483058631420135, 0.026147708296775818, 
    -0.035066165030002594, -0.16167059540748596, -0.1750027984380722, -0.02093004621565342, 
    -0.0884503647685051, -0.061742108315229416, 0.04267381131649017, -0.05934345722198486, 
    -0.2380952090024948, -0.06672371923923492, 0.2216586023569107, -0.005961849354207516, 
    -0.18213291466236115, -0.004855097271502018, -0.12250518053770065, -0.0033966158516705036, 
    -0.01636269874870777, 0.04208805784583092, -0.04523784667253494, 0.02432972565293312, 
    0.04105910286307335, 0.044055767357349396, -0.029506556689739227, 0.011244213208556175, 
    -0.27950412034988403, 0.11261731386184692, 0.07259146869182587, 0.06659478694200516, 
    -0.05662599951028824, -0.04141555726528168, -0.06537658721208572, 0.024027494713664055, 
    -0.020989587530493736, -0.021230224519968033, -0.03389545902609825, -0.03592704236507416, 
    0.023372765630483627, -0.16741852462291718, 0.045729268342256546, 0.05692125856876373, 
    -0.18351837992668152, 0.0981701910495758, -0.08864477276802063, 0.04526931792497635, 
    0.016415975987911224, -0.00290456460788846, -0.0064178211614489555, -0.07717985659837723, 
    0.06527973711490631, -0.00024461859720759094, 0.02306893840432167, 0.08520768582820892, 
    -0.14033450186252594, 0.004273922648280859, 0.017017800360918045, 0.017869584262371063, 
    -0.13008719682693481, 0.008700172416865826, -0.03939672186970711, 0.041884344071149826, 
    -0.13792802393436432, 0.053838130086660385, -0.11065128445625305, -0.08779197931289673, 
    0.04605469852685928, 0.11787107586860657, 0.07568508386611938, 0.012756734155118465, 
    -0.052071068435907364, -0.0921882688999176, 0.032018374651670456, 0.05693308264017105, 
    -0.04165146127343178, -0.03080790676176548, -0.07772649079561234, -0.031909048557281494, 
    -0.08500329405069351, 0.006260873284190893, -0.10097354650497437, -0.029470017179846764, 
    0.03901363164186478, 0.047236666083335876, 0.08634932339191437, 0.027636125683784485, 
    0.020997056737542152, -0.01676286570727825, 0.01698773168027401, -0.0193715188652277, 
    -0.09257373213768005, 0.02696688286960125, 0.094044528901577, -0.04186606779694557, 
    -0.13498559594154358, 0.06317321211099625, -0.03782406076788902, -0.04891372099518776, 
    0.030645372346043587, 0.05331486463546753, 0.04536813870072365, 0.024643059819936752, 
    0.06955438107252121, -0.08079126477241516, -0.039496250450611115, -0.024841153994202614, 
    -0.1722942441701889, -0.03239622339606285, 0.045631323009729385, -0.0044093444012105465, 
    0.056449342519044876, 0.022570844739675522, -0.190761998295784, -0.10567229241132736, 
    0.0514419823884964, 0.0703168511390686, -0.04973196983337402, -0.0030581720639020205, 
    -0.04312003031373024, 0.010244857519865036, -0.06627470999956131, -0.002709725871682167, 
    -0.21881066262722015, -0.0032131122425198555, -0.029911119490861893, -0.04470958188176155, 
    -0.0366966649889946, -0.03519328311085701, -0.2521926760673523, -0.06446249037981033, 
    -0.054990384727716446, 0.025197647511959076, 0.001581061165779829, 0.005274367053061724, 
    -0.17865882813930511, -0.04416727274656296, -0.05730954930186272, -0.04841027408838272, 
    -0.04715965688228607, -0.09057693928480148, 0.05879722535610199, 0.001228880020789802, 
    -0.033666327595710754, -0.021765805780887604, 0.0007832493865862489, 0.0029502164106816053, 
    -0.15100489556789398, -0.036063842475414276, 0.06557431817054749, -0.028753073886036873, 
    -0.09521415829658508, -0.1104922816157341, -0.07193810492753983, -0.012530856765806675, 
    -0.22915636003017426, -0.07369913905858994, 0.251990407705307, -0.059849780052900314, 
    0.06263969093561172, 0.0095059834420681, -0.15191882848739624, 0.215433269739151, 
    -0.05370686203241348, 0.07955799251794815, 0.09568068385124207, -0.03717496246099472, 
    0.08335176855325699, 0.055977895855903625, -0.03147563710808754, -0.05361461266875267, 
    0.37199515104293823, 0.0018473274540156126, 0.09385582059621811, -0.04047706723213196, 
    -0.006193903740495443, -0.027941549196839333, 0.07641943544149399, 0.10159078985452652, 
    0.01669689267873764, 0.10537931323051453, 0.021442146971821785, -0.032190944999456406, 
    0.09182662516832352, -0.17420603334903717, -0.14574341475963593, -0.09990474581718445, 
    0.16948048770427704, -0.11737914383411407, -0.04916093498468399, -0.14723117649555206, 
    0.08057288825511932, -0.04231690615415573, -0.23036767542362213, 0.13557685911655426, 
    -0.06205999106168747, -0.1109677106142044, -0.016176408156752586, -0.06690597534179688, 
    0.010551772080361843, -0.2198566198348999, -0.12303105741739273, -0.0943698137998581, 
    -0.2342940866947174, -0.04164709523320198, 0.21898071467876434, -0.1269531399011612, 
    0.1564815789461136, -0.054333414882421494, -0.42309409379959106, 0.14117345213890076, 
    -0.1405627727508545, -0.04449595510959625, -0.05376544967293739, 0.010045433416962624, 
    -0.08444929867982864, 0.052956562489271164, 0.01436965074390173, -0.09292993694543839, 
    -0.1466553658246994, 0.0640212669968605, 0.25264692306518555, -0.05231189355254173, 
    -0.07920735329389572, -0.02667423151433468, -0.21015863120555878, 0.05203598365187645, 
    -0.00202940427698195, -0.12001340836286545, -0.0911562591791153, 0.026629287749528885, 
    -0.17053410410881042, 0.07621731609106064, 0.00015895446995273232, 0.029019907116889954, 
    0.14786696434020996, -0.018490416929125786, 0.23042429983615875, 0.025419432669878006, 
    -0.030299963429570198, -0.005782405845820904, -0.2996198534965515, 0.0011701305629685521, 
    0.021964406594634056, -0.06782836467027664, -0.02320343814790249, 0.03053087368607521, 
    0.09479468315839767, 0.0022948819678276777, 0.08210312575101852, 0.0006532688275910914, 
    0.224827840924263, 0.032329872250556946, 0.10762670636177063, 0.05891544371843338, 
    0.12534913420677185, 0.04188811406493187, -0.3107435405254364, -0.058249976485967636, 
    0.024556687101721764, 0.05205946043133736, 0.0032822953071445227, 0.011511535383760929, 
    -0.040029846131801605, -0.04280627518892288, 0.1154981181025505, 0.027847616001963615, 
    -0.004152956884354353, -0.047898124903440475, -0.09553135931491852, 0.03652793914079666, 
    0.04486078768968582, -0.017233818769454956, -0.38537952303886414, -0.03898882493376732, 
    -0.038986675441265106, 0.07441303879022598, -0.06960982829332352, -0.02767828479409218, 
    0.04046778753399849, 0.11387801170349121, 0.0709800124168396, 0.007868792861700058, 
    -0.20711387693881989, 0.0651366338133812, -0.08131881803274155, 0.09968685358762741, 
    -0.10781966894865036, 0.03067735955119133, -0.3318217992782593, -0.004889843054115772, 
    0.09274348616600037, 0.11756516993045807, -0.021548889577388763, -0.04324726760387421, 
    0.10384143143892288, 0.21116822957992554, 0.013039232231676579, 0.024780865758657455, 
    0.11941687762737274, -0.06475628912448883, 0.055522240698337555, 0.0033588602673262358, 
    0.1759667992591858, 0.05371784791350365, -0.06188942492008209, 0.03099077381193638, 
    0.028428886085748672, -0.0003156722232233733, 0.09183958917856216, 0.05375273525714874, 
    0.11167288571596146, 0.04509395360946655, -0.050069406628608704, -0.0264882855117321, 
    0.09875959903001785, -0.0320410281419754, 0.08395641297101974, -0.0574161596596241, 
    0.1875080019235611, 0.03176266327500343, 0.23409557342529297, 0.08386466652154922, 
    0.04024115204811096, -0.017782974988222122, 0.0876229926943779, 0.04493109509348869, 
    0.08690018206834793, -0.009221258573234081, -0.032857462763786316, 0.008106243796646595, 
    -0.07128767669200897, -0.03688587620854378, -0.02048422209918499, 0.008166213519871235, 
    0.03566698729991913, -0.0231822170317173, -0.28207990527153015, -0.06599576026201248, 
    -0.07588211447000504, 0.04628985375165939, -0.016988439485430717, -0.063908651471138, 
    0.0032708998769521713, -0.025247734040021896, -0.059065889567136765, -0.05594393238425255, 
    -0.2718491852283478, -0.048999376595020294, -0.06041887402534485, 0.06579753756523132, 
    0.01664585806429386, -0.07232396304607391, -0.06844786554574966, 0.03276005759835243, 
    -0.02442646585404873, 0.007833589799702168, -0.0645446926355362, -0.08845797926187515, 
    -0.12687990069389343, 0.07290379703044891, 0.06036444753408432, -0.06427863240242004, 
    0.07866009324789047, -0.024261316284537315, 0.012479848228394985, 0.004175344482064247, 
    -0.07331488281488419, -0.01859600469470024, 0.1095789223909378, -0.025356892496347427, 
    -0.06504207849502563, 0.031718894839286804, -0.02606985904276371, 0.02571791410446167, 
    -0.04317878559231758, -0.03458759933710098, -0.0635492131114006, 0.011842249892652035, 
    0.17846471071243286, -0.08972765505313873, 0.07972239702939987, -0.058002371340990067, 
    0.08809340745210648, 0.009083676151931286, 0.060096170753240585, 0.11477197706699371, 
    0.036299508064985275, 0.05938306078314781, 0.03628571331501007, 0.00866752490401268, 
    0.09237520396709442, -0.002299748593941331, -0.09571602940559387, -0.0075124031864106655, 
    -0.07591919600963593, -0.04940260946750641, 0.11112534254789352, -0.030731210485100746, 
    0.03808124363422394, -0.05200812220573425, 0.09949011355638504, 0.06131226196885109, 
    -0.05274233967065811, 0.03256735950708389, -0.07598372548818588, -0.024786420166492462, 
    0.012900544330477715, -0.03653900325298309, -0.09050650149583817, -0.03735858201980591, 
    -0.09479384124279022, -0.11185432225465775, 0.056113481521606445, -0.20507417619228363, 
    0.07677416503429413, -0.15914948284626007, -0.048826754093170166, -0.0008005325798876584, 
    -0.0010463757207617164, 0.015811199322342873, -0.01930803619325161, -0.07980085164308548, 
    0.04167585447430611, -0.2029242217540741, -0.1593249887228012, -0.040973953902721405, 
    -0.18439839780330658, -0.06068141758441925, 0.20371393859386444, -0.07920302450656891, 
    0.09481288492679596, -0.035667166113853455, -0.1301840841770172, -0.0014704992063343525, 
    -0.1189485639333725, -0.05027880519628525, -0.013457613065838814, -0.04179302603006363, 
    -0.08677569776773453, 0.036918457597494125, -0.022578448057174683, 0.005227086134254932, 
    -0.2628330886363983, 0.09604847431182861, 0.2169332206249237, 0.09745880961418152, 
    -0.03396060690283775, 0.02793288230895996, -0.14793087542057037, 0.08543934673070908, 
    -0.07373810559511185, -0.02024475857615471, -0.08226500451564789, 0.016222070902585983, 
    -0.1159282997250557, -0.1134636327624321, 0.1677033007144928, 0.013444469310343266, 
    -0.2928810119628906, 0.14596226811408997, 0.1482231765985489, 0.08747047185897827, 
    -0.17887496948242188, 0.0715760588645935, -0.2135222852230072, -0.047216951847076416, 
    -0.020584765821695328, -0.13043905794620514, -0.12462451308965683, 0.017471516504883766, 
    -0.017531711608171463, 0.1746014505624771, 0.24794617295265198, 0.07196857035160065, 
    -0.30571168661117554, 0.08628297597169876, 0.07687292993068695, 0.07057582587003708, 
    0.030723759904503822, 0.00838711392134428, 0.04794427752494812, -0.08810646831989288, 
    0.11325206607580185, -0.04331238195300102, -0.032030072063207626, 0.022308973595499992, 
    0.013377507217228413, 0.14877532422542572, 0.1961286962032318, -0.00455424515530467, 
    -0.10676795989274979, 0.017261946573853493, -0.013783765025436878, 0.0960056334733963, 
    0.003955246414989233, 0.035652127116918564, 0.09830859303474426, -0.09581505507230759, 
    0.04125881567597389, -0.016049768775701523, -0.08714936673641205, 0.05363263189792633, 
    -0.058643143624067307, -0.07506949454545975, 0.1608658730983734, 0.030978862196207047, 
    -0.11617376655340195, 0.019017351791262627, -0.020259536802768707, 0.17569635808467865, 
    0.059216879308223724, -0.02148427627980709, 0.1394939422607422, -0.1521783471107483, 
    0.06648719310760498, 0.05117688700556755, 0.004339888691902161, -0.02330278605222702, 
    0.08366403728723526, 0.02302573062479496, 0.0027839697431772947, 0.001406123978085816, 
    -0.16932617127895355, 0.026274042204022408, 0.010243301279842854, 0.018626011908054352, 
    0.13447973132133484, 0.020270369946956635, 0.0746874138712883, -0.051747534424066544, 
    0.032386694103479385, 0.009610033594071865, -0.03267042711377144, -0.034305647015571594, 
    0.17698362469673157, 0.06541749835014343, -0.015193016268312931, -0.01265496201813221, 
    -0.065538190305233, -0.008947942405939102, 0.1356050819158554, -0.04709039255976677, 
    0.1342671662569046, -0.011515081860125065, 0.025579990819096565, -0.08487271517515182, 
    -0.027950771152973175, 0.07337992638349533, -0.047386784106492996, -0.0738019049167633, 
    0.08884038776159286, -0.049625713378190994, 0.08205258101224899, 0.029075630009174347, 
    -0.016886424273252487, 0.01086859218776226, 0.03742748498916626, 0.04540605843067169, 
    0.049733273684978485, 0.035865917801856995, 0.08745936304330826, 0.003370411694049835, 
  
    };
    static const neuron_t neuron0 = {weights0, 0.11222756654024124};
    neurons[0]=neuron0;

    static const float weights1[] ={
    -0.045444369316101074, 0.002514065243303776, -0.021616261452436447, -0.023927215486764908, 
    0.1563016176223755, -0.021609870716929436, 0.11520504951477051, 0.07791836559772491, 
    -0.0013879425823688507, 0.10084011405706406, -0.052192047238349915, 0.03412406146526337, 
    0.05639372393488884, -0.02076941542327404, 0.00450384384021163, -0.033636242151260376, 
    -0.13257287442684174, -0.15425994992256165, 0.18901918828487396, -0.04421881213784218, 
    -0.030709171667695045, -0.1105036735534668, 0.07525694370269775, 0.04499209672212601, 
    0.06562136858701706, -0.061436727643013, -0.09068672358989716, 0.03804059326648712, 
    0.10374890267848969, 0.016678323969244957, 0.04497739300131798, 0.015571859665215015, 
    -0.10034234076738358, -0.06279469281435013, 0.05879587680101395, -0.04038381576538086, 
    0.1470804512500763, -0.08893822878599167, -0.012793777510523796, -0.021915659308433533, 
    0.028302103281021118, 0.0018262728117406368, -0.2838546335697174, -0.030838359147310257, 
    0.2389087677001953, -0.012626800686120987, 0.03986174985766411, -0.09658760577440262, 
    -0.04929894953966141, -0.17576190829277039, -0.05339081212878227, -0.05357017368078232, 
    0.0431448295712471, 0.12896780669689178, 0.03230905905365944, -0.1074167862534523, 
    0.1370822936296463, 0.012372265569865704, -0.05756503343582153, 0.029176386073231697, 
    0.09401649236679077, -0.06750369071960449, 0.05540440231561661, 0.036216773092746735, 
    0.045278873294591904, -0.14345254004001617, -0.06758535653352737, 0.010089041665196419, 
    0.0786474347114563, 0.09300696104764938, 0.05329413712024689, -0.07038963586091995, 
    0.07614120841026306, -0.017967289313673973, 0.009680140763521194, 0.07792431116104126, 
    0.05682540312409401, -0.04142647981643677, 0.08466850966215134, -0.04009554907679558, 
    0.04940264672040939, 0.04207098111510277, -0.022762756794691086, -0.10107270628213882, 
    0.16690868139266968, 0.016925176605582237, -0.04226166754961014, -0.11453741043806076, 
    -0.1002468466758728, -0.06887110322713852, 0.07245679944753647, -0.09784950315952301, 
    0.16996589303016663, -0.09081857651472092, 0.06416141986846924, -0.21573393046855927, 
    -0.06471462547779083, -0.04212295264005661, -0.2117684781551361, -0.019677046686410904, 
    0.0001371087273582816, 0.0175925400108099, -0.16828350722789764, -0.12359605729579926, 
    -0.21406473219394684, 0.018647804856300354, 0.15582901239395142, -0.062438759952783585, 
    0.022687584161758423, -0.13760679960250854, -0.04248117282986641, -0.13704335689544678, 
    -0.0363742969930172, -0.11842498183250427, -0.04173313453793526, -0.02638537622988224, 
    0.12756112217903137, -0.07457859814167023, -0.07827616482973099, -0.10127930343151093, 
    -0.1541183888912201, -0.011628188192844391, 0.15895779430866241, -0.04396728053689003, 
    -0.04456119239330292, -0.06858552992343903, -0.08786329627037048, -0.07421041280031204, 
    -0.16219379007816315, -0.17068320512771606, -0.0009397327085025609, -0.05621497333049774, 
    0.027430621907114983, 0.1289350539445877, -0.036272406578063965, 0.016692573204636574, 
    -0.0666174441576004, 0.0819062888622284, 0.09755776077508926, 0.007517904043197632, 
    -0.05254288762807846, 0.051925815641880035, -0.07247050851583481, 0.003775331424549222, 
    0.03358335420489311, -0.15085113048553467, 0.013664794154465199, 0.0634375587105751, 
    0.07435201108455658, 0.21764716506004333, -0.0015252352459356189, 0.05394778028130531, 
    0.14281244575977325, 0.06117396429181099, -0.12626740336418152, -0.031847864389419556, 
    -0.03534749895334244, 0.030680662021040916, -0.051891788840293884, -0.02990737371146679, 
    -0.0011327858082950115, -0.11064949631690979, 0.041109248995780945, 0.062494780868291855, 
    0.0034780516289174557, 0.08517266064882278, 0.1063445433974266, 0.0849982500076294, 
    0.16697604954242706, 0.03972232714295387, -0.047719769179821014, 0.0901847705245018, 
    -0.13193026185035706, 0.12312472611665726, -0.08755140751600266, 0.023285534232854843, 
    0.10692308098077774, -0.02546093985438347, 0.13215748965740204, 0.03733106330037117, 
    0.08139463514089584, 0.058964040130376816, -0.018043024465441704, 0.05117238312959671, 
    0.32408761978149414, -0.008439838886260986, -0.021432843059301376, 0.028109723702073097, 
    0.03768071532249451, 0.11411529779434204, -0.04636187478899956, 0.06616916507482529, 
    0.08614328503608704, -0.005100827198475599, 0.09528567641973495, 0.13836830854415894, 
    -0.010340424254536629, 0.013249511830508709, 0.031399887055158615, 0.07770303636789322, 
    0.1319720298051834, 0.028863590210676193, -0.11997629702091217, 0.055788975208997726, 
    -0.009427032433450222, 0.030596911907196045, -0.09470183402299881, 0.07508166879415512, 
    0.04297792539000511, 0.01518647838383913, 0.06920721381902695, 0.08330174535512924, 
    0.08435646444559097, -0.011013666167855263, 0.04163319244980812, 0.1586378514766693, 
    -0.10014452785253525, 0.06591776013374329, -0.012031315825879574, 0.07665885984897614, 
    0.021758070215582848, 0.059816084802150726, -0.1525191068649292, 0.052783239632844925, 
    0.12361237406730652, -0.00014443158579524606, -0.17271091043949127, 0.037036243826150894, 
    -0.03569438308477402, -0.14445126056671143, -0.05061444640159607, 0.064906045794487, 
    -0.2658504545688629, -0.04688635841012001, -0.026476118713617325, 0.10091578215360641, 
    0.03764767944812775, -0.013876707293093204, 0.11781638860702515, -0.04775324836373329, 
    0.04758317396044731, -0.07636554539203644, -0.044111210852861404, -0.02215082198381424, 
    -0.09795442223548889, -0.12713076174259186, 0.0032334981951862574, 0.06338265538215637, 
    -0.285587877035141, 0.007916218601167202, 0.01558273658156395, -0.0033301871735602617, 
    -0.1954423040151596, 0.06881806999444962, 0.008894841186702251, -0.02500443533062935, 
    -0.045690372586250305, -0.08328799158334732, 0.018280964344739914, 0.0295812226831913, 
    -0.00018661523063201457, -0.153501957654953, -0.08805341273546219, 0.01570023223757744, 
    0.13683398067951202, -0.043696328997612, 0.022327205166220665, -0.03369089961051941, 
    0.04489680007100105, 0.0007520508952438831, -0.0014271740801632404, 0.09317076951265335, 
    -0.019265972077846527, -0.014116654172539711, 0.09257783740758896, 0.005356839392334223, 
    0.1317988634109497, -0.110721156001091, -0.0069243889302015305, 0.039406705647706985, 
    0.1093384400010109, -0.046813998371362686, -0.03410426154732704, 0.05390016734600067, 
    0.08780423551797867, -0.026951836422085762, 0.027611631900072098, 0.12384743243455887, 
    0.09764464944601059, 0.04502057284116745, 0.08228142559528351, 0.016864992678165436, 
    0.15421368181705475, -0.02888527885079384, -0.12079117447137833, -0.025518424808979034, 
    0.013468479737639427, -0.10652777552604675, -0.1922285109758377, -0.013911922462284565, 
    0.2268683910369873, 0.03705300763249397, 0.0963205099105835, -0.0962083637714386, 
    0.05029836297035217, -0.006016231141984463, -0.024487018585205078, 0.0020981670822948217, 
    0.06586571782827377, 0.04532673582434654, -0.1693001389503479, 0.02506672777235508, 
    -0.1466320902109146, -0.029279135167598724, 0.035603079944849014, -0.014863080345094204, 
    0.06994251906871796, -0.0037140718195587397, -0.013162233866751194, 0.02610085718333721, 
    0.03468393534421921, 0.07411867380142212, 0.014117729850113392, 0.0421711727976799, 
    -0.10110503435134888, 0.12257444113492966, -0.05950167030096054, 0.034948281943798065, 
    -0.13878889381885529, -0.011571036651730537, 0.02467026375234127, -0.01163924764841795, 
    -0.07901506870985031, -0.052414774894714355, -0.19120411574840546, 0.0450860820710659, 
    0.09805411100387573, 0.0006522132898680866, 0.04714203625917435, 0.034459035843610764, 
    -0.10878308117389679, 0.035090476274490356, -0.057097021490335464, 0.027160700410604477, 
    -0.1495351940393448, 0.057292163372039795, 0.06965260952711105, 0.0007900117780081928, 
    -0.20347726345062256, 0.043585196137428284, -0.09117239713668823, 0.13510631024837494, 
    -0.1079874038696289, 0.042172323912382126, -0.06223009154200554, 0.05015142261981964, 
    -0.11250048875808716, 0.16611655056476593, 0.03065456449985504, 0.028874069452285767, 
    -0.03293165564537048, 0.04959306865930557, 0.1670246571302414, 0.05039246380329132, 
    -0.13664960861206055, 0.01423709187656641, -0.013552685268223286, 0.10173825919628143, 
    0.017284272238612175, 6.716357165714726e-05, -0.02608177624642849, 0.01971478760242462, 
    -0.02602721005678177, 0.07186828553676605, 0.11549606919288635, -0.023331642150878906, 
    -0.13764499127864838, 0.057238657027482986, -0.04275204613804817, 0.04145699366927147, 
    -0.08501401543617249, -0.0014035673812031746, 0.057025693356990814, 0.02130872942507267, 
    0.1043475791811943, 0.05229601636528969, -0.016442984342575073, 0.0596274770796299, 
    -0.035550806671381, 0.24765509366989136, 0.10005716979503632, 0.1064056009054184, 
    0.04279204085469246, 0.14308007061481476, -0.08341345936059952, 0.19968286156654358, 
    -0.09152819216251373, 0.009872673079371452, 0.12088192254304886, -0.031439635902643204, 
    0.05611533299088478, 0.07711093872785568, 0.06137954071164131, 0.07908710092306137, 
    0.0754719004034996, 0.009657441638410091, 0.18152035772800446, 0.08627968281507492, 
    0.07059508562088013, 0.06863332539796829, -0.00995846837759018, 0.04730990529060364, 
    0.11600889265537262, -0.0142408087849617, 0.13338029384613037, -0.07033741474151611, 
    0.09839314222335815, -0.045225515961647034, -0.0005610535736195743, 0.013934747315943241, 
    0.08371014893054962, -0.0038757508154958487, -0.012413953430950642, 0.06167822703719139, 
    -0.13566187024116516, 0.0401681549847126, 0.06923063099384308, 0.03238943964242935, 
    0.038008809089660645, 0.024932710453867912, -0.0021546322386711836, -0.07276532799005508, 
    0.14553771913051605, 0.06866022199392319, -0.029095247387886047, 0.04813637211918831, 
    0.012061399407684803, 0.010272513143718243, -0.024619612842798233, 0.06990725547075272, 
    -0.11610621213912964, 0.06892836838960648, -0.027869878336787224, -0.036187395453453064, 
    -0.07925159484148026, 0.052785854786634445, -0.0893944650888443, -0.05338514223694801, 
    0.12428388744592667, 0.14574790000915527, -0.03222869336605072, -0.04491925984621048, 
    0.03800645470619202, -0.06376432627439499, 0.06625758856534958, -0.004315434489399195, 
    0.028578707948327065, -0.12695908546447754, -0.05384483188390732, -0.05106552317738533, 
    0.046823650598526, -0.027541669085621834, 0.06602533161640167, -0.0839276984333992, 
    0.20243142545223236, 0.020760325714945793, 0.030919797718524933, -0.04396165534853935, 
    -0.13946469128131866, 0.05071417987346649, -0.16503027081489563, -0.013263745233416557, 
    -0.2388180047273636, -0.06829914450645447, 0.06378263980150223, -0.01824481412768364, 
    -0.35561278462409973, -0.03191468119621277, -0.3830604553222656, -0.06099866330623627, 
    0.08180324733257294, 0.10615469515323639, -0.04656105861067772, -0.00045901318662799895, 
    -0.05874001979827881, -0.15864510834217072, -0.07695269584655762, 0.00977780856192112, 
    0.10457120835781097, -0.03214094415307045, 0.027108440175652504, -0.1336798518896103, 
    -0.08549139648675919, 0.04168827831745148, 0.0017477547517046332, 0.02637838013470173, 
    0.015579177998006344, 0.010615029372274876, 0.16748879849910736, 0.04453236237168312, 
    -0.059194084256887436, -0.19026067852973938, -0.10296567529439926, 0.09069528430700302, 
    -0.19680523872375488, -0.00991446990519762, 0.16412121057510376, -0.05643569678068161, 
    0.07838835567235947, 0.1528923362493515, -0.011728581972420216, 0.19779078662395477, 
    0.13040246069431305, 0.0948207676410675, 0.21079590916633606, 0.04452358931303024, 
    0.26657727360725403, -0.10622067004442215, -0.05712146311998367, 0.08594133704900742, 
    -0.23611721396446228, -0.05688399448990822, 0.0021041359286755323, -0.11931487917900085, 
    -7.435399311361834e-05, -0.07191858440637589, -0.14020438492298126, 0.07159552723169327, 
    0.06089728698134422, 0.11278119683265686, 0.06199043616652489, -0.03354273736476898, 
    0.11421870440244675, 0.10092968493700027, 0.06501208990812302, -0.0578041672706604, 
    0.07652267813682556, 0.07958921045064926, 0.10554121434688568, 0.03358474373817444, 
    -0.03188924118876457, -0.20219628512859344, -0.07393039017915726, 0.033290039747953415, 
    0.06816643476486206, 0.011864682659506798, -0.038926977664232254, -0.05725780501961708, 
    0.030029984191060066, -0.00014118723629508168, 0.16309523582458496, -0.010476362891495228, 
    0.020049815997481346, 0.015594824217259884, 0.06596927344799042, 0.1010517030954361, 
    0.03861682116985321, -0.07781381160020828, 0.05646039545536041, 0.08094187825918198, 
    0.00033579731825739145, 0.007781381718814373, -0.04436012730002403, -0.018637077882885933, 
    -0.03318114951252937, -0.00027758791111409664, -0.019498921930789948, 0.027904650196433067, 
    0.02306118980050087, -0.0435829758644104, 0.1037735715508461, -0.008508559316396713, 
    -0.11143872886896133, -0.005042273551225662, -0.024880336597561836, -0.0013504449743777514, 
    -0.1288243532180786, -0.00526345893740654, -0.03774941340088844, 0.021250959485769272, 
    -0.11007482558488846, 0.13553692400455475, 0.08965443819761276, 0.07963819801807404, 
    0.029734807088971138, 0.10273905098438263, 0.19217413663864136, 0.03506278246641159, 
    -0.1739940494298935, 0.04476181045174599, 0.010923325084149837, 0.16566510498523712, 
    0.011643187142908573, 0.12491999566555023, 0.07437121868133545, 0.014468718320131302, 
    -0.05575456842780113, 0.09969905018806458, 0.19050264358520508, 0.13391537964344025, 
    -0.29772013425827026, 0.049516502767801285, 0.11792298406362534, 0.06395019590854645, 
    -0.13594253361225128, 0.13759692013263702, -0.015831273049116135, 0.07804173231124878, 
    0.1296098828315735, 0.12823526561260223, 0.06741894781589508, 0.1056605726480484, 
    0.12796886265277863, -0.021008292213082314, 0.10433434695005417, 0.07592867314815521, 
    -0.07109928876161575, 0.09672661125659943, 0.06431467086076736, 0.1634134203195572, 
    0.03342501074075699, 0.09644127637147903, -0.04251246154308319, 0.05941838398575783, 
    0.2171330749988556, 0.10583703964948654, 0.14664840698242188, 0.050043925642967224, 
    0.1241534873843193, -0.044861894100904465, 0.03891989588737488, 0.06694354861974716, 
    -0.02074475772678852, -0.01920907199382782, 0.0976032167673111, -0.011353223584592342, 
    0.08992023766040802, 0.04460741579532623, -0.026749836280941963, 0.07000219076871872, 
    0.20961326360702515, 0.12122201174497604, 0.10117914527654648, 0.06782874464988708, 
    0.1182137280702591, 0.08167178928852081, -0.0390508733689785, -0.041582390666007996, 
    -0.01016611885279417, -0.07235018908977509, 0.11714240163564682, -0.021313564851880074, 
    -0.06619570404291153, -0.06550473719835281, -0.017319701611995697, 0.003389412071555853, 
    0.15261304378509521, 0.043601736426353455, 0.04800320789217949, 0.004860118962824345, 
    0.0986148864030838, -0.002299615880474448, 0.01031870674341917, 0.038198694586753845, 
    0.04052957147359848, -0.05785389989614487, 0.08051112294197083, -0.013657144270837307, 
    0.024488091468811035, 0.04717707633972168, 0.14106148481369019, -0.09094087034463882, 
    0.05708003789186478, 0.10350759327411652, 0.06219231337308884, -0.028367873281240463, 
    0.11081946641206741, -0.08359409868717194, 0.09820280969142914, -0.014149562455713749, 
    -0.0012355073122307658, -0.13930992782115936, -0.09036920219659805, -0.06205851957201958, 
    -0.010398952290415764, -0.014216654002666473, -0.1793343424797058, -0.02180190198123455, 
    0.05150674283504486, -0.04728183150291443, 0.027875877916812897, -0.00954683031886816, 
    0.16292575001716614, -0.023238126188516617, -0.13602162897586823, -0.09948400408029556, 
    0.1561831384897232, -0.06261399388313293, 0.07383202016353607, -0.041083622723817825, 
    0.048908282071352005, -0.08349251747131348, 0.08490850776433945, -0.001958440290763974, 
    -0.0062034595757722855, -0.05142096430063248, -0.06776580214500427, -0.13193263113498688, 
    0.0065972767770290375, -0.13287976384162903, 0.005601493176072836, -0.12430787831544876, 
    -0.18430213630199432, -0.08272159844636917, 0.0024146055802702904, -0.1823807954788208, 
    -0.010557387955486774, 0.001970666227862239, 0.14180628955364227, -0.05681590735912323, 
    -0.07853329181671143, 0.028725238516926765, -0.009438317269086838, -0.14560659229755402, 
    0.05071038380265236, -0.1047956645488739, 0.04489821940660477, -0.10415204614400864, 
    -0.1012246236205101, -0.009271213784813881, 0.18310055136680603, -0.011880422942340374, 
    0.05791483446955681, -0.06355489045381546, 0.1181340143084526, -0.1464475840330124, 
    0.014169963076710701, 0.07276468724012375, 0.02823495678603649, -0.08350589871406555, 
    0.03546265512704849, 0.010207999497652054, -0.05334487929940224, -0.07009277492761612, 
    -0.08311860263347626, 0.03621876612305641, -0.043315254151821136, -0.07705984264612198, 
    -0.05705135315656662, -0.07265649735927582, -0.06346961110830307, -0.1117044985294342, 
    -0.020363667979836464, 0.017005227506160736, 0.002752880798652768, 0.006151239387691021, 
    0.003973514307290316, -0.12684397399425507, -0.013594520278275013, -0.04028608649969101, 
    -0.48732417821884155, 0.06557653844356537, 0.18319018185138702, 0.018982702866196632, 
    0.11578866839408875, -0.11702247709035873, -0.27540695667266846, 0.041843656450510025, 
    0.016613727435469627, 0.029715217649936676, -0.06835491955280304, -0.08345474302768707, 
    0.08956411480903625, 0.025177109986543655, 0.013958221301436424, 0.002825649455189705, 
    -0.4171692132949829, 0.0683588981628418, 0.1944701373577118, 0.02675706334412098, 
    0.206612229347229, -0.054408732801675797, -0.2219836711883545, -0.01513615995645523, 
    0.12281975895166397, 0.062342461198568344, 0.006554141640663147, -0.055699028074741364, 
    0.019405590370297432, -0.052152082324028015, -0.02072024717926979, -0.05586986243724823, 
    -0.3771211504936218, -0.05239328369498253, 0.13503451645374298, -0.10834631323814392, 
    0.09068956226110458, -0.011391363106667995, -0.23110747337341309, -0.031328681856393814, 
    -0.1434473693370819, 0.0219146516174078, -0.12218528985977173, -0.04585612565279007, 
    -0.01902744732797146, -0.02244395762681961, 0.07239547371864319, -0.025396155193448067, 
    -0.23134200274944305, 0.1312999129295349, 0.19759991765022278, 0.1504473239183426, 
    0.02770865336060524, -0.011201243847608566, -0.12150683999061584, 0.0036037301179021597, 
    0.07938957959413528, 0.10896002501249313, -0.08798467367887497, -0.0003595493908505887, 
    0.014693133533000946, 0.08870534598827362, 0.11700578778982162, 0.009185793809592724, 
    0.06397199630737305, 0.008654222823679447, 0.08744700998067856, 0.07687360048294067, 
    0.07260268181562424, 0.14837779104709625, 0.06596025824546814, -0.009524336084723473, 
    0.11901628226041794, 0.18144196271896362, 0.04152040183544159, 0.021929297596216202, 
    0.09793426096439362, -0.057373758405447006, 0.04089275002479553, 0.10691144317388535, 
    0.26296180486679077, -0.04694712907075882, 0.10488606244325638, -0.062224309891462326, 
    0.06968777626752853, 0.10991358011960983, 0.22700530290603638, 0.10907008498907089, 
    0.2052895426750183, 0.25110453367233276, 0.1326705366373062, 0.0005623808247037232, 
    0.21017244458198547, -0.1567946821451187, 0.06432320177555084, -0.013723012991249561, 
    0.31955909729003906, -0.08314231783151627, 0.1507214903831482, -0.040942516177892685, 
    0.08183425664901733, 0.04069766774773598, 0.19419041275978088, 0.15583838522434235, 
    0.10561493039131165, 0.1191972941160202, 0.1633557677268982, -0.02657688781619072, 
    0.06598744541406631, -0.32134944200515747, 0.01746443472802639, -0.026374302804470062, 
    -0.1560053527355194, 0.038324516266584396, 0.10406558215618134, -0.03851255774497986, 
    0.0015300121158361435, -0.05993993580341339, 0.14556652307510376, 0.05938620865345001, 
    0.12554162740707397, 0.06187731400132179, -0.08830143511295319, -0.0921558067202568, 
    0.08255324512720108, -0.15451790392398834, -0.07464761286973953, -0.08855792135000229, 
    -0.20009438693523407, 0.008346389047801495, 0.11826856434345245, -0.12223560363054276, 
    0.07126540690660477, -0.01833120919764042, -0.27711760997772217, -0.10718328505754471, 
    0.12163129448890686, 0.0924123004078865, 0.046134669333696365, 0.07468017190694809, 
    0.02248498797416687, 0.06556247919797897, 0.004081296734511852, -0.01847681775689125, 
    0.10074423253536224, -0.026731425896286964, -0.01835719868540764, -0.00434087822213769, 
    0.11188242584466934, -0.052834589034318924, -0.0024663873482495546, -0.3165457546710968, 
    -0.058450255542993546, -0.019061919301748276, -0.08009341359138489, 0.15114563703536987, 
    0.015120802447199821, -0.14215824007987976, -0.021159593015909195, -0.021456195041537285, 
    -0.003568880492821336, -0.2916128933429718, 0.07117608934640884, -0.12708090245723724, 
    -0.03065219148993492, -0.051778823137283325, -0.0003723566187545657, 0.04623259976506233, 
    0.024824434891343117, -0.04605524241924286, 0.03436288610100746, 0.08453377336263657, 
    -0.1528373807668686, -0.20982596278190613, -0.18963198363780975, -0.05539022386074066, 
    -0.09450367838144302, -0.05900254845619202, -0.09126196056604385, -0.07567156851291656, 
    0.0654650405049324, 0.03091989830136299, -0.04380035027861595, 0.2726849317550659, 
    -0.022961387410759926, -0.01732991822063923, -0.05074760317802429, 0.1624598652124405, 
    0.04418288916349411, -0.17335748672485352, -0.08972400426864624, -0.008844769559800625, 
    -0.17541824281215668, -0.007250254973769188, 0.008645609021186829, -0.005517144221812487, 
    0.1005292534828186, 0.044839248061180115, -0.18433673679828644, 0.07576296478509903, 
    -0.027094436809420586, 0.09336838871240616, -0.16826650500297546, 0.16495732963085175, 
    -0.042861342430114746, -0.07616692036390305, -0.08632776141166687, -0.023656705394387245, 
    -0.13593100011348724, 0.037244945764541626, 0.17544464766979218, 0.04166954383254051, 
    0.21735724806785583, 0.10693366080522537, -0.10998513549566269, 0.09979866445064545, 
    0.031130077317357063, 0.1539687067270279, 0.0844249576330185, 0.07455731928348541, 
    0.09703024476766586, -0.009730838239192963, -0.11258698254823685, -0.08949913829565048, 
    -0.06607460975646973, -0.10355740785598755, 0.07946007698774338, -0.16166536509990692, 
    0.06950850039720535, -0.005369102116674185, -0.13317450881004333, 0.2573018968105316, 
    -0.002855026163160801, 0.15407636761665344, 0.12047827988862991, -0.032105449587106705, 
    0.14887835085391998, -0.01698102429509163, -0.04881025478243828, -0.050131916999816895, 
    -0.10054424405097961, -0.08065513521432877, 0.0845770388841629, -0.0647682249546051, 
    0.12390810996294022, -0.02426575869321823, -0.06863445043563843, 0.18328097462654114, 
    0.03063759207725525, -0.0008560113492421806, 0.06111674755811691, 0.07408150285482407, 
    0.11191776394844055, 0.02230781875550747, -0.06852057576179504, -0.01831725426018238, 
    -0.07704820483922958, -0.01778797060251236, 0.19053928554058075, 0.055421359837055206, 
    -0.02115240879356861, 0.0694185271859169, -0.13418951630592346, 0.12357135862112045, 
    -0.08384847640991211, 0.01505071297287941, -0.1073923110961914, 0.15744271874427795, 
    0.029209403321146965, 0.16866539418697357, -0.03546827659010887, -0.02167387120425701, 
    0.07870326191186905, 0.1764957755804062, 0.21705152094364166, 0.09479551017284393, 
    -0.001891579944640398, 0.08387526869773865, -0.08644948154687881, 0.1819203943014145, 
    0.1642310917377472, 0.22446535527706146, 0.03887377679347992, 0.03900570422410965, 
    0.12189588695764542, 0.18716518580913544, 0.03536427766084671, 0.06047933176159859, 
    0.15546739101409912, -0.010790917091071606, 0.10499024391174316, 0.0055217077024281025, 
    0.06674129515886307, 0.05570250749588013, 0.06082135811448097, 0.14118768274784088, 
    0.0959155261516571, 0.22948847711086273, 0.12248823046684265, 0.004565450828522444, 
    0.16201940178871155, 0.09210174530744553, 0.0059335799887776375, 0.04314636439085007, 
    0.1587725430727005, 0.007153735496103764, 0.14603593945503235, -0.0028526943642646074, 
    0.15789401531219482, -0.008470172062516212, 0.09315799176692963, 0.12127763032913208, 
    0.07183398306369781, 0.18559083342552185, -0.04734395444393158, -0.04627181962132454, 
    0.10620497912168503, -0.03295193612575531, -0.07637274265289307, 0.001430191332474351, 
    0.08525171875953674, -0.07791439443826675, 0.1255711019039154, 0.0255124568939209, 
    0.1272006630897522, 0.030372411012649536, 0.1770336627960205, 0.07717475295066833, 
    0.01785067468881607, 0.16348671913146973, 0.034555982798337936, -0.11525864154100418, 
    0.14428918063640594, -0.10790005326271057, -0.0578848198056221, -0.1390250325202942, 
    0.1546136736869812, -0.11910552531480789, 0.15172623097896576, -0.0700167715549469, 
    0.17118969559669495, -0.09948835521936417, 0.11066944897174835, 0.12157539278268814, 
    -0.0061224400997161865, 0.1494780331850052, -0.04446489363908768, -0.10633159428834915, 
    0.08382255584001541, 0.13336782157421112, -0.16307106614112854, -0.17003020644187927, 
    0.08320048451423645, -0.012581019662320614, 0.1602196991443634, -0.06002713739871979, 
    0.057863749563694, 0.008963890373706818, -0.021428696811199188, 0.12182550132274628, 
    0.1086970865726471, 0.1766873002052307, 0.09101631492376328, 0.07854437828063965, 
    0.24234932661056519, -0.050989363342523575, -0.04474929720163345, -0.02438654750585556, 
    0.03313609957695007, 0.009281559847295284, 0.07912164181470871, 0.03842642158269882, 
    0.06180410832166672, 0.045337896794080734, 0.050748057663440704, 0.30212703347206116, 
    0.14716759324073792, 0.12074153125286102, -0.013372202403843403, -0.0036212762352079153, 
    -0.030562104657292366, 0.07036687433719635, -0.03414388373494148, -0.08881315588951111, 
    0.0723511204123497, -0.15947845578193665, 0.07375440746545792, -0.07224923372268677, 
    -0.006319565698504448, -0.07898548245429993, 0.0581228993833065, 0.11895573139190674, 
    -0.009854515083134174, 0.09474442899227142, -0.008373561315238476, -0.03760656714439392, 
    0.10399117320775986, -0.15873649716377258, -0.18163231015205383, -0.07246329635381699, 
    0.04136640205979347, -0.13458096981048584, -0.02155010588467121, -0.04719948396086693, 
    0.18183130025863647, -0.0625259280204773, 0.036855101585388184, 0.12461565434932709, 
    -0.02478060871362686, 0.039934225380420685, -0.008062311448156834, -0.07155958563089371, 
    0.05001501366496086, -0.2557353973388672, -0.116845041513443, -0.16321000456809998, 
    -0.10500040650367737, -0.15087226033210754, 0.11708009988069534, -0.041441332548856735, 
    0.05892152711749077, -0.10905290395021439, -0.10962960869073868, 0.08327800035476685, 
    0.04130087047815323, 0.17380882799625397, 0.0710546150803566, -0.0518111027777195, 
    0.17727427184581757, -0.09184041619300842, -0.11283502727746964, -0.16198647022247314, 
    -0.38847604393959045, -0.1086399182677269, 0.16729706525802612, -0.07004477083683014, 
    0.13165445625782013, -0.09410107880830765, -0.2103595733642578, -0.021143442019820213, 
    0.10189656913280487, 0.17751096189022064, -0.09483613073825836, -0.15971754491329193, 
    0.23889826238155365, 0.11032573133707047, -0.08300753682851791, -0.19304049015045166, 
    -0.12806975841522217, -0.12465062737464905, 0.11739872395992279, -0.11365227401256561, 
    0.24830734729766846, -0.14341340959072113, -0.18084554374217987, 0.07469911873340607, 
    0.01299597043544054, 0.06328073143959045, -0.20027326047420502, -0.10264229029417038, 
    -0.01629197783768177, 0.13409553468227386, -0.10280638933181763, -0.14081022143363953, 
    0.06645389646291733, -0.03896202892065048, 0.19677460193634033, -0.007563407067209482, 
    0.02674669772386551, -0.11761586368083954, -0.08468489348888397, 0.1283063441514969, 
    -0.047781702131032944, 0.03847173973917961, -0.03732132911682129, -0.08961611986160278, 
    0.033000215888023376, 0.10877275466918945, -0.07754798233509064, -0.005432021804153919, 
    0.08396373689174652, 0.010473959147930145, 0.20976999402046204, 0.04365181922912598, 
    -0.03977346420288086, 0.025956179946660995, 0.07457364350557327, 0.17637920379638672, 
    0.13668356835842133, 0.08439859002828598, 0.08696603775024414, -0.03101934678852558, 
    0.1371057778596878, 0.006420814897865057, -0.03392103686928749, 0.03146013617515564, 
    -0.02944182977080345, -0.01699875481426716, 0.10704074800014496, -0.010722547769546509, 
    0.0740618035197258, 0.040031518787145615, 0.00828725565224886, 0.18223337829113007, 
    0.219704270362854, 0.14459213614463806, 0.2141907811164856, -0.01224610023200512, 
    0.183319553732872, 0.05022190511226654, -0.05585978552699089, -0.006089230999350548, 
    -0.1717771589756012, 0.010001731105148792, 0.06220538914203644, 0.056616391986608505, 
    0.09385503083467484, 0.03288688510656357, -0.06167179346084595, 0.004529099445790052, 
    0.08572111278772354, 0.16582591831684113, 0.1334240883588791, -0.02363661676645279, 
    0.1120520755648613, -0.021198805421590805, -0.1179526150226593, 0.007456768304109573, 
    -0.06376753002405167, -0.09105027467012405, 0.055123649537563324, -0.08514554053544998, 
    0.0693092793226242, -0.0059156655333936214, -0.07891811430454254, 0.029044169932603836, 
    0.033956900238990784, 0.05099886655807495, 0.017755825072526932, -0.0324421226978302, 
    0.20115888118743896, -0.08190401643514633, -0.08364591002464294, -0.010152489878237247, 
    -0.12156213819980621, -0.1081119179725647, 0.06717240065336227, 0.03245102986693382, 
    0.1949031800031662, -0.03890429437160492, -0.06943712383508682, -0.054500430822372437, 
    0.04023817554116249, 0.0784103199839592, 0.02607324719429016, -0.05739763379096985, 
    0.18101286888122559, -0.04767926037311554, -0.09881987422704697, -0.09190390259027481, 
    -0.08686701208353043, -0.11383386701345444, 0.09222915023565292, -0.07343217730522156, 
    0.17403653264045715, -0.132674902677536, -0.03836517408490181, -0.12995555996894836, 
    -0.09166276454925537, 0.06093788519501686, -0.14275820553302765, -0.12141875177621841, 
    0.13052095472812653, 0.08368261903524399, -0.07872261106967926, -0.16293302178382874, 
    0.1022181361913681, -0.030779357999563217, 0.22137050330638885, 0.002203313633799553, 
    0.12893463671207428, 0.016254112124443054, -0.1566888689994812, -0.07897377759218216, 
    0.22820310294628143, 0.016279414296150208, -0.03997616842389107, 0.060263484716415405, 
    0.04008745402097702, 0.09276925772428513, 0.017664063721895218, 0.036686018109321594, 
    0.15781950950622559, 0.03285177797079086, -0.031455475836992264, -0.021964747458696365, 
    0.06791829317808151, -0.03713664785027504, 0.06834754347801208, 0.16176001727581024, 
    -0.11607229709625244, -0.0444103367626667, 0.12934869527816772, -0.05972198769450188, 
    0.04622239992022514, -0.024286488071084023, 0.09988398849964142, -0.011956240981817245, 
    0.026986580342054367, -0.026057347655296326, 0.06455238163471222, 0.025457285344600677, 
    0.08338768035173416, -0.007714407052844763, 0.06503604352474213, 0.13340820372104645, 
    0.036856427788734436, -0.020398007705807686, -0.01044167298823595, -0.07726229727268219, 
    0.07047867774963379, 0.0017656709533184767, 0.022671330720186234, -0.04054899886250496, 
    0.004144622012972832, -0.10231197625398636, -0.10050797462463379, -0.05892016738653183, 
    0.11173941195011139, -0.15633845329284668, 0.040932584553956985, -0.018737467005848885, 
    -0.0027822372503578663, 0.035810090601444244, -0.08469315618276596, -0.017674218863248825, 
    0.04754095524549484, -0.1374996155500412, -0.0664997547864914, -0.06840226799249649, 
    0.13999153673648834, -0.12241688370704651, 0.10995534807443619, -0.1144782230257988, 
    0.1561340093612671, -0.1080281063914299, 0.03394235670566559, 0.10412167012691498, 
